	Non/colère/saine	Non/colères/saines	Oui/vie/saine	Oui/personne/saine	Oui/peau/saine	Oui/nourriture/saine	Oui/chair/saine	Oui/écorces/saines	Oui/dents/saines	Oui/bouche/saine	Oui/jambe/saine	Oui/feuilles/saines	Non/observateur/fin	Oui/bretelles/fines	Oui/peau/fine	Oui/couche/fine	Oui/robe/fine	Oui/lames/fines	Oui/feuilles/fines	Oui/moustaches/fines	Oui/laine/fine	Oui/tissu/fin	Oui/matelas/fin	Non/ouïe/fine	Oui/moustache/fine	Oui/membrane/fine	Oui/sandales/fines	Oui/pattes/fines	Oui/lunettes/fines	Oui/bandes/fines	Oui/mouchoir/fin	Oui/collier/fin	Oui/cigarettes/fines	Oui/stylet/fin	Non/idée/brillante	Oui/lèvres/brillantes	Oui/veine/brillante	Oui/épées/brillantes	Oui/boule/brillante	Oui/constellations/brillantes	Oui/tissu/brillant	Oui/cuirasse/brillante	Oui/sphère/brillante	Oui/halo/brillant	Oui/pièces/brillantes	Non/élève/brillant	Non/élève/brillante	Non/élèves/brillants	Oui/éclats/brillants	Oui/dents/brillantes	Oui/lunettes/brillantes	Oui/chaussures/brillantes	Oui/cristaux/brillants	Oui/lame/brillante	Oui/lune/brillante	Oui/métal/brillant	Oui/anneau/brillant	Oui/aiguilles/brillantes	Non/douche/bonne	Oui/père/bon	Oui/élèves/bons	Oui/mère/bonne	Oui/nageur/bon	Oui/tireur/bon	Oui/étudiants/bons	Oui/professeure/bonne	Oui/commandant/bon	Oui/jardinier/bon	Oui/comédienne/bonne	Non/chanteur/grand	Oui/cadres/grands	Oui/lévrier/grand	Oui/nef/grande	Oui/portefeuille/grand	Oui/figurines/grandes	Oui/salon/grand	Oui/fenêtres/grandes	Oui/carnets/grands	Oui/mains/grandes	Oui/arc/grand	Non/journalistes/grands	Non/journaliste/grand	Non/journaliste/grande	Oui/salle/grande	Oui/arbres/grands	Oui/escalier/grand	Oui/supermarché/grand	Oui/chapiteau/grand	Oui/écurie/grande	Oui/chapeau/grand	Oui/couteau/grand	Oui/îles/grandes	Oui/panneaux/grands	Non/couple/beau	Oui/marquise/belle	Oui/princesse/belle	Oui/chevaux/beaux	Oui/violon/beau	Oui/baron/beau	Oui/fleurs/belles	Oui/maison/belle	Oui/visage/beau	Oui/pantalon/beau	Oui/bateau/beau	Non/temps/beau	Oui/salon/beau	Oui/garçon/beau	Oui/robe/belle	Oui/bracelet/beau	Oui/sièges/beaux	Oui/feuillages/beaux	Oui/cathédrale/belle	Oui/seins/beaux	Oui/table/belle	Oui/chapeau/beau	Non/soleil/plomb	Oui/balles/plomb	Oui/lamelles/plomb	Oui/balle/plomb	Oui/noyaux/plomb	Oui/cartouches/plomb	Oui/billes/plomb	Oui/boulet/plomb	Oui/bille/plomb	Oui/plaque/plomb	Oui/coupole/plomb	Non/silence/plomb	Oui/urne/plomb	Oui/tablette/plomb	Oui/tuyau/plomb	Oui/cercueil/plomb	Oui/cage/plomb	Oui/gants/plomb	Oui/masse/plomb	Oui/lingot/plomb	Oui/morceau/plomb	Oui/armatures/plomb	Non/vent/grand	Non/vents/grands	Oui/cheval/grand	Oui/appartement/grand	Oui/lit/grand	Oui/seau/grand	Oui/tableau/grand	Oui/table/grande	Oui/parking/grand	Oui/librairie/grande	Oui/bureau/grand	Oui/miroir/grand	Non/ami/grand	Non/amie/grande	Non/amis/grands	Oui/manteaux/grands	Oui/surface/grande	Oui/mur/grand	Oui/maison/grande	Oui/femme/grande	Oui/parc/grand	Oui/poignard/grand	Oui/chêne/grand	Oui/tentes/grandes	Oui/sacs/grands	Non/dégoût/profond	Oui/fossé/profond	Oui/galeries/profondes	Oui/gorges/profondes	Oui/puits/profond	Oui/fosse/profonde	Oui/grotte/profonde	Oui/faille/profonde	Oui/caverne/profonde	Oui/forêt/profonde	Oui/cavité/profonde	Non/sommeil/profond	Oui/lac/profond	Oui/tranchées/profondes	Oui/canyons/profonds	Oui/crique/profonde	Oui/sous-sol/profond	Oui/trous/profonds	Oui/remous/profond	Oui/sillon/profond	Oui/douve/profonde	Oui/puisard/profond	Non/chagrin/gros	Non/chagrins/gros	Oui/lunettes/grosses	Oui/boutons/gros	Oui/chevalière/grosse	Oui/piquets/gros	Oui/objet/gros	Oui/vaisseau/gros	Oui/poche/grosse	Oui/bacs/gros	Oui/flocons/gros	Oui/cloches/grosses	Non/mémoire/éléphant	Non/mémoires/éléphant	Oui/troupeau/éléphants	Oui/groupe/éléphants	Oui/bouse/éléphant	Oui/pattes/éléphants	Oui/défenses/éléphant	Oui/trompe/éléphant	Oui/crânes/éléphant	Oui/peau/éléphant	Oui/dents/éléphant	Oui/tête/éléphant	Non/bilan/lourd	Oui/équipement/lourd	Oui/plateau/lourd	Oui/cartable/lourd	Oui/manteau/lourd	Oui/ouvrage/lourd	Oui/bouclier/lourd	Oui/portail/lourd	Oui/revolver/lourd	Oui/crâne/lourd	Oui/sac/lourd	Non/lettre/longue	Non/lettres/longues	Oui/doigts/longs	Oui/mèches/longues	Oui/chaussette/longue	Oui/bras/long	Oui/tables/longues	Oui/guibolles/longues	Oui/moustaches/longues	Oui/siège/long	Oui/mur/long	Oui/queue/longue
Non/colère/saine	1.0	0.7438657879829407	0.26005324721336365	0.7208479642868042	0.4072902500629425	0.7133946418762207	0.5298768281936646	0.4329390227794647	0.3701927065849304	0.6624707579612732	0.5595530271530151	0.5002192854881287	0.03862718492746353	0.0954262986779213	0.08244844526052475	0.22093136608600616	0.19804947078227997	0.11284281313419342	0.07302581518888474	0.11006832122802734	0.22708666324615479	-0.0029680177103728056	-0.015403383411467075	0.14318470656871796	0.27906835079193115	0.21761047840118408	0.1120545044541359	0.057305991649627686	0.06935153901576996	0.10746757686138153	0.054792895913124084	0.07130087167024612	0.07660464197397232	0.08320953696966171	-0.037198957055807114	0.11724547296762466	0.04736329987645149	0.21859696507453918	0.17462563514709473	0.15347260236740112	-0.018474191427230835	0.16074629127979279	0.0610085092484951	0.08994590491056442	0.12763452529907227	0.08914731442928314	0.18919512629508972	0.09317322820425034	0.14737635850906372	0.0004764098848681897	0.08054246008396149	0.11768609285354614	0.07860612124204636	0.07581029832363129	0.12325906753540039	0.09031624346971512	0.05520254001021385	0.14530952274799347	0.1638256311416626	0.28728175163269043	0.20266704261302948	0.20541596412658691	0.21079540252685547	0.2519063651561737	0.22108188271522522	0.30581337213516235	0.28113579750061035	0.2689281702041626	0.3068057894706726	0.1200101375579834	0.09538941830396652	0.013582928106188774	-0.047446899116039276	-0.01980648562312126	0.09986655414104462	-0.06502514332532883	0.044821951538324356	0.07532909512519836	0.0779942125082016	0.04249783605337143	0.16235612332820892	0.06351342052221298	0.13946323096752167	-0.030327750369906425	0.050722360610961914	0.04416960850358009	0.00022172970056999475	0.05216987431049347	0.009513718076050282	0.07166273891925812	0.05055753514170647	0.03305188938975334	0.08506397157907486	0.10613637417554855	0.2030843198299408	0.26885145902633667	0.14302638173103333	0.1555113047361374	0.10024815052747726	0.2014167159795761	0.15857577323913574	0.14626067876815796	0.15292730927467346	0.1146138459444046	0.15657882392406464	0.03838520869612694	0.16304942965507507	0.14253710210323334	0.1688096672296524	0.07742001861333847	0.1521463692188263	0.2656994163990021	0.08782172203063965	0.13717664778232574	0.16406506299972534	0.00028315858799032867	0.03937157988548279	-0.01783488690853119	-0.029762908816337585	-0.03451940789818764	0.009655111469328403	0.01764562353491783	0.06005198881030083	-0.02603316307067871	-0.07253725081682205	-0.02325659804046154	0.06479204446077347	0.026414263993501663	-0.0451105460524559	-0.013621660880744457	0.06099101901054382	-0.0399259477853775	0.051433540880680084	-0.02704308182001114	-0.012586846947669983	-2.1405110601335764e-05	-0.018915560096502304	0.14818508923053741	0.1727176457643509	0.02695011906325817	0.022643161937594414	-0.03259718418121338	0.015434620901942253	0.015137462876737118	-0.007359105162322521	0.035266391932964325	0.08442316204309464	0.009718131273984909	0.029021255671977997	0.04661642760038376	-0.000800617563072592	0.08982747048139572	0.15653175115585327	0.001477553159929812	0.014808488078415394	-0.036931149661540985	0.025388726964592934	0.008731394074857235	0.13782978057861328	0.0016506119864061475	0.05740736424922943	0.06061229482293129	0.22095075249671936	0.028485406190156937	-0.01763981208205223	0.07187498360872269	7.3919007263612e-05	0.06179620698094368	0.04902765527367592	0.03361313417553902	0.06852134317159653	0.007752581499516964	-0.06508919596672058	-0.08480828255414963	0.008114523254334927	-0.021061481907963753	0.07464997470378876	0.0211301539093256	-0.005805406253784895	-0.03001040406525135	0.03239597752690315	-0.044298917055130005	0.060012560337781906	-0.06363014131784439	0.13200590014457703	0.09638261795043945	-0.006674708798527718	0.07286439090967178	0.08222432434558868	0.0987483561038971	0.01614896021783352	0.022047625854611397	0.026794753968715668	-0.01844917982816696	0.07920587062835693	0.07138509303331375	-0.0932876244187355	-0.05502298101782799	-0.05456262454390526	-0.011689407750964165	-0.06568583101034164	-0.04088844731450081	-0.07433787733316422	-0.023613570258021355	0.07053034752607346	-0.19758814573287964	-0.07882530242204666	-0.015640849247574806	-0.09927503019571304	-0.01924525573849678	0.029571974650025368	0.04183413088321686	0.07160285860300064	-0.0035278063733130693	0.06044061854481697	0.010999208316206932	0.04181036353111267	0.07012130320072174	0.019383426755666733	0.1304844170808792	0.11463876068592072	0.09986978024244308	0.07721299678087234	0.15916451811790466	0.15061423182487488	-0.06313503533601761	-0.02975589409470558	0.07979454100131989	0.08579523116350174	0.06906594336032867	0.17813727259635925	
Non/colères/saines	0.7438657879829407	1.0	0.21210578083992004	0.49615323543548584	0.29136210680007935	0.48167040944099426	0.3370712697505951	0.5290210247039795	0.46050941944122314	0.45538848638534546	0.36392709612846375	0.5873836278915405	0.007566730957478285	0.17879056930541992	0.03735077381134033	0.1374584585428238	0.13925376534461975	0.14807520806789398	0.1104542538523674	0.21019336581230164	0.08146000653505325	-0.06773602217435837	-0.03594653680920601	0.04485148563981056	0.1810590922832489	0.12614649534225464	0.18326392769813538	0.13395506143569946	0.16311554610729218	0.14480607211589813	0.02714049629867077	0.04255325347185135	0.13352413475513458	0.05276868864893913	-0.04381167143583298	0.06204788386821747	0.011191104538738728	0.2068297564983368	0.11991012841463089	0.18219032883644104	-0.09440957009792328	0.1616050750017166	0.036915309727191925	0.06420014053583145	0.10570435225963593	0.0759010910987854	0.11436185240745544	0.02497493103146553	0.22711358964443207	-0.009989164769649506	0.1261386275291443	0.14116816222667694	0.026149917393922806	0.06887563318014145	0.12272889912128448	0.051376551389694214	0.01966526173055172	0.09201757609844208	0.15260419249534607	0.24709919095039368	0.10069184005260468	0.2125333994626999	0.2128741294145584	0.1802109181880951	0.10470813512802124	0.20266303420066833	0.21014177799224854	0.20524908602237701	0.2409633994102478	0.09749647974967957	-0.04198015481233597	0.06008756905794144	-0.05895458906888962	-0.007991593331098557	0.05978579819202423	-0.03899851441383362	0.02008691057562828	0.059052061289548874	-0.0008459486998617649	0.055200736969709396	0.018353763967752457	0.050179850310087204	0.028339101001620293	-0.03991595283150673	-0.06167379766702652	0.037494152784347534	-0.016642538830637932	-0.0005825871485285461	0.010677550919353962	0.10189791023731232	0.051587577909231186	0.02813101001083851	0.010099058039486408	0.06517014652490616	0.09723452478647232	0.1532178670167923	0.10583972185850143	0.14851661026477814	0.05410223826766014	0.14620210230350494	0.0808883011341095	0.08722532540559769	0.09178575128316879	0.0775664672255516	0.0974874347448349	0.01244383119046688	0.11930367350578308	0.10249063372612	0.12516888976097107	0.034299395978450775	0.07323209196329117	0.12320894747972488	0.04835062474012375	0.03548232465982437	0.13396058976650238	0.04351294785737991	-0.04423432797193527	-0.07863610237836838	-0.058838292956352234	-0.05882937088608742	-0.05147811397910118	-0.042061928659677505	0.03338935598731041	-0.04415057972073555	-0.005391117185354233	-0.03218259662389755	0.037537019699811935	0.018751056864857674	-0.019573155790567398	-0.010002912022173405	0.004336255136877298	-0.002744880737736821	0.009540259838104248	-0.03272783011198044	-0.028446139767766	-0.0285224299877882	-0.07415857911109924	0.20668907463550568	0.18346285820007324	0.06237533316016197	0.0143874017521739	0.010654531419277191	0.036993607878685	0.05474229156970978	-0.06209047511219978	0.04046132415533066	0.013050990179181099	0.012755561619997025	0.09370578080415726	0.0415203720331192	0.001999399159103632	-0.02344605140388012	0.07351358979940414	-0.053510960191488266	0.0749613419175148	-0.04796640947461128	0.0011889170855283737	0.027569547295570374	0.09835700690746307	-0.01085589174181223	-0.02224419265985489	0.008064385503530502	0.1313968300819397	0.06727299839258194	-0.01847349852323532	0.09228450059890747	0.022379716858267784	0.04917094111442566	0.09648235887289047	0.07375286519527435	0.08841144293546677	0.011350504122674465	-0.0310300774872303	-0.06060700863599777	0.024236541241407394	0.036882687360048294	0.0957520455121994	0.0678853765130043	-0.010335061699151993	0.01145599503070116	0.09720542281866074	-0.0031223490368574858	0.062264688313007355	-0.037017807364463806	0.10190696269273758	0.11557649821043015	0.007478766143321991	0.00548678170889616	-0.00814229715615511	0.06857413798570633	-0.014368955045938492	-0.02127647027373314	0.014539418742060661	-0.026260370388627052	0.01009643916040659	0.049837157130241394	-0.032058779150247574	-0.031029757112264633	0.005907485727220774	-0.03286631032824516	0.013155066408216953	-0.007639146875590086	-0.11704481393098831	-0.017896100878715515	-0.009244159795343876	-0.1240508183836937	-0.11583417654037476	0.02487899921834469	-0.07668016105890274	-0.037353698164224625	-0.00075707578798756	0.06942503899335861	0.05712324380874634	0.0012565270299091935	0.05862610414624214	-0.01677527092397213	0.02345207892358303	0.023361656814813614	0.04800209403038025	0.06603840738534927	0.07653430849313736	-0.00901012122631073	0.030140332877635956	0.09727184474468231	0.10687810182571411	-0.08501525223255157	-0.023634327575564384	0.12412644177675247	0.06511744856834412	0.11566296219825745	0.13245806097984314	
Oui/vie/saine	0.26005324721336365	0.21210578083992004	1.0	0.30297353863716125	0.3609413802623749	0.28486761450767517	0.3018985986709595	0.09140095859766006	0.1606077253818512	0.27082163095474243	0.26945430040359497	0.14668340981006622	-0.26842090487480164	0.02390759065747261	0.23301002383232117	0.1457316130399704	0.1855785995721817	0.10897322744131088	0.026205826550722122	0.02442820370197296	0.12689150869846344	-0.1712879091501236	-0.23626893758773804	0.12598538398742676	0.08664713054895401	0.09016542136669159	0.04734217748045921	0.04911670833826065	0.06710615009069443	0.0557047501206398	-0.218924418091774	-0.23078975081443787	0.06358411908149719	-0.19695830345153809	0.06944595277309418	0.01612401194870472	0.09067736566066742	0.14606179296970367	0.1252930909395218	0.04805021360516548	0.10779548436403275	0.0882825180888176	0.2634907364845276	0.09655874967575073	0.14585763216018677	0.05527200549840927	0.07936075329780579	0.12293792515993118	0.1560991257429123	0.053375013172626495	0.0823768824338913	0.07071533799171448	0.1355382353067398	0.1656191051006317	0.17458398640155792	0.14106574654579163	0.06711620837450027	-0.004941093269735575	0.08130494505167007	0.12148116528987885	0.06579922884702682	0.18855737149715424	0.05250735208392143	0.056458041071891785	0.05552196875214577	0.015279448591172695	0.02087615430355072	0.054555803537368774	0.023531952872872353	0.022092636674642563	0.07547007501125336	-0.0013260883279144764	0.14577966928482056	-0.052511826157569885	-0.0006821838323958218	0.087302565574646	0.007819299586117268	0.05253295600414276	0.04569343104958534	0.027108171954751015	0.00377873657271266	-0.04167863726615906	-0.07343172281980515	0.04980570077896118	0.060878124088048935	-0.01821882836520672	-0.12645965814590454	-0.06545526534318924	-0.10008733719587326	-0.041610509157180786	0.008105822838842869	0.029600324109196663	0.006832963787019253	0.05020343139767647	-0.013607727363705635	-0.005287235137075186	-0.029469745233654976	0.008041376248002052	-0.07060214877128601	0.07686609029769897	0.04810602590441704	-0.01220596581697464	-0.08915144205093384	-0.011066262610256672	0.10868839919567108	0.016934571787714958	0.010795227251946926	0.10214579850435257	-0.03808436915278435	-0.011731886304914951	-0.03561565279960632	-0.012675614096224308	-0.0246272049844265	0.0351528599858284	-0.09741789847612381	0.00863375049084425	0.00593813369050622	-0.07682791352272034	0.034376345574855804	-0.06275145709514618	-0.10256283730268478	-0.016736363992094994	-0.022568225860595703	0.003980742301791906	-0.038381390273571014	-0.02665153704583645	0.03526797890663147	0.050107769668102264	-0.0518101342022419	-0.033919557929039	0.01815415360033512	0.10724072903394699	-0.03586208075284958	0.005597181152552366	0.0029019219800829887	-0.009318074211478233	-0.11479119956493378	0.0650729089975357	0.11059800535440445	-0.0037018086295574903	-0.07060307264328003	0.06314969807863235	-0.009472050704061985	0.019655177369713783	0.022152651101350784	-0.017201051115989685	-0.07741433382034302	0.04419323429465294	0.036575280129909515	0.11613795906305313	0.08479338884353638	0.13590365648269653	0.028939487412571907	0.008844939060509205	0.08138279616832733	0.032105717808008194	0.11853311955928802	0.10577856004238129	0.016751853749155998	-0.009359789080917835	-0.029490424320101738	0.1009022668004036	0.04984287545084953	0.010808644816279411	-0.012936791405081749	0.024968907237052917	-0.003767387242987752	0.055234912782907486	0.14438551664352417	0.010906919836997986	0.10887429118156433	0.1527872383594513	0.0726165920495987	0.10682697594165802	0.07097646594047546	0.01641594059765339	0.08787880837917328	0.06359545141458511	0.046103235334157944	0.01377599686384201	-0.02891361340880394	0.028678040951490402	-0.03894149884581566	-0.0768604427576065	0.11236456036567688	0.0888669565320015	0.10809210687875748	0.034396693110466	0.0857972800731659	0.009764662943780422	0.06753826886415482	0.08154062926769257	0.16626840829849243	0.04607906565070152	0.020468518137931824	0.09802519530057907	0.15223875641822815	0.09635277837514877	0.013560007326304913	0.0897998958826065	-0.002226957120001316	0.032981425523757935	0.001295974594540894	0.011688747443258762	0.023995669558644295	0.17236223816871643	0.0280807763338089	0.1027117446064949	0.025272086262702942	0.02908565104007721	0.06848060339689255	0.04837896302342415	0.10040929913520813	0.03398381918668747	0.03279980272054672	0.05485592782497406	0.04850945621728897	0.08173807710409164	0.15712101757526398	-0.07729847729206085	0.017273295670747757	-0.034177277237176895	-0.09087418019771576	-0.16259066760540009	-0.0963289737701416	-0.040962863713502884	-0.15437088906764984	-0.10398343205451965	-0.12079012393951416	-0.018468940630555153	-0.05440978333353996	
Oui/personne/saine	0.7208479642868042	0.49615323543548584	0.30297353863716125	1.0	0.4390107989311218	0.8497276902198792	0.5772584676742554	0.4492146670818329	0.32540929317474365	0.7033050656318665	0.655977725982666	0.5434415936470032	0.143457293510437	0.1395472288131714	0.05627846717834473	0.2868409752845764	0.17107228934764862	0.13024182617664337	0.1141849160194397	0.13860921561717987	0.20105695724487305	0.04975026100873947	0.10136416554450989	0.17220503091812134	0.32726994156837463	0.2787936329841614	0.1432764232158661	0.08322778344154358	0.13965654373168945	0.10012799501419067	0.11955972015857697	0.11861145496368408	0.13085907697677612	0.14701038599014282	-0.07073525339365005	0.01791871339082718	-0.0009550043614581227	0.19403696060180664	0.06432817876338959	0.21687549352645874	-0.026135781779885292	0.14495360851287842	0.09429264813661575	0.01577092707157135	0.1648169457912445	0.13439978659152985	0.23687714338302612	0.1398780196905136	0.05428427830338478	-0.07766779512166977	0.1440337598323822	0.14546658098697662	0.0885559618473053	0.011456086300313473	0.015646954998373985	0.06155315786600113	0.05960335582494736	0.11912673711776733	0.1761782467365265	0.26482081413269043	0.27556344866752625	0.14762356877326965	0.25591251254081726	0.3260898292064667	0.2805746793746948	0.3511403203010559	0.31796514987945557	0.29868248105049133	0.34095582365989685	0.18432198464870453	0.10196705162525177	0.08504346013069153	-0.0007488549454137683	0.0591815821826458	0.11077865958213806	0.003192332573235035	0.06142706051468849	0.06476735323667526	0.029095657169818878	0.008585654199123383	0.1782863438129425	0.13929592072963715	0.2658372223377228	0.04155081510543823	0.03802139312028885	0.09197420626878738	0.031533192843198776	0.11463703215122223	0.05537538230419159	0.11125858873128891	0.06482039391994476	0.025203146040439606	0.09120000898838043	0.17680825293064117	0.3001013994216919	0.34465745091438293	0.16766196489334106	0.19508439302444458	0.1692999303340912	0.12047550827264786	0.21696384251117706	0.16170108318328857	0.1822744756937027	0.1780221313238144	0.18722626566886902	0.10694707185029984	0.2215072065591812	0.10085450857877731	0.21623803675174713	0.14512377977371216	0.19118113815784454	0.32615044713020325	0.07575111836194992	0.1881943792104721	0.20988290011882782	0.01736297272145748	0.06855292618274689	0.05675194039940834	-0.014429346658289433	0.006277020554989576	0.08610221743583679	0.07145289331674576	0.09618132561445236	0.008075550198554993	-0.012067681178450584	0.03706492483615875	0.058998823165893555	0.027957044541835785	0.03858724609017372	0.05013716220855713	0.1192120611667633	-0.08859409391880035	0.09311029314994812	-0.03181667998433113	0.07403786480426788	0.06794136762619019	0.07221856713294983	0.07157712429761887	0.10900253802537918	0.013859652914106846	0.11055152863264084	0.04777609929442406	-0.02677660994231701	0.053689777851104736	0.06520358473062515	0.06575092673301697	0.12346924096345901	0.08706942200660706	0.058993324637413025	0.08317286521196365	0.06250155717134476	0.0596531517803669	0.14387723803520203	0.07814109325408936	-0.04190167784690857	0.05265774950385094	0.09616225212812424	0.03939592093229294	0.13719969987869263	0.0031718523241579533	0.04841930791735649	0.038735922425985336	0.02527128905057907	0.015972314402461052	0.05637022480368614	0.0826350599527359	0.0554366298019886	0.0934937447309494	0.13639144599437714	0.11132632195949554	0.13301163911819458	-0.00770058948546648	0.05332325026392937	0.024116549640893936	0.018535638228058815	0.0022718668915331364	0.14368805289268494	0.10455977916717529	0.137687548995018	0.039359200745821	0.006108342669904232	0.046024393290281296	0.04812948778271675	0.07358025759458542	0.03782803565263748	0.06911741942167282	0.052630163729190826	0.10428318381309509	0.15174299478530884	0.15281598269939423	0.10752569884061813	0.11038563400506973	0.03795322775840759	0.00902238953858614	0.11386951804161072	0.09257785975933075	-0.11910104751586914	-0.06694290041923523	-0.09717113524675369	0.04786395654082298	-0.1402982771396637	-0.05121948942542076	-0.08122380077838898	-0.030596792697906494	0.02325507253408432	-0.27389854192733765	-0.15827220678329468	-0.1254299283027649	-0.07138292491436005	0.08855164051055908	0.11722765862941742	0.0722973570227623	0.09925025701522827	0.06583259254693985	0.05170050635933876	0.09497898072004318	0.08986341953277588	0.05816366523504257	0.00546790799126029	0.11426374316215515	0.11267611384391785	0.13095393776893616	0.02878398261964321	0.18044601380825043	0.14314593374729156	0.015034844167530537	0.03291894495487213	0.09345701336860657	0.1357032209634781	0.003161202184855938	0.09411852806806564	
Oui/peau/saine	0.4072902500629425	0.29136210680007935	0.3609413802623749	0.4390107989311218	1.0	0.41621774435043335	0.5451685786247253	0.3622930645942688	0.3963008224964142	0.4930049479007721	0.5152544379234314	0.354561984539032	-0.0598100982606411	-0.004564435221254826	0.5967566967010498	0.14219506084918976	0.2122182995080948	0.12270639836788177	-0.03899841010570526	-0.0028469208627939224	0.1984003186225891	0.11130012571811676	0.023509735241532326	0.11227782815694809	0.09897606074810028	0.1143447756767273	0.009342177771031857	0.04686553776264191	0.045943956822156906	0.033702120184898376	0.061169154942035675	0.02466231770813465	-0.062399495393037796	0.07192526012659073	-0.023814521729946136	0.29475435614585876	0.09910404682159424	0.21691139042377472	0.181379035115242	0.08091013133525848	0.23943081498146057	0.24284808337688446	0.07879558205604553	0.1368754357099533	0.12741917371749878	-0.021879088133573532	0.05150807276368141	-0.02940339781343937	0.11183275282382965	0.20104776322841644	0.2582515478134155	0.16083970665931702	0.13093942403793335	0.21145015954971313	0.14565105736255646	0.13176830112934113	0.06543827056884766	0.12893489003181458	0.2125549018383026	0.13334140181541443	0.09220350533723831	0.13971103727817535	0.1866750717163086	0.17456035315990448	0.10354679822921753	0.13008920848369598	0.13842254877090454	0.1360180824995041	0.16142185032367706	0.11934191733598709	0.08250067383050919	0.09892413020133972	0.11815007776021957	0.07352862507104874	0.12189850956201553	0.05969162657856941	0.0939927026629448	0.10359888523817062	0.2291872501373291	0.06860128790140152	0.09029439091682434	0.04727645590901375	0.0990956649184227	0.06470312923192978	0.10197417438030243	0.024033429101109505	0.009199826046824455	0.045047562569379807	0.08973177522420883	0.150019109249115	0.1732858568429947	0.111374132335186	0.09397366642951965	0.01272871159017086	0.1315578669309616	0.14882022142410278	0.09012311697006226	0.13380324840545654	0.03492080792784691	0.22257502377033234	0.09144915640354156	0.26753705739974976	0.13720735907554626	0.07286601513624191	0.032171208411455154	0.041210923343896866	0.09882351011037827	0.30249565839767456	0.13162806630134583	0.08392637968063354	0.09144136309623718	0.10277484357357025	0.23065727949142456	0.040912140160799026	0.11194726824760437	0.046359751373529434	0.013864818960428238	0.03030860610306263	0.04228135570883751	-0.008666775189340115	-0.09159480780363083	0.00615128455683589	-0.013663976453244686	0.04837150126695633	-0.030714312568306923	-0.06422821432352066	-0.11836886405944824	-0.012184636667370796	-0.06620004028081894	-0.033395908772945404	0.01132043357938528	0.04436970502138138	0.14605271816253662	-0.02546667866408825	0.038417357951402664	0.004886502865701914	-0.028937894850969315	0.13258284330368042	0.1296810805797577	0.14230485260486603	0.009955580346286297	0.12518590688705444	0.06648831814527512	0.011404633522033691	0.02774929441511631	0.019778044894337654	0.11037228256464005	0.059486184269189835	0.11335252970457077	0.08687952905893326	0.0997830182313919	0.03911842033267021	0.23083233833312988	0.2355620563030243	0.11681835353374481	0.07983946055173874	0.19639800488948822	0.051533013582229614	0.1865895539522171	0.09173812717199326	0.048499055206775665	0.16806766390800476	0.009292429313063622	0.02144336700439453	-0.041795749217271805	0.15570759773254395	0.04522637277841568	0.16839337348937988	0.1740507036447525	0.04802463948726654	0.17562951147556305	0.13991127908229828	0.16568338871002197	0.05579043924808502	0.10514402389526367	-0.006302835885435343	0.10341152548789978	0.1605646014213562	0.05333009362220764	0.10215958207845688	-0.0331074558198452	0.1389782577753067	0.13340525329113007	-0.05872182548046112	0.12314555048942566	0.035256024450063705	0.1723216325044632	0.1294214129447937	0.05866903439164162	0.02735833078622818	0.0092025026679039	0.056869618594646454	0.14395229518413544	0.021829165518283844	0.05792229250073433	0.026810429990291595	-0.09030366688966751	-0.0957397073507309	-0.035304393619298935	-0.020193930715322495	0.05283774062991142	0.14034536480903625	-0.058224502950906754	-0.11552747339010239	0.08875390142202377	0.6140255928039551	0.0939026027917862	0.1052616760134697	-0.06481406837701797	0.011965750716626644	0.07032584398984909	0.11175572127103806	0.20343847572803497	0.0025751073844730854	0.10620242357254028	0.02239077351987362	0.07522068917751312	0.27716362476348877	0.21053311228752136	0.03992931544780731	0.06792127341032028	0.18894197046756744	0.1728290170431137	0.13579225540161133	0.1457623690366745	-0.06100159510970116	0.09808971732854843	0.18142826855182648	0.076169453561306	0.11073283851146698	0.2761280834674835	
Oui/nourriture/saine	0.7133946418762207	0.48167040944099426	0.28486761450767517	0.8497276902198792	0.41621774435043335	1.0	0.6384188532829285	0.5000470280647278	0.3490361273288727	0.7290639281272888	0.6345726847648621	0.5657297372817993	0.14539027214050293	0.12548846006393433	0.041847895830869675	0.2747231423854828	0.2036353051662445	0.15122677385807037	0.1257997453212738	0.14796049892902374	0.27566948533058167	0.10452136397361755	0.13418497145175934	0.16756027936935425	0.3295234441757202	0.3012883961200714	0.17370730638504028	0.10248848795890808	0.12034128606319427	0.12747089564800262	0.16410844027996063	0.17334333062171936	0.1527576446533203	0.16115067899227142	-0.10143651068210602	0.035376813262701035	-0.007738790009170771	0.24537163972854614	0.10213743895292282	0.19014586508274078	0.0516473725438118	0.20075006783008575	0.05959411710500717	0.034775275737047195	0.20469722151756287	0.01522145327180624	0.1272117644548416	0.0659249871969223	0.08532985299825668	-0.042599231004714966	0.1431422233581543	0.18646889925003052	0.17660754919052124	0.028003912419080734	0.05169420689344406	0.14631396532058716	0.10212796926498413	0.13024462759494781	0.23654744029045105	0.26442041993141174	0.1994321048259735	0.12144360691308975	0.26361972093582153	0.29926466941833496	0.22988751530647278	0.3527827560901642	0.34801411628723145	0.3262433409690857	0.3344619572162628	0.19337564706802368	0.09998494386672974	0.1404617726802826	-0.020298276096582413	0.11430978775024414	0.1670491248369217	0.044252946972846985	0.0973345935344696	0.12847481667995453	-0.006912943907082081	0.020799992606043816	0.16901721060276031	0.13534294068813324	0.22659413516521454	0.05990886688232422	0.08936548233032227	0.13263247907161713	0.1320899873971939	0.16797856986522675	0.06477494537830353	0.14904974400997162	0.14295516908168793	0.051072269678115845	0.15753507614135742	0.1304609775543213	0.289065957069397	0.35294097661972046	0.18117019534111023	0.2105080783367157	0.1628066748380661	0.19926422834396362	0.27614039182662964	0.13366587460041046	0.24280229210853577	0.21272194385528564	0.19104725122451782	0.12126946449279785	0.1902088224887848	0.1673123687505722	0.24157996475696564	0.1671493947505951	0.22243501245975494	0.374502032995224	0.08970440924167633	0.2367473542690277	0.2178172916173935	-0.01628141850233078	0.04594788700342178	0.023668400943279266	-0.07797124236822128	-0.01900176890194416	0.05558070167899132	0.06270486861467361	0.02887391857802868	-0.05156765133142471	-0.07667911797761917	0.0002927564491983503	0.003068891353905201	-0.0028519772458821535	-0.025360165163874626	0.03754587844014168	0.08102388679981232	-0.047987766563892365	0.06047873571515083	-0.0801142081618309	0.025696290656924248	0.05129517987370491	0.032595839351415634	0.08471899479627609	0.11631909012794495	0.07384339720010757	0.16246365010738373	-0.004857199732214212	0.10529482364654541	0.10638946294784546	0.08815977722406387	0.14012159407138824	0.16301119327545166	0.12439782172441483	0.09873350709676743	0.019896268844604492	-0.018290651962161064	0.029642194509506226	0.2355465143918991	0.12158241122961044	-0.03597492352128029	0.07830280065536499	-0.004908265545964241	0.11432024091482162	0.19054751098155975	0.04993424192070961	0.12122415751218796	0.17886917293071747	0.09543215483427048	0.026123516261577606	0.11444652825593948	0.09342364221811295	0.12302783876657486	0.10234631597995758	0.195115864276886	0.09735076129436493	0.20358788967132568	0.06883576512336731	0.10467002540826797	0.07866872847080231	0.06916272640228271	0.04822859540581703	0.18264171481132507	0.15288247168064117	0.18069712817668915	0.08417696505784988	0.004148056264966726	0.03847252577543259	0.11444413661956787	0.07868494838476181	0.025059258565306664	0.06513480842113495	0.05481316149234772	0.12098199874162674	0.16234923899173737	0.1705811470746994	0.06359458714723587	0.11787039786577225	0.12146837264299393	0.07738758623600006	0.18409866094589233	0.129909947514534	-0.13550503551959991	-0.07190138846635818	-0.12452904134988785	-0.05878003314137459	-0.0870952382683754	-0.020716801285743713	-0.06582045555114746	-0.12997624278068542	0.08146028965711594	-0.3049180805683136	-0.12249069660902023	-0.19081827998161316	-0.060996126383543015	0.13503168523311615	0.14998793601989746	0.12614767253398895	0.1579224020242691	0.07098986953496933	0.08883532881736755	0.09051070362329483	0.11736204475164413	0.0933508574962616	0.10495588183403015	0.07517733424901962	0.09216715395450592	0.08291254937648773	0.032111991196870804	0.21528716385364532	0.1291312873363495	0.02550666593015194	0.02528252638876438	0.11831318587064743	0.1255965232849121	-0.004402525722980499	0.16784526407718658	
Oui/chair/saine	0.5298768281936646	0.3370712697505951	0.3018985986709595	0.5772584676742554	0.5451685786247253	0.6384188532829285	1.0	0.4217192530632019	0.3451216518878937	0.5918347835540771	0.5618330240249634	0.399329274892807	0.00010615539940772578	-0.06093071028590202	0.11184169352054596	0.07109476625919342	0.12489736080169678	0.07047927379608154	-0.046915821731090546	-0.03569086641073227	0.13580405712127686	0.08151069283485413	0.021995974704623222	0.08688389509916306	0.06423552334308624	0.09609697759151459	0.006257226224988699	0.026296036317944527	-0.0849761888384819	-0.022275200113654137	0.03998147323727608	0.024042822420597076	-0.055057428777217865	0.06703609228134155	-0.05744156986474991	0.11328821629285812	0.09171097725629807	0.2466655820608139	0.19603362679481506	0.0818411111831665	0.1516345739364624	0.24202574789524078	0.07209628075361252	0.14079122245311737	0.1719316840171814	-0.03962939232587814	0.038008492439985275	-0.042834047228097916	0.16623258590698242	0.08948955684900284	0.049721166491508484	0.09540697187185287	0.06919776648283005	0.17093540728092194	0.09971479326486588	0.19830413162708282	0.061826273798942566	0.08005676418542862	0.12303297221660614	0.1987026184797287	0.09109938889741898	0.14353710412979126	0.19584611058235168	0.21403442323207855	0.12541712820529938	0.19264476001262665	0.21513541042804718	0.1924121081829071	0.20404833555221558	0.12285654246807098	0.10684581100940704	0.09740317612886429	0.10408106446266174	0.051773056387901306	0.15451061725616455	0.015569755807518959	0.045614227652549744	0.09676963835954666	0.10507801175117493	0.07873596996068954	0.08196745812892914	0.05440974608063698	0.08662543445825577	0.058522071689367294	0.09689289331436157	0.09396209567785263	0.032230280339717865	0.1346326768398285	-0.018915705382823944	0.12377601861953735	0.21308593451976776	0.039226822555065155	0.08981211483478546	0.0330955795943737	0.1493190973997116	0.16347214579582214	0.0704929307103157	0.13154380023479462	0.07783346623182297	0.1265448033809662	0.09429662674665451	0.10785070061683655	0.13209062814712524	0.0650104284286499	0.05590200051665306	0.011294219642877579	0.0840468630194664	0.20995067059993744	0.1017494797706604	0.0850236788392067	0.12958769500255585	0.1981218308210373	0.15163332223892212	0.19076062738895416	0.09837082028388977	-0.10001417994499207	-0.00953593011945486	0.00838758610188961	-0.005971958395093679	-0.012378034181892872	-0.10310333222150803	-0.02996462769806385	-0.010053164325654507	-0.04442082345485687	-0.09611675143241882	-0.07147227972745895	-0.07658690959215164	-0.01716156117618084	-0.08493303507566452	-0.052016887813806534	-0.013644159771502018	0.003133194986730814	-0.00936061330139637	-0.062101610004901886	0.004008980467915535	0.017223842442035675	-0.043249279260635376	0.08795946091413498	0.11172056943178177	0.06834803521633148	0.05276375263929367	0.08826681971549988	0.09117922931909561	0.10564136505126953	0.14565259218215942	0.04222249612212181	0.06941371411085129	0.02839173562824726	0.12457115948200226	-0.005609268322587013	-0.027073750272393227	0.007158977910876274	0.1888430267572403	0.1155935749411583	0.06384219229221344	0.022399945184588432	0.084908127784729	-0.0009414928499609232	0.20374441146850586	0.12821438908576965	0.06099319830536842	0.1397627890110016	0.07951587438583374	-0.008790411986410618	0.07065781205892563	0.1063167005777359	0.015489663928747177	0.11582910269498825	0.13738147914409637	-0.002636981662362814	0.16051523387432098	0.025194263085722923	0.1209803894162178	-0.09350802004337311	0.011411678977310658	0.034286096692085266	0.0903007909655571	0.120834581553936	-0.004046635236591101	0.10551991313695908	-0.08560485392808914	0.06317918747663498	0.0745338574051857	-0.0710371658205986	0.004312056582421064	-0.00017438476788811386	-0.05347902327775955	0.011350481770932674	0.023783698678016663	0.07043156027793884	0.021463651210069656	0.03506828844547272	0.04248354211449623	-0.031193727627396584	0.07152841240167618	0.051279306411743164	-0.07502418011426926	-0.06851968169212341	-0.0463620088994503	-0.04023407772183418	0.008680716156959534	0.09843672811985016	-0.07592049241065979	-0.1323510706424713	0.18243925273418427	0.02974768728017807	-0.007046706508845091	-0.021365145221352577	-0.15059462189674377	-0.037589751183986664	0.04672297090291977	0.008341391570866108	0.08502181619405746	-0.025996476411819458	-0.004875422455370426	-0.033761557191610336	0.06089038401842117	0.15189090371131897	0.05742365121841431	0.04374425858259201	0.08099933713674545	0.0940716490149498	0.06690500676631927	0.14307904243469238	0.1351729929447174	0.06742240488529205	0.10368121415376663	0.0962204560637474	0.05509347841143608	0.040971823036670685	0.26571547985076904	
Oui/écorces/saines	0.4329390227794647	0.5290210247039795	0.09140095859766006	0.4492146670818329	0.3622930645942688	0.5000470280647278	0.4217192530632019	1.0	0.4675770103931427	0.43929100036621094	0.4242507517337799	0.764531672000885	0.0411415658891201	0.1059294268488884	0.08430999517440796	0.1462211161851883	0.17416976392269135	0.20733098685741425	0.1860063225030899	0.09933726489543915	0.17414340376853943	0.0558348149061203	0.06323114037513733	0.0711374282836914	0.12698043882846832	0.16833852231502533	0.15202215313911438	0.07805212587118149	0.06518899649381638	0.10470764338970184	0.07504657655954361	0.0773020014166832	0.06781395524740219	0.0707729160785675	0.018467530608177185	0.09138131886720657	0.06853468716144562	0.2999381124973297	0.18083465099334717	0.22535374760627747	0.1037852019071579	0.15597134828567505	0.04052406921982765	0.09374944120645523	0.20291391015052795	0.018079832196235657	0.053466349840164185	-0.01688038371503353	0.2140968143939972	0.034381624311208725	0.16858042776584625	0.23019929230213165	0.17316488921642303	0.19289755821228027	0.06301810592412949	0.16195806860923767	0.12069002538919449	0.2774483263492584	0.1955779641866684	0.2611440122127533	0.1591860055923462	0.13953152298927307	0.2583088278770447	0.26129454374313354	0.20799800753593445	0.23405511677265167	0.25293058156967163	0.2757556140422821	0.24328169226646423	0.2035072296857834	0.10158317536115646	0.1255521923303604	0.015953343361616135	0.12151005119085312	0.20015619695186615	0.061237361282110214	0.15312716364860535	0.18694201111793518	0.06911551207304001	0.15601114928722382	0.10204146057367325	0.16571234166622162	0.11729304492473602	0.033979129046201706	0.314706951379776	0.19901438057422638	0.10645382851362228	0.17154085636138916	0.09563347697257996	0.2476312518119812	0.24971266090869904	0.17254440486431122	0.1760062575340271	0.05505003780126572	0.14964109659194946	0.159474179148674	0.11154382675886154	0.20701639354228973	0.14714792370796204	0.2925293743610382	0.14815936982631683	0.09676021337509155	0.15399587154388428	0.13072313368320465	0.07484165579080582	0.05484408512711525	0.09842272847890854	0.20577678084373474	0.16705632209777832	0.061478808522224426	0.22225500643253326	0.17859531939029694	0.10212820768356323	0.0837981104850769	0.20517754554748535	-0.02826141193509102	-0.056254416704177856	0.06884060055017471	-0.03757745027542114	0.0643693208694458	-0.05152781307697296	-0.001579700387082994	0.0004010986303910613	0.0045232465490698814	0.033158935606479645	-0.011054031550884247	-0.042285844683647156	0.07172317802906036	-0.003983512986451387	0.05256520211696625	0.04642182216048241	0.030337385833263397	0.06697490066289902	-0.05784618854522705	0.04774920642375946	0.03338642045855522	0.01681598275899887	0.1866847574710846	0.13516581058502197	0.10897263139486313	0.17651504278182983	0.09451918303966522	0.14892931282520294	0.15696080029010773	0.03164604678750038	0.1364271640777588	0.11634358018636703	0.10593461990356445	0.19264714419841766	0.036875542253255844	0.05308372527360916	-0.04095134139060974	0.18764519691467285	0.09151996672153473	0.1417737603187561	0.08485015481710434	0.05005138739943504	0.14934042096138	0.2246251106262207	0.27813392877578735	0.15138521790504456	0.15836647152900696	-0.008106278255581856	0.061250872910022736	0.16031865775585175	0.1768728792667389	0.14592206478118896	0.13233554363250732	0.20807810127735138	0.06697685271501541	0.1840566098690033	0.2096884846687317	0.1882157176733017	-0.044241756200790405	0.14565938711166382	0.1448538601398468	0.2321873903274536	0.15930937230587006	0.0625431090593338	0.1387169063091278	-0.04472040757536888	0.05403955280780792	0.11435022950172424	0.07101958245038986	0.07104339450597763	0.012129615992307663	0.06164003536105156	0.0970344990491867	0.03497892990708351	0.20305225253105164	0.07368794828653336	0.06354692578315735	0.04479645565152168	0.11087950319051743	0.19353026151657104	0.12780717015266418	-0.11344268172979355	-0.15651802718639374	-0.11356446146965027	-0.10749439150094986	0.05783294141292572	-0.033578578382730484	-0.21056285500526428	-0.1656600832939148	0.005353508051484823	-0.06733783334493637	-0.1566590666770935	-0.10991445928812027	-0.023545168340206146	0.13054418563842773	0.1609569489955902	0.11742076277732849	0.21474656462669373	0.17619583010673523	0.1273375302553177	0.12340280413627625	0.13207919895648956	0.14723560214042664	0.1626531183719635	0.060615841299295425	0.14666736125946045	0.05925546959042549	0.15022291243076324	0.182241290807724	0.10460902005434036	0.019194914028048515	0.10629113763570786	0.18209925293922424	0.09414714574813843	0.15864057838916779	0.12868732213974	
Oui/dents/saines	0.3701927065849304	0.46050941944122314	0.1606077253818512	0.32540929317474365	0.3963008224964142	0.3490361273288727	0.3451216518878937	0.4675770103931427	1.0	0.48078978061676025	0.4383507966995239	0.5201677680015564	-0.08726198226213455	0.04705866426229477	0.10032070428133011	0.0420236773788929	0.06424281746149063	0.3096195459365845	0.04709092900156975	0.1524474024772644	0.06767687946557999	-0.07530627399682999	-0.06344639509916306	0.05134004354476929	0.12243534624576569	0.0162232406437397	0.04177401214838028	0.20950275659561157	0.10795139521360397	0.06707489490509033	-6.934444058970257e-07	0.011461769230663776	0.03612537682056427	0.020983295515179634	-0.032001957297325134	0.29878416657447815	0.04278125613927841	0.36207854747772217	0.23760148882865906	0.1077866405248642	-0.013566390611231327	0.1715715080499649	0.010982857085764408	0.03875068575143814	0.17763526737689972	-0.030166614800691605	0.0007405210053548217	-0.03301601856946945	0.174101322889328	0.7270547747612	0.26441484689712524	0.1496868133544922	0.12225314229726791	0.35019451379776	0.21039864420890808	0.17626142501831055	0.17582161724567413	0.26190146803855896	0.15431007742881775	0.1945265233516693	0.09977836906909943	0.12022458016872406	0.17658731341362	0.18483296036720276	0.11175043880939484	0.09978188574314117	0.1618841290473938	0.19046375155448914	0.12568676471710205	0.14812235534191132	0.01093488372862339	0.15714730322360992	0.0521831214427948	0.061653293669223785	0.11038380861282349	0.005855219438672066	0.07601749151945114	0.03927561640739441	0.20604096353054047	0.14436592161655426	0.030422935262322426	0.08098983764648438	0.009932272136211395	0.009022212587296963	0.11393292993307114	0.14736920595169067	0.049871236085891724	0.09389537572860718	0.021626662462949753	0.21764186024665833	0.302587628364563	0.08367752283811569	0.07843489944934845	0.07534916698932648	0.039142265915870667	0.110427625477314	0.12572145462036133	0.16520696878433228	0.11450061947107315	0.17663218080997467	0.0034404397010803223	0.16600149869918823	0.1135457307100296	0.09162990003824234	0.0698590874671936	0.01846056617796421	0.136347234249115	0.12658868730068207	0.15953519940376282	0.11049956828355789	0.09643981605768204	0.06837727129459381	0.19635269045829773	0.06837991625070572	0.1918676644563675	-0.0563310906291008	-0.03959464654326439	0.00804709643125534	-0.03079158626496792	-0.065439872443676	-0.09208784252405167	-0.0004366046632640064	-0.02416142448782921	0.029169369488954544	0.02691464126110077	-0.06708957999944687	-0.09228186309337616	-0.01116993185132742	-0.08525338023900986	-0.0011578166158869863	-0.053318336606025696	0.07483567297458649	0.08058078587055206	-0.081901915371418	-0.05351881682872772	-0.06698805093765259	-0.08081983029842377	0.16146202385425568	0.11124640703201294	0.1908285915851593	0.06336117535829544	0.07368764281272888	0.09572069346904755	0.09908074140548706	0.039415404200553894	0.0690312534570694	-0.030837390571832657	0.026510221883654594	0.17098237574100494	0.04440002515912056	0.003939516842365265	0.021988794207572937	0.10820501297712326	0.062009841203689575	0.09704242646694183	-0.04367836192250252	0.06913819164037704	0.09669993817806244	0.2570258378982544	0.1267770230770111	-0.01351883728057146	0.09835442900657654	0.0629492774605751	0.09532767534255981	0.0966985747218132	0.2431221604347229	0.08454971015453339	0.13422802090644836	0.17832635343074799	0.09086272865533829	0.12131360918283463	0.10615021735429764	0.19743306934833527	0.033418867737054825	0.09187611192464828	0.08276854455471039	0.19590571522712708	0.1359209567308426	0.021402161568403244	0.2554338574409485	0.01426026877015829	0.13743066787719727	0.07367635518312454	0.03369329497218132	0.012937409803271294	-0.01585453562438488	0.09449568390846252	0.07721832394599915	0.007659589406102896	0.032723210752010345	-0.044227760285139084	-0.03721228614449501	0.12058072537183762	0.07608184218406677	0.03157368674874306	0.09818415343761444	-0.20087569952011108	-0.213608518242836	-0.16973356902599335	-0.1364448219537735	-0.016802502796053886	0.17729784548282623	-0.14955081045627594	-0.11759653687477112	0.15389619767665863	0.04989504814147949	0.5186603665351868	0.10763262212276459	0.006707549095153809	0.03684608265757561	0.11125249415636063	0.08915016800165176	0.13452649116516113	0.028153153136372566	0.1058477908372879	0.04527454078197479	0.204289972782135	0.26550790667533875	0.10533343255519867	-0.004698566626757383	0.017143333330750465	0.10985923558473587	0.11453208327293396	0.055413149297237396	0.21484962105751038	-0.08255170285701752	0.015317145735025406	0.14930668473243713	0.04907883331179619	0.06874252110719681	0.2667478621006012	
Oui/bouche/saine	0.6624707579612732	0.45538848638534546	0.27082163095474243	0.7033050656318665	0.4930049479007721	0.7290639281272888	0.5918347835540771	0.43929100036621094	0.48078978061676025	1.0	0.6496137380599976	0.5196580290794373	0.01124642789363861	0.03851638361811638	0.009453948587179184	0.09220778197050095	0.11908019334077835	0.07487168163061142	-0.0012428854824975133	0.05910959094762802	0.05658659338951111	0.007077408488839865	-0.006734716705977917	0.13754349946975708	0.13455133140087128	0.09841421246528625	0.03929548338055611	0.048265546560287476	0.03336666524410248	-0.006111386232078075	0.0955549031496048	0.04884706810116768	0.01871674880385399	0.095145083963871	-0.08236949890851974	0.31618189811706543	0.14973711967468262	0.23136121034622192	0.1941847801208496	0.1168009489774704	0.027975523844361305	0.15917640924453735	0.11029452085494995	0.10898319631814957	0.16944390535354614	0.00563237676396966	0.11135629564523697	0.02153301052749157	0.10336828976869583	0.1341675966978073	0.1742512732744217	0.12233234196901321	0.08928307145833969	0.1477714478969574	0.054964955896139145	0.10152144730091095	0.16496917605400085	0.16010794043540955	0.2141358107328415	0.19682227075099945	0.1704273372888565	0.1024002656340599	0.20274192094802856	0.23736464977264404	0.18469515442848206	0.24360661208629608	0.2359602451324463	0.2303268164396286	0.25046244263648987	0.12583889067173004	0.03501841798424721	0.0989619642496109	0.051970530301332474	0.03559313341975212	0.07817729562520981	0.050365105271339417	0.12881027162075043	0.0871308222413063	0.17951513826847076	0.08966385573148727	0.10380499064922333	0.06735611706972122	0.15369737148284912	0.11703754961490631	0.02568560652434826	0.07879249006509781	0.03316874802112579	0.0838402658700943	0.03437967970967293	0.13732613623142242	0.15543042123317719	0.012907166965305805	0.08027460426092148	0.04623951390385628	0.21887852251529694	0.22326049208641052	0.10864786058664322	0.1693885177373886	0.10294941067695618	0.1814512014389038	0.15993474423885345	0.18446090817451477	0.1785489320755005	0.14150236546993256	0.116775743663311	0.10760029405355453	0.14231213927268982	0.19000299274921417	0.16080045700073242	0.1227496936917305	0.1617707461118698	0.2548891007900238	0.18305885791778564	0.20369577407836914	0.1868017166852951	-0.03383154422044754	0.024891965091228485	0.041248008608818054	0.023479195311665535	-0.026429932564496994	-0.0021702616941183805	0.07805517315864563	0.03531822934746742	0.07022546231746674	-0.05449642613530159	0.028416600078344345	0.012937003746628761	0.05012769624590874	-0.03818405047059059	0.10830958187580109	0.06255510449409485	-0.021753491833806038	0.08522649854421616	-0.04193994775414467	0.03376089781522751	0.04812820628285408	-0.008549951016902924	0.11110720783472061	0.11684881150722504	0.03461683541536331	0.06493238359689713	0.06955276429653168	0.12168686091899872	0.05071886628866196	0.13012883067131042	0.0687318742275238	0.10160775482654572	0.07404883205890656	0.08744258433580399	0.019242389127612114	-0.028120774775743484	-0.005477456375956535	0.11714627593755722	0.1121111586689949	0.034118328243494034	0.055263061076402664	0.01962192915380001	0.060351546853780746	0.17956866323947906	0.058351170271635056	0.021208906546235085	0.11110498011112213	0.07690133154392242	0.05320093035697937	0.10391686111688614	0.20849956572055817	0.12006914615631104	0.17414793372154236	0.16494926810264587	0.01302123162895441	0.18759357929229736	0.04076450318098068	0.2073742300271988	-0.04819922894239426	0.10027452558279037	0.07941059023141861	0.09929066896438599	0.1371174305677414	0.09436376392841339	0.21672332286834717	0.016879403963685036	0.11948464810848236	0.10534019023180008	0.05951051786541939	-0.034686725586652756	-0.012924461625516415	0.08781319856643677	0.07413781434297562	0.11513935774564743	0.04237574338912964	-0.004036016762256622	0.03112996742129326	0.1679845154285431	0.022036509588360786	0.06478647887706757	0.128127783536911	-0.1032557338476181	-0.06604862213134766	-0.1102723702788353	-0.030975399538874626	-0.033081330358982086	0.09307693690061569	-0.11087920516729355	-0.011897572316229343	0.07870122790336609	-0.12435797601938248	0.03067134879529476	0.041047245264053345	-0.09375658631324768	0.024617057293653488	0.10161901265382767	0.0884464755654335	0.11559668183326721	0.06198238208889961	0.046300578862428665	0.06277953088283539	0.1407165676355362	0.17750892043113708	0.11409277468919754	0.1284922957420349	0.11140146106481552	0.17737337946891785	0.10780895501375198	0.1536170095205307	0.16925859451293945	0.052064210176467896	0.09698657691478729	0.1639094352722168	0.062369875609874725	0.04416295140981674	0.2942391633987427	
Oui/jambe/saine	0.5595530271530151	0.36392709612846375	0.26945430040359497	0.655977725982666	0.5152544379234314	0.6345726847648621	0.5618330240249634	0.4242507517337799	0.4383507966995239	0.6496137380599976	1.0	0.4663917124271393	-0.014635469764471054	0.12635929882526398	0.14103882014751434	0.20978876948356628	0.24822364747524261	0.1774493157863617	0.02861671708524227	0.06502185016870499	0.21876253187656403	0.07092199474573135	0.03303234651684761	0.1617063283920288	0.23278649151325226	0.20960816740989685	0.11709954589605331	0.19197288155555725	0.07512503117322922	0.09659101068973541	0.06450295448303223	0.060243844985961914	0.019634496420621872	0.06947174668312073	-0.015906892716884613	0.14910408854484558	0.18501515686511993	0.32385891675949097	0.2636478841304779	0.14817963540554047	0.1921825110912323	0.2730318009853363	0.11962185055017471	0.08114033192396164	0.22209304571151733	0.03454431891441345	0.10902351886034012	0.01199493370950222	0.1281251311302185	0.1539885401725769	0.22238419950008392	0.2296721339225769	0.10718949139118195	0.26312026381492615	0.12518860399723053	0.2082516998052597	0.1939476579427719	0.21168646216392517	0.18584519624710083	0.1968502551317215	0.147453173995018	0.07728070765733719	0.2383565902709961	0.26453542709350586	0.1638621687889099	0.16052889823913574	0.22561053931713104	0.1992487609386444	0.17231428623199463	0.15994670987129211	0.15618906915187836	0.15179599821567535	0.15213003754615784	0.09677907824516296	0.16108599305152893	0.05497513338923454	0.12869666516780853	0.1183982640504837	0.2276793122291565	0.18648461997509003	0.14060503244400024	0.09779062867164612	0.11237818747758865	0.08670122176408768	0.15276338160037994	0.18561826646327972	0.024659309536218643	0.1490202099084854	0.06654724478721619	0.2137157917022705	0.21644927561283112	0.07316983491182327	0.175832137465477	0.05584710091352463	0.15694043040275574	0.18595558404922485	0.1904519647359848	0.19703316688537598	0.15202009677886963	0.15114843845367432	0.09771402180194855	0.19062866270542145	0.2732171416282654	0.20368637144565582	0.11748351901769638	0.07521170377731323	0.18529446423053741	0.2471051961183548	0.2007513791322708	0.1949317455291748	0.2036321461200714	0.17148134112358093	0.26616010069847107	0.17213182151317596	0.2070711851119995	-0.07475730031728745	0.06234843283891678	-0.0191742405295372	0.12452276796102524	-0.06389753520488739	-0.07744178920984268	-0.00639563612639904	0.07109944522380829	0.011512319557368755	-0.004115515388548374	-0.013384934514760971	-0.10950523614883423	-0.028468795120716095	-0.06049651280045509	0.04756530746817589	0.02223881520330906	0.014026983641088009	0.08929742127656937	-0.07796069979667664	-0.0329386368393898	-0.003373535117134452	-0.014556186273694038	0.15620683133602142	0.1495922952890396	0.22130592167377472	0.09862308204174042	0.18386755883693695	0.10991231352090836	0.10860662907361984	0.12450577318668365	0.1123715415596962	0.06016653776168823	0.10948947072029114	0.1477469652891159	0.0946887880563736	0.0495779812335968	0.05864454805850983	0.20982539653778076	0.12230876833200455	0.17156575620174408	0.024807501584291458	0.09891676157712936	0.12475298345088959	0.27470988035202026	0.09988874197006226	0.06583024561405182	0.1801755577325821	0.004237147979438305	0.0711546465754509	0.06313424557447433	0.19986461102962494	0.0897291973233223	0.1487739086151123	0.14902721345424652	0.09609412401914597	0.13370727002620697	0.11207585036754608	0.15978984534740448	0.03986639156937599	0.12280073016881943	0.0635937973856926	0.17315486073493958	0.1726776510477066	0.08909229189157486	0.18217657506465912	0.05039336904883385	0.12993425130844116	0.1211899146437645	0.0853983461856842	0.003020524512976408	-0.008195221424102783	0.09601889550685883	0.1304507702589035	0.06708481907844543	0.16196803748607635	0.02383599430322647	0.0862894281744957	0.10429925471544266	-0.030321311205625534	0.060981635004282	0.06186326965689659	-0.14546257257461548	-0.12115881592035294	-0.1016685962677002	-0.06946627795696259	-0.06638188660144806	0.21858499944210052	-0.09379058331251144	-0.06706233322620392	0.04956570640206337	-0.060297347605228424	0.020142748951911926	0.09684684872627258	-0.10767371207475662	-0.028571467846632004	0.058608219027519226	0.053985513746738434	0.09781679511070251	-0.03628721833229065	0.03283018618822098	-0.0009190664277411997	0.06735678762197495	0.20540527999401093	0.13411176204681396	0.06084693968296051	0.027071235701441765	0.1916077435016632	0.10446091741323471	0.1652269959449768	0.35182881355285645	-0.008226186037063599	0.1636711210012436	0.06569673866033554	0.058012403547763824	0.13196446001529694	0.2457510083913803	
Oui/feuilles/saines	0.5002192854881287	0.5873836278915405	0.14668340981006622	0.5434415936470032	0.354561984539032	0.5657297372817993	0.399329274892807	0.764531672000885	0.5201677680015564	0.5196580290794373	0.4663917124271393	1.0	-0.06305523216724396	0.16279061138629913	-0.012366353534162045	0.139063760638237	0.14655062556266785	0.23025473952293396	0.3709452152252197	0.18954089283943176	0.09325534850358963	-0.0558907575905323	-0.06618902087211609	-0.02607242576777935	0.13446369767189026	0.12162407487630844	0.15373028814792633	0.1465761810541153	0.13527502119541168	0.1806698590517044	0.0076525453478097916	-0.01300069224089384	0.147789865732193	0.032031476497650146	-0.005110654979944229	0.06332723051309586	0.004752684384584427	0.2601531147956848	0.18662254512310028	0.20448893308639526	0.033877015113830566	0.13338467478752136	0.027063697576522827	0.07408002018928528	0.20769654214382172	0.05010083317756653	0.07851023972034454	0.0042021432891488075	0.11025016009807587	-0.01056068018078804	0.18620945513248444	0.18441392481327057	0.13719592988491058	0.20400679111480713	0.037661511451005936	0.14139753580093384	0.09813427925109863	0.2376018613576889	0.12895885109901428	0.19222979247570038	0.1705271303653717	0.06409430503845215	0.23032252490520477	0.24394823610782623	0.1915256530046463	0.1562889963388443	0.24067702889442444	0.25839799642562866	0.15040361881256104	0.13694429397583008	0.07988332957029343	0.1410229653120041	0.01693696528673172	0.08579067140817642	0.17066776752471924	0.04498698189854622	0.16907039284706116	0.22203287482261658	0.062141675502061844	0.0787193700671196	0.09757213294506073	0.10856356471776962	0.06981536746025085	0.033848874270915985	0.18439218401908875	0.11420194804668427	0.046338412910699844	0.13638204336166382	0.022201422601938248	0.23416726291179657	0.16760364174842834	0.015604854561388493	0.19214746356010437	0.034089136868715286	0.11618436127901077	0.1206057071685791	0.1399986892938614	0.15237845480442047	0.10076675564050674	0.3330974578857422	0.08121256530284882	0.0761822983622551	0.14799481630325317	0.0958707258105278	0.08355849981307983	0.06952643394470215	0.0929514691233635	0.18018463253974915	0.17305223643779755	0.08565887808799744	0.2468530237674713	0.11791973561048508	0.06202643737196922	0.12076719105243683	0.22661858797073364	-0.0506320483982563	-0.09434005618095398	0.023479748517274857	-0.060483600944280624	-0.05253122001886368	-0.01881890371441841	-0.0259932242333889	-0.025417853146791458	0.033666979521512985	0.024331120774149895	-0.0031188514549285173	-0.04740649834275246	0.10368692874908447	-0.0073750508017838	0.039901167154312134	0.017444444820284843	-0.004382307641208172	0.030583254992961884	-0.05297870934009552	0.020600996911525726	-0.01089208759367466	-0.06726208329200745	0.15646320581436157	0.1371854692697525	0.07490090280771255	0.09517823159694672	0.07497771829366684	0.129804790019989	0.18329018354415894	0.069499172270298	0.05987715721130371	0.06218579411506653	0.12273271381855011	0.13132373988628387	-0.017844174057245255	-0.009783263318240643	-0.08172079920768738	0.16860125958919525	0.07397005707025528	0.10656210035085678	0.006939917802810669	-0.021479440852999687	0.08029448240995407	0.17572228610515594	0.19425998628139496	0.03673733025789261	0.19557763636112213	-0.0336274728178978	0.06652043759822845	0.16777591407299042	0.13966231048107147	0.09512234479188919	0.13541866838932037	0.13988642394542694	0.06694059818983078	0.12247850745916367	0.1453918218612671	0.11319416016340256	-0.025083648040890694	0.1098102405667305	0.1601157784461975	0.17998257279396057	0.07996977865695953	0.03761829435825348	0.19585774838924408	-0.054180532693862915	0.036555808037519455	0.10481923818588257	0.06657996773719788	0.03133702278137207	-0.0287419855594635	0.07106970250606537	0.10861879587173462	-0.014969801530241966	0.1429804414510727	0.014729287475347519	0.019046787172555923	0.1052456647157669	0.10093919932842255	0.1290293037891388	0.09654684364795685	-0.09486250579357147	-0.14434710144996643	-0.0836712121963501	-0.058981411159038544	0.06545723974704742	0.002204468008130789	-0.25984275341033936	-0.05073784664273262	-0.03519599884748459	-0.13907688856124878	-0.18600986897945404	-0.04130794107913971	0.009740264154970646	0.08736194670200348	0.13952744007110596	0.18175235390663147	0.19088837504386902	0.12936273217201233	0.10049958527088165	0.12590888142585754	0.13101635873317719	0.08620372414588928	0.19845940172672272	0.12119407951831818	0.14426173269748688	0.0513986311852932	0.13112907111644745	0.10526838153600693	0.10247558355331421	0.0665188655257225	0.04738506302237511	0.2067842036485672	0.04822836071252823	0.12896966934204102	0.16362346708774567	
Non/observateur/fin	0.03862718492746353	0.007566730957478285	-0.26842090487480164	0.143457293510437	-0.0598100982606411	0.14539027214050293	0.00010615539940772578	0.0411415658891201	-0.08726198226213455	0.01124642789363861	-0.014635469764471054	-0.06305523216724396	1.0	0.05420345440506935	-0.015347505919635296	0.04179305210709572	-0.050633110105991364	-0.00669499346986413	0.019759710878133774	0.10699161887168884	0.03653280436992645	0.8101420998573303	0.8671229481697083	0.12414592504501343	0.1526780128479004	0.15576258301734924	0.09551703184843063	0.03186170011758804	0.11562999337911606	-0.01223166473209858	0.8983681201934814	0.8771750330924988	0.11166219413280487	0.8284168839454651	-0.18637855350971222	-0.03496769070625305	-0.09872815757989883	-0.1155405268073082	-0.12349360436201096	0.10553646832704544	0.031127510592341423	0.1505769044160843	0.0030938521958887577	-0.028945213183760643	-0.032021746039390564	0.04465477913618088	0.1146489754319191	0.007936718873679638	-0.0991729199886322	-0.10030694305896759	0.05346523970365524	0.054870836436748505	-0.017604924738407135	-0.13281315565109253	-0.12892763316631317	-0.0998113676905632	-0.004258902743458748	-0.0009781303815543652	0.18676400184631348	0.14271125197410583	0.10949963331222534	0.11952348053455353	0.17877718806266785	0.21889914572238922	0.12538978457450867	0.36252129077911377	0.23328904807567596	0.23649844527244568	0.37140679359436035	0.0925297737121582	0.007943419739603996	0.033237580209970474	-0.07419387251138687	0.10046768933534622	0.09209553897380829	0.0011671966640278697	0.09192366898059845	0.013130264356732368	-0.07421337813138962	-0.11513347178697586	0.11520923674106598	0.1472647786140442	0.2890686094760895	-0.07430949062108994	0.01598982885479927	0.07056917995214462	0.11760541051626205	0.03896597772836685	0.10869497060775757	-0.00264077284373343	0.051971230655908585	-0.05155034735798836	0.0003821741556748748	0.12082891166210175	0.2340230792760849	0.30678436160087585	0.058107081800699234	0.11204765737056732	0.10244044661521912	-0.0006664827233180404	0.2028476893901825	0.1276395320892334	0.17008167505264282	0.12680232524871826	-0.05176423117518425	0.09922342002391815	0.16829131543636322	-0.03363945335149765	0.13435254991054535	0.09311015903949738	0.07866103202104568	0.269421249628067	0.06521313637495041	0.02036559209227562	0.11070718616247177	0.034566253423690796	0.00845243502408266	0.058172788470983505	-0.020191088318824768	0.11646497994661331	0.08060517907142639	0.05672195926308632	0.06775424629449844	0.020134881138801575	-0.02670438215136528	0.07599079608917236	0.05980446934700012	-0.020907020196318626	0.08449123799800873	0.05930018424987793	0.07955874502658844	-0.09873597323894501	0.019007617607712746	-0.011000856757164001	0.059239696711301804	0.050633251667022705	0.12899693846702576	-0.07766350358724594	-0.052879560738801956	0.01635543629527092	0.15292148292064667	-0.04904401674866676	-0.01122953835874796	0.02105095237493515	-0.09681496769189835	0.036893367767333984	0.16242626309394836	0.03244815394282341	0.07172343879938126	0.058753110468387604	0.05377670004963875	0.013410505838692188	-0.009748527780175209	0.06022956594824791	-0.11679819226264954	0.06335508078336716	0.06210324913263321	-0.0348874032497406	0.01917910762131214	-0.04091795161366463	0.011714134365320206	-0.11124598234891891	-0.0030925124883651733	0.022364621981978416	0.06483997404575348	-0.055563148111104965	0.02253328450024128	-0.025643184781074524	-0.04442211240530014	-0.06635333597660065	0.009201252833008766	-0.1146317645907402	-0.015947751700878143	-0.02944551222026348	-0.04906574264168739	-0.04515433683991432	0.01909630373120308	-0.05092385411262512	0.010069956071674824	-0.07069703191518784	-0.029184473678469658	-0.029736243188381195	0.03868883475661278	0.10312385112047195	0.11359438300132751	0.12895731627941132	0.15449491143226624	0.1433868706226349	0.2448190450668335	0.10131902247667313	0.1247946098446846	0.18923018872737885	0.04280233010649681	-0.05273376777768135	0.09710194915533066	0.04983772709965706	-0.18167799711227417	-0.14580965042114258	0.003742027562111616	-0.04852539673447609	-0.19750656187534332	-0.12253010272979736	-0.08533980697393417	-0.10557690262794495	-0.08812189102172852	-0.21833305060863495	-0.16166429221630096	-0.31829947233200073	-0.11109849065542221	0.15392045676708221	0.0840822160243988	0.13312557339668274	0.08647134900093079	0.10530999302864075	0.13928650319576263	0.09947921335697174	0.13646377623081207	0.09872614592313766	-0.08739211410284042	0.1367439180612564	0.08767984062433243	0.15674327313899994	0.09051782637834549	0.34201565384864807	0.2658659815788269	0.03400716558098793	0.24619099497795105	0.23306477069854736	0.37337201833724976	0.09864626824855804	0.09441598504781723	
Oui/bretelles/fines	0.0954262986779213	0.17879056930541992	0.02390759065747261	0.1395472288131714	-0.004564435221254826	0.12548846006393433	-0.06093071028590202	0.1059294268488884	0.04705866426229477	0.03851638361811638	0.12635929882526398	0.16279061138629913	0.05420345440506935	1.0	0.26368284225463867	0.37898796796798706	0.37923887372016907	0.4460606575012207	0.7072257995605469	0.7882038354873657	0.2879318296909332	0.033987294882535934	0.0644441619515419	0.24650317430496216	0.4355105459690094	0.4153158664703369	0.7757782936096191	0.6677852272987366	0.7437987923622131	0.6412131190299988	0.06066632643342018	0.08007057011127472	0.7487087249755859	0.024314481765031815	0.06023607403039932	0.02927015908062458	-0.0208207368850708	-0.03873371705412865	0.03207097575068474	0.3006577491760254	0.06801540404558182	0.09001421183347702	0.027031464502215385	-0.09191228449344635	0.057184867560863495	0.18333661556243896	0.15773749351501465	0.18718641996383667	-0.0703740119934082	-0.06903040409088135	0.19106045365333557	0.31649115681648254	-0.0479249581694603	-0.09130486845970154	-0.0765938013792038	-0.04073305055499077	0.1363842934370041	0.1511913686990738	0.07985451817512512	0.16658714413642883	0.19080425798892975	0.08790329098701477	0.14994685351848602	0.13364706933498383	0.16021868586540222	0.13933400809764862	0.1459810882806778	0.13461877405643463	0.11440885066986084	0.17204837501049042	-0.0153426518663764	0.11156394332647324	-0.024398479610681534	0.18775959312915802	0.2194281816482544	0.05791515111923218	0.20190715789794922	0.088022381067276	0.04364774748682976	-0.030331583693623543	0.10603048652410507	0.1230781078338623	0.1596928983926773	0.14952553808689117	0.004469787236303091	0.17966289818286896	0.12730614840984344	0.15607845783233643	0.12949571013450623	0.14291703701019287	0.0280600693076849	-0.013787683099508286	0.10393668711185455	0.1321668028831482	0.09691394865512848	0.16622617840766907	0.10109371691942215	0.08462134003639221	0.13398680090904236	0.09265343099832535	0.13624067604541779	0.07270006835460663	0.21592316031455994	0.15378768742084503	0.07123971730470657	0.07848759740591049	0.17080937325954437	0.13857507705688477	0.15485742688179016	0.1623363345861435	0.09457852691411972	0.1397639513015747	0.10273630917072296	0.05382788926362991	0.15070058405399323	0.08653654158115387	0.006579943932592869	-0.05814078822731972	0.10711630433797836	0.04145988076925278	0.10125023126602173	0.023603666573762894	0.17236001789569855	0.08597061038017273	0.11708863824605942	0.12109338492155075	0.09507395327091217	0.10186146944761276	0.1621316820383072	0.12572692334651947	0.17906071245670319	0.15417258441448212	0.12267731875181198	-0.005112656392157078	0.05780613422393799	0.1295408308506012	0.1257171928882599	0.0007757637067697942	-0.004447363317012787	0.09069035947322845	0.15898458659648895	0.0010145478881895542	0.06534046679735184	0.11356337368488312	0.06410133838653564	0.15520590543746948	0.15505222976207733	0.16969501972198486	0.07640792429447174	0.08558882772922516	0.1190393939614296	0.05608588829636574	0.1307833343744278	0.0018192437710240483	0.05977807193994522	0.1609967201948166	0.12548397481441498	0.21398228406906128	0.1468859165906906	-0.0653674378991127	0.11552596092224121	0.05454474687576294	0.08639389276504517	0.07151447981595993	0.13614420592784882	0.09971436858177185	0.12596945464611053	0.11214050650596619	0.07829982787370682	0.0740545317530632	0.08324093371629715	0.08508408814668655	0.009731994941830635	0.15455526113510132	0.05759810656309128	0.21259361505508423	-0.015272247605025768	0.11581021547317505	0.1568731963634491	-0.07389172911643982	0.02604135498404503	-0.03161947801709175	0.0003240955120418221	0.11899090558290482	0.16233401000499725	0.120436891913414	0.2516813278198242	0.16451160609722137	0.10391108691692352	0.12736164033412933	0.08526487648487091	0.2019139975309372	0.13015015423297882	0.09632880985736847	0.06486323475837708	0.1784052550792694	-0.08110931515693665	-0.19795873761177063	0.014495749026536942	0.06461694836616516	-0.13149678707122803	-0.1347767859697342	-0.19905748963356018	-0.08419261872768402	-0.18369586765766144	-0.14247751235961914	-0.2806510627269745	-0.06625881046056747	0.11915819346904755	0.15031582117080688	0.07636506855487823	0.26058322191238403	0.1301957666873932	0.1092364490032196	0.10677853226661682	0.13318240642547607	0.1551932990550995	0.054472919553518295	0.16498738527297974	0.07212632149457932	0.15568411350250244	0.07562077045440674	0.005269381683319807	0.12455417215824127	0.1296873241662979	0.09467137604951859	0.23949749767780304	0.22707892954349518	0.17251762747764587	0.07986520230770111	0.004679021425545216	
Oui/peau/fine	0.08244844526052475	0.03735077381134033	0.23301002383232117	0.05627846717834473	0.5967566967010498	0.041847895830869675	0.11184169352054596	0.08430999517440796	0.10032070428133011	0.009453948587179184	0.14103882014751434	-0.012366353534162045	-0.015347505919635296	0.26368284225463867	1.0	0.6151254177093506	0.5480579137802124	0.24970315396785736	0.2571660280227661	0.263519823551178	0.5760072469711304	0.09497316926717758	0.06476357579231262	0.43805697560310364	0.6216875314712524	0.620089054107666	0.28164541721343994	0.30799442529678345	0.308001846075058	0.2611843943595886	0.040673624724149704	0.02572217769920826	0.2649761438369751	-0.007647782564163208	0.0478411503136158	0.2108701914548874	0.03209415450692177	0.04128838703036308	0.018498770892620087	0.04519873484969139	0.15950055420398712	0.1618259698152542	0.03747265413403511	0.031146353110671043	0.04689422622323036	0.05205472186207771	0.1262279599905014	0.04092858359217644	-0.015008036978542805	0.1621807962656021	0.17357410490512848	0.15924948453903198	0.015698764473199844	0.00021699487115256488	0.08190780133008957	0.0011579019483178854	9.923796824296005e-06	0.0768522098660469	0.11878614127635956	0.1319814920425415	0.0679781511425972	0.15330688655376434	0.13725946843624115	0.06052364036440849	0.06522347778081894	0.072786845266819	0.05296224355697632	0.072078175842762	0.07301729172468185	0.09986776113510132	0.04394000023603439	0.015193426981568336	0.0981609970331192	0.029177971184253693	0.13254280388355255	0.09767957776784897	0.10334616899490356	0.06807082146406174	0.20953775942325592	-0.07426681369543076	0.07853595167398453	0.012173174880445004	0.1310815066099167	0.10888639092445374	0.1474478542804718	-0.010153562761843204	0.0027812691405415535	-0.0009421627037227154	0.14216738939285278	0.006087309680879116	-0.007995648309588432	0.13732436299324036	0.08096910268068314	0.07605127990245819	0.09435123205184937	0.1157115176320076	0.12836945056915283	0.07587846368551254	0.058448512107133865	0.07942280173301697	0.1675758808851242	0.25737231969833374	0.09336525201797485	0.09654711931943893	0.06357870995998383	0.11305747181177139	0.1175093725323677	0.17598077654838562	0.07168316841125488	0.08032169938087463	0.05650920048356056	0.12439163029193878	0.1922895759344101	0.007029393687844276	0.04171793907880783	0.10909966379404068	0.022988509386777878	-0.021005164831876755	0.029600804671645164	0.007451170589774847	-0.028919601812958717	-0.009151582606136799	-0.0021834741346538067	-0.035751111805438995	-0.012517536990344524	-0.05348983407020569	-0.038584429770708084	-0.07172108441591263	-0.03950779139995575	-0.016331641003489494	0.055719245225191116	0.1006440743803978	0.08234541118144989	-0.026271097362041473	0.034268978983163834	0.012069463729858398	-0.04481494799256325	0.02020752616226673	0.006772024556994438	0.11711801588535309	8.840825466904789e-05	0.06907781213521957	-0.010744213126599789	-0.02032659202814102	0.014212130568921566	-0.0325181744992733	0.10958413779735565	0.054571449756622314	0.009150050580501556	0.12709929049015045	0.1538022756576538	0.11182212084531784	0.14553202688694	0.1375759392976761	0.08935358375310898	0.1970180720090866	0.21987350285053253	0.11796398460865021	0.0399358868598938	0.04630061239004135	0.09691443294286728	0.08430764824151993	0.11437246203422546	-0.0015660542994737625	-0.07071278989315033	0.0747770294547081	0.07849500328302383	0.14596514403820038	0.15330392122268677	-0.01931079663336277	0.11953558027744293	0.1665925234556198	0.08506686985492706	0.19235800206661224	0.12926599383354187	-0.010383973829448223	0.0452260822057724	0.12490818649530411	0.06329212337732315	-0.02316955476999283	-0.06585533171892166	0.01902659796178341	0.08908217400312424	-0.03999454155564308	0.2520281970500946	0.14245961606502533	0.19411270320415497	0.16407665610313416	0.09203872084617615	0.06727325171232224	0.053091224282979965	0.16645115613937378	0.13087041676044464	0.08237795531749725	0.07704427093267441	0.07494716346263885	-0.07248887419700623	-0.08066832274198532	0.07296619564294815	0.014840088784694672	0.009358652867376804	0.08904284983873367	0.0037921525072306395	-0.13865473866462708	-0.01589811034500599	0.5572110414505005	0.08709679543972015	0.06641226261854172	0.08407152444124222	0.11482895910739899	0.12046781927347183	0.18111205101013184	0.21074128150939941	0.07723160833120346	0.18488766252994537	0.0916510596871376	0.10080303251743317	0.2515209913253784	0.19594815373420715	0.11073106527328491	0.07068626582622528	0.14124926924705505	0.1055460199713707	0.15405307710170746	0.17964792251586914	-0.060360945761203766	0.1019447073340416	0.09640605002641678	0.19234538078308105	0.1393599659204483	0.1458473801612854	
Oui/couche/fine	0.22093136608600616	0.1374584585428238	0.1457316130399704	0.2868409752845764	0.14219506084918976	0.2747231423854828	0.07109476625919342	0.1462211161851883	0.0420236773788929	0.09220778197050095	0.20978876948356628	0.139063760638237	0.04179305210709572	0.37898796796798706	0.6151254177093506	1.0	0.5474621653556824	0.27425703406333923	0.3910171389579773	0.32702764868736267	0.6255543231964111	0.0355241522192955	0.1091504842042923	0.38935914635658264	0.7679997086524963	0.78437340259552	0.36516281962394714	0.3400929868221283	0.34013548493385315	0.39232137799263	0.039997611194849014	0.035144902765750885	0.3802206516265869	-0.010124529711902142	0.03431450203061104	-0.0010311678051948547	-0.027169402688741684	0.03679118677973747	-0.031175857409834862	0.10298037528991699	0.03195793181657791	0.14453700184822083	0.06168634817004204	0.0039005568251013756	0.055416740477085114	0.09618663787841797	0.1845313012599945	0.0934988334774971	-0.004553200211375952	-0.021899284794926643	0.06325016915798187	0.15043458342552185	0.015413179993629456	-0.0957305058836937	0.06659936904907227	-0.014698334969580173	0.048298098146915436	0.08133287727832794	0.10114413499832153	0.22090306878089905	0.1861138492822647	0.14697739481925964	0.173785001039505	0.11078420281410217	0.17635183036327362	0.13613753020763397	0.17246633768081665	0.16566456854343414	0.10534213483333588	0.09646844863891602	0.08236891031265259	-0.03503500670194626	0.06296103447675705	0.03588493540883064	0.17406857013702393	0.11804482340812683	0.18392644822597504	0.09396683424711227	0.06483019143342972	-0.10873772203922272	0.11472401022911072	0.029644498601555824	0.18525010347366333	0.13963311910629272	0.12853485345840454	0.062076956033706665	-0.0030501028522849083	0.05385769531130791	0.10764390230178833	-0.0068803271278738976	-0.08033239096403122	0.06606873869895935	0.18001310527324677	0.1550833135843277	0.1997440904378891	0.21342450380325317	0.17322160303592682	0.08760281652212143	0.13556960225105286	0.021749673411250114	0.24168995022773743	0.13270962238311768	0.12644578516483307	0.16017316281795502	0.13988354802131653	0.18802392482757568	0.1656952053308487	0.053308382630348206	0.08694005012512207	0.15807291865348816	0.16299645602703094	0.23881196975708008	0.12043951451778412	0.17198225855827332	0.09791390597820282	0.0826699361205101	-0.03600263595581055	-0.052409578114748	-0.07956744730472565	0.0022020465694367886	-0.00883832573890686	-0.023045914247632027	-0.06327955424785614	-0.1515640914440155	0.0002126169711118564	-0.018464820459485054	-0.0033669034019112587	-0.06730283796787262	-0.047560349106788635	-0.024252431467175484	0.06448166817426682	-0.013660178519785404	-0.02239886112511158	-0.07148155570030212	-0.04544162005186081	-0.01476308610290289	-0.052236977964639664	-0.010985421016812325	0.011819266714155674	0.028472639620304108	0.048888158053159714	0.1374783217906952	0.03596979379653931	0.06477590650320053	0.12846288084983826	0.007446505594998598	0.11349676549434662	0.09846588969230652	0.022038869559764862	0.09556381404399872	0.11121739447116852	0.10931336134672165	0.13183894753456116	0.10606605559587479	0.09754008054733276	0.1919105052947998	0.12225264310836792	0.17427174746990204	0.002177747432142496	0.035365473479032516	0.14580032229423523	0.05601648986339569	0.12395505607128143	0.08969563990831375	0.03466406464576721	-0.01547512412071228	0.160648912191391	0.11559909582138062	0.1530841737985611	0.06598953157663345	0.1178128719329834	0.13721366226673126	0.0833619087934494	0.20940281450748444	0.12765564024448395	0.042255841195583344	0.06492697447538376	0.09374640882015228	0.18066145479679108	0.002154578920453787	-0.07810888439416885	-0.02133811265230179	0.05585133284330368	0.07700114697217941	0.21587970852851868	0.1706227958202362	0.10312915593385696	0.18557581305503845	0.10298749804496765	0.18439729511737823	0.10592079907655716	0.20475874841213226	0.06658902019262314	0.1269780844449997	0.18176527321338654	0.14708201587200165	-0.02593165636062622	-0.031423602253198624	0.046365633606910706	0.07090017199516296	-0.008408604189753532	0.024648388847708702	0.035158466547727585	-0.04485546797513962	-0.04077981039881706	-0.04900781065225601	-0.05192835256457329	-0.08193636685609818	0.1496308594942093	0.1375834196805954	0.1929389387369156	0.16842687129974365	0.19700933992862701	0.0998913124203682	0.1910589635372162	0.12832562625408173	0.07621883600950241	0.10810452699661255	0.10496573895215988	0.20028576254844666	0.15985046327114105	0.09544539451599121	0.03564192354679108	0.2194475680589676	0.19346699118614197	0.09316077083349228	0.07115288078784943	0.03384898975491524	0.28388017416000366	0.19867318868637085	0.014108515344560146	
Oui/robe/fine	0.19804947078227997	0.13925376534461975	0.1855785995721817	0.17107228934764862	0.2122182995080948	0.2036353051662445	0.12489736080169678	0.17416976392269135	0.06424281746149063	0.11908019334077835	0.24822364747524261	0.14655062556266785	-0.050633110105991364	0.37923887372016907	0.5480579137802124	0.5474621653556824	1.0	0.1895299106836319	0.2647855877876282	0.2581765353679657	0.5877596139907837	0.06850039213895798	0.01620495319366455	0.28073960542678833	0.5984225869178772	0.5590823888778687	0.4131937623023987	0.2866671681404114	0.3136933147907257	0.24337947368621826	0.009704953990876675	0.08413912355899811	0.240983247756958	-0.05825454741716385	0.1054452508687973	0.08960001915693283	0.0034419239964336157	0.1595296412706375	0.07198502868413925	0.02045309543609619	0.18712525069713593	0.12926316261291504	0.02486267127096653	0.08016497641801834	0.1725485473871231	0.07925721257925034	0.11043878644704819	0.034532397985458374	-0.041510675102472305	-0.016817545518279076	0.1775902658700943	0.27932634949684143	0.011768516153097153	-0.02294577844440937	0.0827542394399643	0.017182432115077972	0.060387369245290756	0.06279458105564117	0.06852679699659348	0.194884791970253	0.10194436460733414	0.18866650760173798	0.13149431347846985	0.06884043663740158	0.09981225430965424	0.09564264863729477	0.08955322206020355	0.10138947516679764	0.08621830493211746	0.09996750205755234	0.023672446608543396	0.0517091229557991	0.1183503270149231	0.042628854513168335	0.11668379604816437	0.15468132495880127	0.10725171118974686	0.07700066268444061	0.0581212192773819	-0.02278706431388855	0.04657183960080147	-0.001803076476790011	0.027390995994210243	0.17501600086688995	0.11537935584783554	0.09799019992351532	0.01222376711666584	0.0432908833026886	0.14555929601192474	0.16005277633666992	-0.060674749314785004	0.07768046110868454	0.06780647486448288	0.0298633836209774	0.04813425987958908	0.12149994820356369	0.1132759377360344	0.03178398311138153	0.06358397752046585	0.10012468695640564	0.1222456768155098	0.03643422573804855	0.16720342636108398	0.08952315896749496	-0.03583068400621414	0.10147825628519058	0.08353465050458908	0.6979124546051025	0.07245831191539764	0.030735168606042862	0.03467473015189171	0.07830066978931427	0.13971661031246185	0.05740511044859886	0.09879429638385773	0.02033214643597603	-0.013781826943159103	-0.04518522694706917	0.0017096534138545394	-0.05229742079973221	-0.011766905896365643	-0.003642105730250478	0.04407716915011406	-0.08102679252624512	0.0036960882134735584	0.0480511337518692	0.0011460757814347744	0.04890432581305504	-0.009722467511892319	0.034202054142951965	0.10404346883296967	0.13181087374687195	0.0954827219247818	-0.0658658817410469	0.05065549165010452	0.02861890010535717	0.002414199523627758	-0.0038944270927459	-0.02242729440331459	0.13234582543373108	0.07512986660003662	0.10498254746198654	0.04080203175544739	0.07248909026384354	0.10635437071323395	-0.0010308959754183888	0.037820812314748764	0.11694525927305222	0.023975417017936707	0.07335350662469864	0.16770972311496735	0.082950159907341	0.24976664781570435	-0.09031517803668976	0.06910669058561325	0.1983209252357483	0.18856455385684967	0.1723407506942749	0.052192799746990204	0.0851762443780899	0.08949636667966843	0.18937991559505463	0.0744849219918251	0.001233134069480002	0.07358352839946747	0.11952521651983261	0.05549151450395584	0.06534449011087418	0.16787753999233246	0.0076451972126960754	0.09748679399490356	0.160517618060112	0.01982758194208145	0.1282239705324173	0.15998952090740204	-0.0016394259873777628	0.05441807210445404	0.14411428570747375	0.06781817972660065	-0.02858363464474678	-0.06580301374197006	-0.09036622941493988	0.0750555545091629	0.006423619110137224	0.1418778896331787	0.09122096747159958	0.17942650616168976	0.13333533704280853	0.11930981278419495	0.10419906675815582	0.06902073323726654	0.13981495797634125	0.06897338479757309	0.07146240025758743	0.1131950169801712	0.12824082374572754	-0.05913764610886574	-0.09332307428121567	0.06869067996740341	-0.004958664067089558	0.02066604234278202	0.09542718529701233	-0.09073854982852936	-0.08580850064754486	-0.017031952738761902	0.07098161429166794	-0.0548294261097908	0.07857441157102585	0.03160649538040161	0.08424721658229828	0.1054442748427391	0.20819500088691711	0.2896869480609894	0.06421030312776566	0.10545005649328232	0.0787782073020935	0.08517211675643921	0.0996718555688858	0.2828710973262787	0.07086022943258286	0.014756666496396065	-0.02405843511223793	0.10249382257461548	0.0950872153043747	0.1599891036748886	0.010012135840952396	-0.0031481885816901922	-0.0036812108010053635	0.11778480559587479	0.10362181067466736	0.07440219819545746	
Oui/lames/fines	0.11284281313419342	0.14807520806789398	0.10897322744131088	0.13024182617664337	0.12270639836788177	0.15122677385807037	0.07047927379608154	0.20733098685741425	0.3096195459365845	0.07487168163061142	0.1774493157863617	0.23025473952293396	-0.00669499346986413	0.4460606575012207	0.24970315396785736	0.27425703406333923	0.1895299106836319	1.0	0.5413156151771545	0.5225811004638672	0.24442780017852783	-0.008169634267687798	0.04327443987131119	0.2627774775028229	0.3059193789958954	0.32316315174102783	0.4721086919307709	0.48221877217292786	0.5031945705413818	0.5069794058799744	0.011677106842398643	-0.002075641183182597	0.487924188375473	0.03331246227025986	0.07454019039869308	0.047235436737537384	-0.010946321301162243	0.3618091940879822	0.12876087427139282	0.21967977285385132	0.05388692393898964	0.18908868730068207	0.06404869258403778	0.056741904467344284	0.2254098802804947	0.06481768935918808	0.04848240315914154	0.06802479922771454	0.14993342757225037	0.2525818645954132	0.2015300989151001	0.19576919078826904	0.10457418859004974	0.5542376637458801	0.17941632866859436	0.17014119029045105	0.19994276762008667	0.2348034828901291	0.14643408358097076	0.09857873618602753	0.06957656890153885	0.06488694250583649	0.05418102815747261	0.16132113337516785	0.06680375337600708	0.07859700918197632	0.08989692479372025	0.1253998875617981	0.06783673912286758	0.08289837837219238	0.08143097907304764	0.032391902059316635	0.09504251927137375	0.06695935130119324	0.23718206584453583	0.11625796556472778	0.18553417921066284	0.11221214383840561	0.1088675707578659	0.10737697780132294	0.035491809248924255	0.019457152113318443	0.009298902004957199	0.15972281992435455	0.1600313037633896	0.17846904695034027	0.07763387262821198	0.11640781909227371	0.08729048818349838	0.1220519095659256	0.2527296245098114	0.0991339385509491	0.1648717224597931	0.12201886624097824	0.09083013981580734	0.1252175122499466	0.145578071475029	0.15097324550151825	0.11345530301332474	0.1554585099220276	0.17100317776203156	0.1565839946269989	0.12528526782989502	0.18074263632297516	0.12335899472236633	0.1524810492992401	0.14149287343025208	0.04144473373889923	0.11762753874063492	0.1531253308057785	0.1541309505701065	0.15528905391693115	0.020455941557884216	0.22302177548408508	0.16320328414440155	-0.002944010542705655	0.04416972026228905	0.01715197041630745	0.0483572743833065	-0.012819278053939342	0.020886298269033432	0.025701964274048805	-0.0010875276057049632	0.05696897581219673	0.05877802148461342	-0.021632995456457138	-0.01448882557451725	0.04779030755162239	-0.00961356982588768	0.015224801376461983	0.03406093642115593	0.12118060886859894	0.09276493638753891	-0.04228862375020981	-0.008314819075167179	-0.0036291431169956923	-0.018718842417001724	0.0938558503985405	0.09391919523477554	0.09652631729841232	0.0801667869091034	-0.0039028069004416466	0.11582254618406296	0.11289296299219131	0.18266987800598145	0.08057265728712082	0.08652225881814957	0.10344961285591125	0.20918038487434387	0.04725027456879616	0.02526921220123768	0.043811142444610596	0.10282861441373825	0.1149621307849884	0.13304047286510468	0.11140957474708557	0.027947044000029564	0.18568956851959229	0.24390362203121185	0.13420148193836212	0.12064424902200699	0.06821530312299728	0.038092244416475296	0.06386874616146088	0.07552310824394226	0.10234857350587845	0.1588994264602661	0.19620169699192047	0.19140294194221497	0.08220669627189636	0.17965459823608398	0.21224869787693024	0.17151305079460144	0.09915217757225037	0.14220480620861053	0.13943138718605042	0.12702563405036926	0.13672931492328644	0.128938689827919	0.05559483543038368	0.017965169623494148	0.06965979933738708	0.07123872637748718	0.0852479338645935	0.15051832795143127	0.14977005124092102	0.20030063390731812	0.18698056042194366	0.12027563154697418	0.2404550462961197	0.09471234679222107	0.2364446371793747	0.11017236113548279	0.24686895310878754	0.16640400886535645	0.21124599874019623	-0.0051915585063397884	-0.044581908732652664	-0.07306752353906631	0.026140883564949036	-0.021473843604326248	0.005137607455253601	-0.012871244922280312	-0.03422640636563301	0.0847192034125328	0.014387967996299267	0.13766559958457947	0.02249331958591938	0.11140921711921692	0.13110339641571045	0.15478108823299408	0.10469469428062439	0.07283701002597809	0.08879552781581879	0.18855537474155426	0.1300501972436905	0.1973160356283188	0.14762789011001587	0.0672137513756752	0.043696239590644836	0.05534977838397026	0.04005177691578865	0.1860731691122055	0.056817326694726944	0.13821378350257874	0.161518856883049	0.06341185420751572	0.1473366618156433	0.09248819202184677	0.12851457297801971	0.05364279821515083	
Oui/feuilles/fines	0.07302581518888474	0.1104542538523674	0.026205826550722122	0.1141849160194397	-0.03899841010570526	0.1257997453212738	-0.046915821731090546	0.1860063225030899	0.04709092900156975	-0.0012428854824975133	0.02861671708524227	0.3709452152252197	0.019759710878133774	0.7072257995605469	0.2571660280227661	0.3910171389579773	0.2647855877876282	0.5413156151771545	1.0	0.7920023798942566	0.2769235074520111	-0.026621120050549507	0.007504586596041918	0.23321141302585602	0.41822442412376404	0.3985387682914734	0.7162262201309204	0.6549456119537354	0.7099446058273315	0.6611552834510803	0.01824752613902092	-0.010976485908031464	0.7832279801368713	-0.007356508169323206	0.08914224058389664	-0.007203781045973301	-0.0538642480969429	-0.04567687585949898	0.052425630390644073	0.30241313576698303	0.0074962833896279335	0.021404488012194633	0.04631083831191063	-0.10078497976064682	0.061976779252290726	0.20192381739616394	0.1853332370519638	0.15814025700092316	-0.042825791984796524	-0.007985448464751244	0.11099612712860107	0.2021598368883133	0.016324898228049278	-0.020435063168406487	0.005234826821833849	-0.026651952415704727	0.06440042704343796	0.1756894737482071	0.028434984385967255	0.09401402622461319	0.13432857394218445	0.0270866546779871	0.05305614322423935	0.0886661633849144	0.10775110125541687	0.05055904760956764	0.10959027707576752	0.15617944300174713	0.020515447482466698	0.09795723855495453	0.031009765341877937	0.0893682986497879	-0.039301663637161255	0.125038281083107	0.2277911752462387	0.08159201592206955	0.19907647371292114	0.1617087870836258	0.06495092064142227	-0.07296367734670639	0.06986287981271744	0.08261817693710327	0.11141746491193771	0.16568030416965485	0.16526176035404205	0.10153420269489288	0.09873359650373459	0.16154415905475616	0.1049327626824379	0.08733528852462769	0.007893001660704613	0.05180218815803528	0.07530511170625687	0.07278557121753693	0.07648289203643799	0.11593599617481232	0.12472280859947205	0.03988594189286232	0.07846091687679291	0.23226119577884674	0.16110600531101227	0.0883176177740097	0.09367717057466507	0.09806599467992783	0.09388095140457153	0.10831891745328903	0.11692006140947342	-0.007222991902381182	0.09031540155410767	0.11132550984621048	0.18953624367713928	0.12250301241874695	-0.026517609134316444	0.15397079288959503	0.11739573627710342	0.07253846526145935	-0.0345512256026268	-0.0750211849808693	0.07770821452140808	0.0017002500826492906	0.08354590833187103	-0.009279871359467506	0.06975609809160233	0.0768238827586174	0.09243764728307724	0.08516652137041092	0.08756870031356812	0.13878405094146729	0.13480111956596375	0.04148922488093376	0.12474530935287476	0.14265292882919312	0.037088003009557724	0.014556078240275383	0.017060600221157074	0.08388056606054306	-0.02326599881052971	0.008318698965013027	-0.006292720325291157	0.04558911919593811	0.11701560765504837	0.007547230925410986	0.10050635039806366	0.17336316406726837	0.1571100652217865	0.05079901963472366	0.14622771739959717	0.15489526093006134	0.07929235696792603	0.05083603411912918	0.08426640927791595	-0.0028724167495965958	0.03573242574930191	0.05817224085330963	0.058158621191978455	0.16798339784145355	0.003596734954044223	0.18647991120815277	0.07780642807483673	0.07131536304950714	0.1366014927625656	0.03370234742760658	0.10948219150304794	0.01919351890683174	0.13580818474292755	0.005545854102820158	0.10908186435699463	0.1338830590248108	0.10568082332611084	-0.014778822660446167	0.09323249757289886	0.18458335101604462	0.050370749086141586	0.15859779715538025	0.1015329509973526	0.18017303943634033	-0.0089494027197361	0.11176788806915283	0.11005530506372452	-0.02080640010535717	-0.045566488057374954	-0.02483842521905899	0.053619906306266785	0.1041741743683815	0.1800413578748703	0.14609166979789734	0.17289184033870697	0.14716288447380066	0.032365504652261734	0.16826234757900238	0.12547680735588074	0.2006266564130783	0.0887121707201004	0.19915682077407837	0.15313389897346497	0.15572582185268402	-0.051592666655778885	-0.17524556815624237	0.005214681848883629	0.009421158581972122	-0.056801069527864456	-0.1950697898864746	-0.22235840559005737	-0.0863429605960846	-0.1586306393146515	-0.16087950766086578	-0.2187214344739914	-0.08138205111026764	0.21658864617347717	0.17026370763778687	0.14122268557548523	0.25183919072151184	0.10954480618238449	0.16531817615032196	0.1264604926109314	0.1672578901052475	0.13700123131275177	0.08743321150541306	0.116580069065094	0.18433214724063873	0.2024024873971939	0.06429456919431686	0.07433193176984787	0.09459318220615387	0.05210861936211586	0.20096562802791595	0.1705292910337448	0.2206900715827942	0.14902494847774506	0.09694324433803558	-0.00278833182528615	
Oui/moustaches/fines	0.11006832122802734	0.21019336581230164	0.02442820370197296	0.13860921561717987	-0.0028469208627939224	0.14796049892902374	-0.03569086641073227	0.09933726489543915	0.1524474024772644	0.05910959094762802	0.06502185016870499	0.18954089283943176	0.10699161887168884	0.7882038354873657	0.263519823551178	0.32702764868736267	0.2581765353679657	0.5225811004638672	0.7920023798942566	1.0	0.247942715883255	-0.00415651872754097	0.0653408095240593	0.29488906264305115	0.5254296660423279	0.3569166660308838	0.7656908631324768	0.750349223613739	0.8291279077529907	0.6678467392921448	0.09244751185178757	0.07163210958242416	0.8187258839607239	0.04187353327870369	0.08343277126550674	0.054059166461229324	-0.08070816844701767	-0.05079687759280205	0.031396929174661636	0.3029240071773529	-0.06975651532411575	0.043155133724212646	0.008032900281250477	-0.06886892020702362	-0.039794519543647766	0.15473555028438568	0.12974433600902557	0.07865582406520844	-0.08856956660747528	0.03607408329844475	0.22552810609340668	0.24081072211265564	-0.1001637876033783	-0.09814514964818954	0.0020073617342859507	-0.08327315747737885	0.05596942827105522	0.11520987004041672	0.06380150467157364	0.1558438390493393	0.12802113592624664	0.0536888986825943	0.09521225839853287	0.11777663230895996	0.1213814988732338	0.0861656442284584	0.1518823653459549	0.16910098493099213	0.07666745781898499	0.16979263722896576	-0.008559038862586021	0.18447601795196533	-0.03625527024269104	0.14976663887500763	0.2604762017726898	0.06881461292505264	0.17803972959518433	0.10462508350610733	0.04840577021241188	-0.06579896062612534	0.09173326194286346	0.11634010821580887	0.14054620265960693	0.1266942322254181	0.02564583718776703	0.10925036668777466	0.1193825826048851	0.16222195327281952	0.18497531116008759	0.1682729870080948	0.02824058011174202	0.017155835404992104	0.04365500807762146	0.08537133038043976	0.08374637365341187	0.14056269824504852	0.1659441590309143	0.02958066388964653	0.13355380296707153	0.11881519109010696	0.12878075242042542	0.12842655181884766	0.1057971864938736	0.10953021794557571	0.04550178349018097	0.06787565350532532	0.1537070870399475	-0.014414421282708645	0.08862975984811783	0.1305040866136551	0.10288526117801666	0.13760843873023987	0.021954692900180817	0.0559377558529377	0.14866209030151367	0.13178692758083344	0.002243723953142762	-0.0881383940577507	0.12337296456098557	0.01808108761906624	0.09597605466842651	-0.018540967255830765	0.1621359884738922	0.10626289993524551	0.11872906237840652	0.1477121114730835	0.10620224475860596	0.11602120846509933	0.1593746691942215	0.09094924479722977	0.17113935947418213	0.1617126166820526	0.09749168902635574	0.04266256093978882	0.023693015798926353	0.11137568205595016	0.02816762961447239	-0.009020240046083927	-0.040894247591495514	0.14359934628009796	0.13751277327537537	-0.06634478271007538	0.06757687777280807	0.15178941190242767	0.07401587814092636	0.0780743807554245	0.13136233389377594	0.14114533364772797	0.110531285405159	0.1438388079404831	0.10761678963899612	0.07934597879648209	0.0699208453297615	-0.00633002957329154	0.010961491614580154	0.16317830979824066	0.08790832757949829	0.1944851577281952	0.10560738295316696	-0.048642661422491074	0.11680511385202408	-0.05375804752111435	0.17378546297550201	0.03280266001820564	0.12384795397520065	0.016684744507074356	0.09079451113939285	0.08700365573167801	0.11674834787845612	-0.019709661602973938	0.12421504408121109	0.10332217812538147	0.009838017635047436	0.16560034453868866	0.05289025232195854	0.21993473172187805	-0.024931710213422775	0.11790645867586136	0.11978740990161896	-0.026067031547427177	0.009919525124132633	0.01312334556132555	0.022000495344400406	0.09146720916032791	0.1566876918077469	0.1437513381242752	0.30001887679100037	0.13756000995635986	0.07698707282543182	0.11391586065292358	0.07625200599431992	0.20075204968452454	0.037433117628097534	0.0695219412446022	0.08569744229316711	0.19867564737796783	-0.1071164458990097	-0.23134946823120117	0.017799310386180878	0.0002460591495037079	-0.12861846387386322	-0.1394156813621521	-0.25755834579467773	-0.11528680473566055	-0.12276997417211533	-0.16586998105049133	-0.208526149392128	-0.037234026938676834	0.18572504818439484	0.21427656710147858	0.1456272453069687	0.2741497755050659	0.15337646007537842	0.17520886659622192	0.18194365501403809	0.1874050498008728	0.23300209641456604	0.21108636260032654	0.07094581425189972	0.10289955139160156	0.19246087968349457	0.06991885602474213	0.0977957546710968	0.10678403079509735	0.12068713456392288	0.09245029091835022	0.23478186130523682	0.44804853200912476	0.1982918232679367	0.0708402544260025	0.07579716295003891	
