	Non/soleil/plomb	Oui/balles/plomb	Oui/lamelles/plomb	Oui/balle/plomb	Oui/noyaux/plomb	Oui/cartouches/plomb	Oui/billes/plomb	Oui/boulet/plomb	Oui/bille/plomb	Oui/plaque/plomb	Oui/coupole/plomb	Non/silence/plomb	Oui/urne/plomb	Oui/tablette/plomb	Oui/tuyau/plomb	Oui/cercueil/plomb	Oui/cage/plomb	Oui/gants/plomb	Oui/masse/plomb	Oui/lingot/plomb	Oui/morceau/plomb	Oui/armatures/plomb	Non/vent/grand	Non/vents/grands	Oui/cheval/grand	Oui/appartement/grand	Oui/lit/grand	Oui/seau/grand	Oui/tableau/grand	Oui/table/grande	Oui/parking/grand	Oui/librairie/grande	Oui/bureau/grand	Oui/miroir/grand	Non/ami/grand	Non/amie/grande	Non/amis/grands	Oui/manteaux/grands	Oui/surface/grande	Oui/mur/grand	Oui/maison/grande	Oui/femme/grande	Oui/parc/grand	Oui/poignard/grand	Oui/chêne/grand	Oui/tentes/grandes	Oui/sacs/grands	Non/dégoût/profond	Oui/fossé/profond	Oui/galeries/profondes	Oui/gorges/profondes	Oui/puits/profond	Oui/fosse/profonde	Oui/grotte/profonde	Oui/faille/profonde	Oui/caverne/profonde	Oui/forêt/profonde	Oui/cavité/profonde	Non/sommeil/profond	Oui/lac/profond	Oui/tranchées/profondes	Oui/canyons/profonds	Oui/crique/profonde	Oui/sous-sol/profond	Oui/trous/profonds	Oui/remous/profond	Oui/sillon/profond	Oui/douve/profonde	Oui/puisard/profond	Non/chagrin/gros	Non/chagrins/gros	Oui/lunettes/grosses	Oui/boutons/gros	Oui/chevalière/grosse	Oui/piquets/gros	Oui/objet/gros	Oui/vaisseau/gros	Oui/poche/grosse	Oui/bacs/gros	Oui/flocons/gros	Oui/cloches/grosses	Non/mémoire/éléphant	Non/mémoires/éléphant	Oui/troupeau/éléphants	Oui/groupe/éléphants	Oui/bouse/éléphant	Oui/pattes/éléphants	Oui/défenses/éléphant	Oui/trompe/éléphant	Oui/crânes/éléphant	Oui/peau/éléphant	Oui/dents/éléphant	Oui/tête/éléphant	Non/bilan/lourd	Oui/équipement/lourd	Oui/plateau/lourd	Oui/cartable/lourd	Oui/manteau/lourd	Oui/ouvrage/lourd	Oui/bouclier/lourd	Oui/portail/lourd	Oui/revolver/lourd	Oui/crâne/lourd	Oui/sac/lourd	Non/lettre/longue	Non/lettres/longues	Oui/doigts/longs	Oui/mèches/longues	Oui/chaussette/longue	Oui/bras/long	Oui/tables/longues	Oui/guibolles/longues	Oui/moustaches/longues	Oui/siège/long	Oui/mur/long	Oui/queue/longue
Non/soleil/plomb	1.0	0.4688561260700226	0.6168219447135925	0.43644386529922485	0.5359863638877869	0.5759826302528381	0.4988800585269928	0.5442779064178467	0.417208194732666	0.5425754189491272	0.6126748323440552	0.6560797095298767	0.26464512944221497	0.6387904286384583	0.434486448764801	0.6118470430374146	0.3059447109699249	0.4858722984790802	0.5352215766906738	0.44458305835723877	0.6235170364379883	0.5979258418083191	0.05261143296957016	0.03707468509674072	-0.1413198858499527	-0.07223419845104218	-0.023808559402823448	-0.18260441720485687	-0.1428261548280716	0.010951405391097069	-0.026379331946372986	0.019798167049884796	-0.0830783024430275	-0.09662454575300217	-0.003304009325802326	0.0834365263581276	0.012854037806391716	-0.02626112475991249	-0.04275689274072647	-0.09483342617750168	0.06651051342487335	0.028530007228255272	-0.01854819618165493	-0.22315701842308044	-0.15842978656291962	0.052650272846221924	-0.12651494145393372	0.03608446195721626	-0.003573094494640827	-0.06422516703605652	0.0030547580681741238	-0.1090356782078743	-0.1626254767179489	0.0009371244814246893	-0.018091613426804543	-0.01125896256417036	0.07567552477121353	-0.0726081132888794	0.05665779486298561	0.10156121104955673	-0.09843908250331879	0.028678471222519875	0.07722299546003342	-0.00460471585392952	-0.11675580590963364	0.09209612756967545	0.026121094822883606	0.036081861704587936	-0.1494230479001999	0.03499797731637955	0.051816683262586594	0.12544821202754974	0.021433457732200623	0.042604781687259674	-0.03480500355362892	0.014412838034331799	0.018608110025525093	0.014243286103010178	0.06276662647724152	0.04050065577030182	-0.06159663572907448	-0.015839939936995506	-0.0018845181912183762	0.05621829628944397	0.02569136768579483	-0.09166157990694046	-0.1331416815519333	0.021257517859339714	0.02635120414197445	-0.12155517935752869	0.08180177956819534	-0.02560237981379032	-0.02349729649722576	0.13331036269664764	0.2072887420654297	0.2102973610162735	0.1838739663362503	0.20937970280647278	0.17160406708717346	0.19198943674564362	0.19347737729549408	0.08483109623193741	0.1173655167222023	0.04301145672798157	-0.004425622522830963	-0.0034371933434158564	-0.016400931403040886	-0.06700089573860168	0.03978550434112549	-0.02310582436621189	0.035135865211486816	0.04504920542240143	0.06628791987895966	0.05799754709005356	-0.01891404390335083	-0.011450161226093769	
Oui/balles/plomb	0.4688561260700226	1.0	0.6485990881919861	0.797681450843811	0.5739141702651978	0.7508078217506409	0.7460291385650635	0.6104493141174316	0.5875571966171265	0.6061326861381531	0.5627549290657043	0.5644310116767883	0.4057689905166626	0.6068260073661804	0.46649640798568726	0.6123582720756531	0.4422948658466339	0.575856626033783	0.542228639125824	0.4670233130455017	0.6008933782577515	0.6272132396697998	-0.16296523809432983	-0.11898625642061234	-0.042270198464393616	0.027037471532821655	-0.016081394627690315	-0.026063377037644386	-0.09352942556142807	0.05533308908343315	0.07790570706129074	-0.021812522783875465	-0.03647565469145775	-0.08483322709798813	-0.007115473505109549	-0.008482581004500389	0.014952221885323524	-0.002921823877841234	-0.06522072851657867	-0.02972112037241459	-0.01462074089795351	0.009743334725499153	-0.0035340161994099617	0.0009622270590625703	-0.1360090970993042	0.08075384050607681	0.06091606616973877	0.1053229346871376	0.12056228518486023	-0.03776805102825165	0.04441677778959274	-0.004156053997576237	0.035615287721157074	-0.0156840980052948	0.05104034021496773	-0.020361170172691345	0.03206460922956467	0.014707691967487335	-0.0014159157872200012	-0.01393810473382473	0.02286074124276638	-0.006192104425281286	0.03345831483602524	0.027232516556978226	0.13507653772830963	0.10586723685264587	0.020098354667425156	0.08834883570671082	-0.023836452513933182	-0.08052980899810791	-0.004872546065598726	-0.09260877221822739	0.05145157128572464	-0.016101136803627014	0.05254622921347618	-0.0741712674498558	-0.03005537949502468	0.014520137570798397	0.04314330965280533	-0.009773067198693752	-0.14526091516017914	0.012129168026149273	0.11815956979990005	-0.11211065948009491	-0.11980985105037689	-0.007246166467666626	-0.007780369371175766	0.14220178127288818	0.0376022569835186	0.014066102914512157	-0.008201882243156433	0.06788451224565506	-0.01353857945650816	0.07061749696731567	0.1825333833694458	0.1929577738046646	0.14453765749931335	0.1261233389377594	0.15080800652503967	0.15702450275421143	0.13320985436439514	0.21763208508491516	0.12360352277755737	0.11971081793308258	0.08586949855089188	0.0960141196846962	-0.03382238745689392	0.055691275745630264	0.14523209631443024	0.02341059222817421	0.07705694437026978	0.008467202074825764	0.03091156668961048	0.03745273873209953	-0.005456858314573765	0.050728268921375275	
Oui/lamelles/plomb	0.6168219447135925	0.6485990881919861	1.0	0.5238829255104065	0.7241421937942505	0.7687433958053589	0.7394304275512695	0.610675036907196	0.5824083685874939	0.7404935359954834	0.6914305090904236	0.6907138824462891	0.4292979836463928	0.7399939298629761	0.5672677159309387	0.6994783878326416	0.4394201636314392	0.6071696877479553	0.6379972100257874	0.571110188961029	0.7563421130180359	0.7893226742744446	-0.15684281289577484	-0.11791300028562546	-0.06505889445543289	0.10353801399469376	-0.01143411174416542	-0.11235008388757706	-0.015354829840362072	0.01695891283452511	0.0871257334947586	-0.018011042848229408	0.022279009222984314	-0.024937313050031662	-0.062330253422260284	-0.011545879766345024	-0.010471443645656109	0.017937611788511276	-0.0024211732670664787	-0.09562727063894272	0.01941741444170475	-0.01375834085047245	-0.024976691231131554	-0.04246380552649498	-0.035855475813150406	-0.00873449258506298	-0.058449599891901016	-0.04151256009936333	0.011740821413695812	-0.0013841373147442937	0.09129074960947037	-0.09164080768823624	-0.05867545306682587	0.020229261368513107	-0.021464627236127853	-0.026245804503560066	0.0032541032414883375	0.09013001620769501	-0.08275734633207321	-0.029881427064538002	-0.04499045014381409	0.053295861929655075	-0.02355881966650486	-0.020411506295204163	-0.007071145810186863	-0.0019541503861546516	0.026549292728304863	0.049268536269664764	-0.10705727338790894	-0.0175919272005558	-0.015286861918866634	-0.07076248526573181	0.10880011320114136	0.02020183578133583	0.047291748225688934	-0.002096351468935609	0.01619005762040615	-0.0015135194407775998	0.08960279822349548	0.0824289321899414	-0.11542438715696335	0.006870423909276724	0.08394912630319595	-0.03143181651830673	0.0007178169908002019	-0.03439111262559891	-0.012625652365386486	0.11761228740215302	0.02239544875919819	-0.006031588185578585	0.03628900274634361	0.07807167619466782	-0.04721790552139282	0.09977799654006958	0.29695770144462585	0.3175947070121765	0.21177814900875092	0.25614938139915466	0.25936663150787354	0.23234112560749054	0.24646903574466705	0.16078726947307587	0.15157780051231384	0.06242740899324417	0.09183306246995926	0.06538455933332443	-0.026127461344003677	0.022852199152112007	0.1360861361026764	-0.006186612416058779	0.06980758160352707	0.025627121329307556	0.07268372178077698	0.06443732231855392	-0.0465996079146862	0.06696202605962753	
Oui/balle/plomb	0.43644386529922485	0.797681450843811	0.5238829255104065	1.0	0.4823836386203766	0.5887075066566467	0.6113089323043823	0.6016063690185547	0.693930447101593	0.5993061065673828	0.5372174382209778	0.47914695739746094	0.42081624269485474	0.5846240520477295	0.4567946791648865	0.5303452014923096	0.5131003260612488	0.4944387674331665	0.5602089762687683	0.4268992841243744	0.5751690864562988	0.49626433849334717	-0.12925057113170624	-0.12221714109182358	-0.00032522130641154945	-0.010992034338414669	0.03251532465219498	0.016899505630135536	-0.08648740500211716	0.053443651646375656	0.052256129682064056	-0.10006263107061386	-0.04587000235915184	-0.07207252830266953	0.028525831177830696	0.04396823048591614	0.0021802366245537996	-0.05667368695139885	-0.0685381293296814	0.036255449056625366	-0.0016396607970818877	0.0361810177564621	0.028257040306925774	0.0022739155683666468	-0.15924935042858124	0.06330564618110657	0.002102901926264167	0.021746430546045303	0.10703911632299423	-0.03836522251367569	0.046984441578388214	-0.057791922241449356	0.04099138081073761	0.01029247511178255	0.05154796317219734	-0.030229896306991577	0.1027979627251625	0.10908330231904984	-0.03160947561264038	0.020469030365347862	0.06407079845666885	-0.04271095618605614	0.0594000481069088	-0.04130105301737785	0.14144332706928253	0.04580942541360855	0.05720018595457077	0.08703649789094925	-0.02485397271811962	-0.0696614533662796	-0.05998174846172333	-0.009517122991383076	-0.002813753904774785	-0.08507457375526428	0.00681421160697937	-0.022733908146619797	0.012533537112176418	-0.029335031285881996	-0.07100764662027359	-0.07210464775562286	-0.1239413172006607	0.008168494328856468	-0.03580528497695923	0.008005239069461823	-0.037643443793058395	0.010578617453575134	-0.0052619935013353825	-0.009698414243757725	0.03238115832209587	-0.12126720696687698	0.08202140033245087	-0.060343481600284576	0.12203517556190491	0.017801759764552116	0.137895405292511	0.1575017273426056	0.1404249370098114	0.09567201882600784	0.11558119207620621	0.12808887660503387	0.1217314600944519	0.20197805762290955	0.16307276487350464	0.1386786848306656	0.13493071496486664	0.16152377426624298	0.043335460126399994	0.08440100401639938	0.12098127603530884	0.032656196504831314	0.12274176627397537	0.13698242604732513	0.12301251292228699	0.05576469376683235	0.06360366195440292	0.11337248980998993	
Oui/noyaux/plomb	0.5359863638877869	0.5739141702651978	0.7241421937942505	0.4823836386203766	1.0	0.6467024087905884	0.6673455834388733	0.5795063972473145	0.5030853748321533	0.5828886032104492	0.5806174874305725	0.604536771774292	0.33474424481391907	0.6087517142295837	0.4836161136627197	0.5851881504058838	0.3529997169971466	0.5400629639625549	0.6218670606613159	0.5208110213279724	0.6402028203010559	0.6718786358833313	-0.13092923164367676	-0.0902685821056366	-0.06893611699342728	0.05646204575896263	-0.03556603938341141	-0.05294390395283699	-0.057146452367305756	-0.027249831706285477	0.006346710957586765	-0.023570042103528976	0.022082684561610222	-0.04575471952557564	-0.048464346677064896	-0.038500744849443436	-0.012235121801495552	-0.06040544807910919	-0.03399134427309036	-0.06886257231235504	0.008335603401064873	-0.03313710540533066	-0.001353830797597766	-0.05421294644474983	-0.04871904104948044	0.011608291417360306	-0.06918931752443314	-0.03211316466331482	0.028638046234846115	-0.004695337265729904	0.022481629624962807	0.023480786010622978	-0.08974045515060425	-0.022008342668414116	-0.00790321547538042	-0.0347166582942009	-0.009253066964447498	0.06439134478569031	-0.038208652287721634	-0.05133351683616638	-0.02923537790775299	-0.02238631621003151	-0.024352937936782837	-0.03515669330954552	-0.007944817654788494	0.04480494186282158	0.010223795659840107	0.02270745113492012	-0.07851012051105499	-0.09596853703260422	-0.02579815872013569	-0.11107952147722244	0.049983762204647064	-0.014310536906123161	0.0015684511745348573	-0.06216049566864967	-0.057017285376787186	-0.09905903786420822	0.04061906039714813	0.00990300253033638	-0.0893281102180481	0.08092615008354187	0.13665376603603363	-0.005400306545197964	0.005861763842403889	-0.0335012786090374	-0.10471093654632568	0.12379871308803558	-0.02743399329483509	0.036101389676332474	0.004589998163282871	-0.006488728802651167	-0.06328318268060684	-0.0010316242696717381	0.15592895448207855	0.16481932997703552	0.11034128069877625	0.14562979340553284	0.12616963684558868	0.10470126569271088	0.11871062219142914	0.025028830394148827	0.08970561623573303	-0.002347393659874797	0.07356128096580505	0.06223756819963455	-0.09087100625038147	0.017264436930418015	0.09046655893325806	0.06582096219062805	0.041325077414512634	0.027593359351158142	0.04006418585777283	0.09000032395124435	-0.02850138582289219	0.04966455325484276	
Oui/cartouches/plomb	0.5759826302528381	0.7508078217506409	0.7687433958053589	0.5887075066566467	0.6467024087905884	1.0	0.7505487203598022	0.6704309582710266	0.5970760583877563	0.7013522982597351	0.6917374730110168	0.6802189350128174	0.47282537817955017	0.7709863185882568	0.5770888328552246	0.7266335487365723	0.41537681221961975	0.6034256815910339	0.6012681126594543	0.5523857474327087	0.7144790291786194	0.761089026927948	-0.25218984484672546	-0.18666911125183105	-0.12528175115585327	0.07844886928796768	-0.0767497792840004	-0.13317041099071503	-0.05605307221412659	-0.030967267230153084	0.07229343801736832	-0.0059549156576395035	-0.0015090897213667631	-0.10338276624679565	-0.08023208379745483	-0.033937446773052216	-0.023512650281190872	-0.012723184190690517	-0.11149828881025314	-0.16137386858463287	0.016269074752926826	-0.035971928387880325	-0.015586207620799541	-0.07435107976198196	-0.17699480056762695	-0.01721588894724846	-0.04233647882938385	0.06810904294252396	0.02629517950117588	-0.0055766720324754715	-0.009825536049902439	-0.05310305953025818	-0.0635867789387703	-0.03560445457696915	-0.05572088062763214	-0.04673934355378151	-0.0790553018450737	-0.055957186967134476	-0.020173221826553345	-0.07529757916927338	-0.043773353099823	-0.0430389903485775	-0.053279466927051544	0.00318146706558764	-0.052842628210783005	0.0007512085139751434	-0.03432851657271385	0.08189499378204346	-0.0384182408452034	-0.036164797842502594	0.032177459448575974	-0.048439789563417435	0.08102457225322723	0.04411349818110466	0.017867958173155785	-0.015898432582616806	0.026693496853113174	0.04829541966319084	0.09926167130470276	-0.023121414706110954	-0.14090541005134583	0.021061241626739502	0.12995082139968872	-0.06774792075157166	-0.0678144171833992	-0.0734662413597107	-0.1454460173845291	0.11009485274553299	0.018069753423333168	-0.07013319432735443	-0.1121968924999237	-0.04143384099006653	-0.11188758164644241	0.12197043001651764	0.3219718337059021	0.2599691152572632	0.25325271487236023	0.20037688314914703	0.256651908159256	0.22001177072525024	0.24790515005588531	0.2365661859512329	0.08676515519618988	0.048940494656562805	0.11551864445209503	0.10456860810518265	-0.0767902061343193	0.026133276522159576	0.12274276465177536	-0.013872923329472542	0.06713517755270004	-0.005963748320937157	0.05829862505197525	0.07492943108081818	-0.08603174984455109	-0.00830626580864191	
Oui/billes/plomb	0.4988800585269928	0.7460291385650635	0.7394304275512695	0.6113089323043823	0.6673455834388733	0.7505487203598022	1.0	0.5828112363815308	0.7775304913520813	0.609764575958252	0.5928012728691101	0.6026344895362854	0.4590801000595093	0.6455188393592834	0.535580575466156	0.6480605602264404	0.49778488278388977	0.5790249109268188	0.5362364053726196	0.5556614995002747	0.6481311917304993	0.6857283115386963	-0.17861829698085785	-0.1284085512161255	-0.1040504053235054	0.012161529622972012	0.01051633246243	0.010448591783642769	-0.06839662045240402	0.10000091791152954	0.03850078582763672	-0.07270650565624237	-0.03877958655357361	-0.056123875081539154	-0.0575580932199955	-0.015129062347114086	-0.010742675513029099	-0.053404174745082855	-0.07008174806833267	-0.07894165068864822	-0.005319009069353342	-0.10088968276977539	0.040386032313108444	-0.06937789171934128	-0.1252373903989792	0.013689079321920872	0.09111690521240234	-0.008084474131464958	0.01100271288305521	-0.028815055266022682	0.07261638343334198	0.003961141686886549	-0.03661734238266945	0.031081290915608406	-0.014066627249121666	0.02717524953186512	0.05355143919587135	0.09319539368152618	-0.02368679828941822	-0.027451515197753906	-0.041799869388341904	0.02616358920931816	0.059187859296798706	0.009250744245946407	0.07654555886983871	0.07464508712291718	0.048846565186977386	0.03970437869429588	-0.06243664026260376	-0.08456861972808838	-0.029659776017069817	-0.09124176949262619	0.05134434252977371	0.008952508680522442	0.031100843101739883	-0.047828659415245056	-0.03706067055463791	0.07711949199438095	0.10084842145442963	0.01192616205662489	-0.12386106699705124	0.011293957009911537	0.11245062947273254	-0.11472266167402267	-0.05503559112548828	-0.07525915652513504	-0.06020064279437065	0.08077791333198547	-0.031594108790159225	-0.01940884254872799	-0.039667535573244095	0.07364081591367722	-0.06947868317365646	0.062993124127388	0.20670853555202484	0.27872252464294434	0.24122978746891022	0.1633242666721344	0.17024250328540802	0.15698006749153137	0.17634828388690948	0.17297255992889404	0.09197766333818436	0.21727320551872253	0.13773438334465027	0.0846063420176506	0.02277965098619461	0.0705888494849205	0.18458275496959686	0.05603650584816933	0.11164077371358871	0.022091269493103027	0.04606054723262787	0.09723925590515137	-0.009768668562173843	0.08952176570892334	
Oui/boulet/plomb	0.5442779064178467	0.6104493141174316	0.610675036907196	0.6016063690185547	0.5795063972473145	0.6704309582710266	0.5828112363815308	1.0	0.5950499176979065	0.6189597249031067	0.5997651815414429	0.6450908780097961	0.394551157951355	0.6714227199554443	0.5519407987594604	0.6472265720367432	0.42038649320602417	0.49930351972579956	0.5710884928703308	0.5892957448959351	0.6934797763824463	0.6201698780059814	-0.13249190151691437	-0.10591863095760345	-0.024428460747003555	-0.007565373554825783	-0.012095588259398937	-0.058275263756513596	-0.1342875063419342	-0.027186214923858643	0.01677289791405201	-0.013601422309875488	-0.05390302836894989	-0.12765832245349884	0.04162071645259857	0.06612753868103027	0.02506956271827221	-0.007886834442615509	-0.1280447095632553	-0.04723861441016197	0.02816886454820633	0.04234585911035538	-0.0645332783460617	-0.10536075383424759	-0.1635981947183609	-0.005818952806293964	-0.09571994096040726	0.05855017527937889	0.08017384260892868	0.0006314183119684458	-0.03688348829746246	-0.12100805342197418	-0.06088009849190712	-0.05277310684323311	-0.006438175681978464	-0.00553932273760438	-0.017976420000195503	-0.07761440426111221	-0.05315660312771797	-0.019556310027837753	0.030491705983877182	-0.062300488352775574	0.037287820130586624	-0.06161559373140335	-0.002780131297186017	0.07935932278633118	0.0062725176103413105	0.09117337316274643	-0.08536459505558014	-0.10365885496139526	-0.0971551388502121	-0.07229438424110413	-0.10548937320709229	-0.017276566475629807	-0.11617155373096466	-0.09664709866046906	-0.04021899029612541	-0.06063142418861389	-0.07338366657495499	-0.14037388563156128	-0.11018907278776169	-0.10551662743091583	-0.08580466359853745	0.027736114338040352	-0.0020381510257720947	0.0047780233435332775	-0.07468115538358688	-0.08707203716039658	-0.005728692281991243	-0.17698536813259125	-0.0812327191233635	-0.13415652513504028	-0.05277290567755699	-0.027190260589122772	0.061662688851356506	0.06074175238609314	0.0908689945936203	0.06813151389360428	0.07102286070585251	0.046222370117902756	0.06914392113685608	0.009731225669384003	0.038462042808532715	0.04146410524845123	0.04231993854045868	0.048671968281269073	-0.005200359039008617	0.02236897684633732	0.12955236434936523	0.0037028207443654537	-0.006259525194764137	0.13975191116333008	0.0883449837565422	0.019722314551472664	-0.002705293707549572	0.0644175186753273	
Oui/bille/plomb	0.417208194732666	0.5875571966171265	0.5824083685874939	0.693930447101593	0.5030853748321533	0.5970760583877563	0.7775304913520813	0.5950499176979065	1.0	0.5889416337013245	0.5460404753684998	0.49475058913230896	0.49724581837654114	0.6187938451766968	0.5357545018196106	0.5475833415985107	0.548608660697937	0.4752056300640106	0.5643280148506165	0.5070156455039978	0.5885384678840637	0.5648187398910522	-0.1287979930639267	-0.0731048732995987	-0.013580298982560635	0.02733599580824375	0.06102101877331734	0.08136414736509323	-0.02450087107717991	0.08928796648979187	0.05695471167564392	-0.08092080801725388	0.048947907984256744	0.010869394987821579	0.016643740236759186	0.0526420921087265	0.007176586426794529	-0.057899586856365204	-0.024985138326883316	0.009098513051867485	-0.001483153086155653	-0.03042185865342617	0.06444498896598816	-0.026054857298731804	-0.08271583169698715	-0.0017875140765681863	0.018841516226530075	0.01616687700152397	0.008032262325286865	-0.023468848317861557	0.08467136323451996	-0.043332070112228394	-0.005864363629370928	0.026177072897553444	-0.004682756029069424	0.014624148607254028	0.06873684376478195	0.13818511366844177	-0.05663802847266197	0.006747788283973932	0.024516703560948372	-0.013642998412251472	0.07107344269752502	-0.04183155298233032	0.09990156441926956	0.06714679300785065	0.09015683829784393	0.08339279145002365	-0.03852256387472153	-0.08094746619462967	-0.06142093986272812	-0.00019565383263397962	0.03436925262212753	-0.047979824244976044	0.020122742280364037	0.012976245023310184	-0.0027933840174227953	0.047143638134002686	0.006815093569457531	-0.05294836312532425	-0.07945992052555084	0.01003982126712799	-0.013866923749446869	-0.0002765211393125355	0.044511497020721436	0.03340216353535652	-0.026752552017569542	-0.06357576698064804	0.053564175963401794	-0.1312246173620224	0.0650450587272644	-0.04581969603896141	0.10268896818161011	0.04651350528001785	0.18488025665283203	0.2663959562778473	0.23125307261943817	0.1318926215171814	0.17103366553783417	0.15924446284770966	0.18026980757713318	0.18323302268981934	0.15285620093345642	0.1946997046470642	0.17924055457115173	0.17376923561096191	0.11631682515144348	0.12148231267929077	0.1454988569021225	0.057323914021253586	0.13786765933036804	0.10921771079301834	0.17478153109550476	0.12313499301671982	0.07437728345394135	0.19189071655273438	
Oui/plaque/plomb	0.5425754189491272	0.6061326861381531	0.7404935359954834	0.5993061065673828	0.5828886032104492	0.7013522982597351	0.609764575958252	0.6189597249031067	0.5889416337013245	1.0	0.7048856019973755	0.6187390685081482	0.4667273461818695	0.751488983631134	0.5614557862281799	0.6993443965911865	0.5091984868049622	0.5734858512878418	0.653535008430481	0.5452040433883667	0.7135565280914307	0.6808708310127258	-0.21580485999584198	-0.13979704678058624	-0.05918294936418533	0.08673852682113647	0.03802887722849846	-0.0938330590724945	0.039005763828754425	0.059121303260326385	0.12385719269514084	-0.054460689425468445	0.03998264670372009	0.02223525568842888	-0.017209196463227272	0.03828614577651024	-0.038140248507261276	0.015147348865866661	-0.03923526778817177	0.06183336302638054	0.008075523190200329	0.0009456144762225449	0.04083315283060074	-0.048875629901885986	-0.08627992868423462	0.029877252876758575	-0.08535702526569366	0.009947997517883778	0.04590550810098648	-0.009049632586538792	0.026206187903881073	-0.04539240524172783	0.013539629988372326	0.01916750892996788	0.05385224148631096	-0.03621445223689079	0.028769895434379578	0.11788100004196167	-0.06702060252428055	-0.0433751679956913	0.018398165702819824	-0.03751643747091293	0.012296403758227825	0.050172124058008194	0.053421203047037125	0.015501949936151505	0.059513844549655914	0.05291283503174782	0.002580575877800584	-0.042850542813539505	-0.014805981889367104	-0.02037120796740055	0.09699295461177826	-0.015942919999361038	0.019812624901533127	0.04282855615019798	0.037770505994558334	-0.011443751864135265	0.07955408096313477	0.011699351482093334	-0.0974879041314125	0.1280880570411682	0.09125956147909164	-0.01999026909470558	0.021476497873663902	0.051762644201517105	-0.019368687644600868	0.06016229838132858	0.09964659810066223	-0.07840997725725174	0.05518893525004387	0.024207916110754013	0.042185455560684204	0.14229324460029602	0.24571016430854797	0.2693778872489929	0.17325171828269958	0.2141716182231903	0.2169935703277588	0.21044769883155823	0.2224346399307251	0.11972125619649887	0.13321122527122498	0.031341031193733215	0.14430473744869232	0.18456323444843292	-0.015269992873072624	0.0838225856423378	0.06543053686618805	0.0028800396248698235	0.17861615121364594	0.045658499002456665	0.13186027109622955	0.08394061774015427	0.09258019179105759	0.03618263453245163	
Oui/coupole/plomb	0.6126748323440552	0.5627549290657043	0.6914305090904236	0.5372174382209778	0.5806174874305725	0.6917374730110168	0.5928012728691101	0.5997651815414429	0.5460404753684998	0.7048856019973755	1.0	0.6701228022575378	0.49606838822364807	0.708382248878479	0.5552153587341309	0.7103161215782166	0.5286149978637695	0.5180114507675171	0.6197283267974854	0.4931635856628418	0.6874653697013855	0.6890943050384521	-0.19546911120414734	-0.10724017024040222	-0.09397788345813751	0.059018734842538834	-0.03725574165582657	-0.10359852015972137	-0.01506703719496727	0.032735057175159454	0.06260257214307785	-0.04887623339891434	0.028771260753273964	-0.003529883688315749	-0.0684056431055069	-0.011243924498558044	-0.05776751786470413	-0.025142112746834755	-0.06861550360918045	0.012921412475407124	-0.0012655340833589435	-0.038672201335430145	0.014234095811843872	-0.11972077935934067	-0.13838127255439758	0.04427792876958847	-0.11388424783945084	-0.00042574963299557567	0.046153437346220016	0.08274025470018387	0.026810932904481888	0.005244315601885319	-0.021151479333639145	0.06715880334377289	-0.06586963683366776	0.05006611719727516	-0.04104328528046608	0.09004368633031845	-0.07641677558422089	0.022964291274547577	-0.01740930788218975	-0.038876041769981384	-0.0283296350389719	0.047899484634399414	-0.06574378162622452	0.03572412580251694	0.009726625867187977	0.11515937745571136	-0.04724351316690445	0.008163176476955414	0.018235262483358383	0.03655482083559036	0.09002407640218735	0.0018785161664709449	0.023256203159689903	0.07487381994724274	0.1346786618232727	-0.010899662040174007	0.07351374626159668	0.07389264553785324	0.0434039942920208	0.02613886632025242	0.011742373928427696	-0.013654571026563644	0.011893528513610363	-0.02742195501923561	-0.10680722445249557	-0.0033227817621082067	0.056601282209157944	-0.09719448536634445	-0.0578564815223217	-0.10304881632328033	0.008381010964512825	0.11997673660516739	0.28763481974601746	0.31451931595802307	0.2359931617975235	0.27241310477256775	0.28969717025756836	0.2496793419122696	0.30005237460136414	0.1719188541173935	0.18125492334365845	0.06193845346570015	0.06681057065725327	0.097554050385952	-0.03873499482870102	0.06369160860776901	0.05977321043610573	0.04962467774748802	0.15588195621967316	0.06577808409929276	0.13985158503055573	0.17570574581623077	0.10853375494480133	0.06084851548075676	
Non/silence/plomb	0.6560797095298767	0.5644310116767883	0.6907138824462891	0.47914695739746094	0.604536771774292	0.6802189350128174	0.6026344895362854	0.6450908780097961	0.49475058913230896	0.6187390685081482	0.6701228022575378	1.0	0.41430187225341797	0.6943168640136719	0.4968353807926178	0.7451385855674744	0.4439449608325958	0.5112287998199463	0.6093705296516418	0.5100130438804626	0.7344303727149963	0.6935123801231384	-0.17337551712989807	-0.15911054611206055	-0.21399518847465515	-0.05198667198419571	-0.020815741270780563	-0.20479412376880646	-0.12059953063726425	-0.0008220779127441347	-0.033716220408678055	-0.02709622122347355	-0.05371977388858795	-0.1172403022646904	-0.07881978154182434	-0.01096043735742569	-0.01725960336625576	-0.027252517640590668	-0.09625570476055145	-0.08965561538934708	0.011701034381985664	-0.022811464965343475	-0.05718516558408737	-0.1860581934452057	-0.16523773968219757	0.020793098956346512	-0.18014724552631378	0.057298410683870316	0.004695104900747538	-0.045210469514131546	0.02487437054514885	-0.18402233719825745	-0.12385539710521698	-0.04577430337667465	-0.035743702203035355	-0.05624328553676605	-0.012144967913627625	-0.08141326159238815	-0.012953013181686401	-0.027590347453951836	-0.06911157816648483	-0.00538483913987875	-0.06985350698232651	-0.11260662972927094	-0.13231880962848663	-0.0029948975425213575	-0.02683582529425621	-0.003417165018618107	-0.2091778665781021	0.09779413789510727	0.08334986865520477	-0.05692615732550621	0.046720005571842194	0.07871755957603455	0.0036816676147282124	0.06940251588821411	0.056361742317676544	-0.003032045206055045	0.04445115849375725	0.01216077245771885	-0.010444771498441696	0.10833469778299332	0.09152452647686005	0.05822820961475372	0.041407302021980286	-0.08312740921974182	-0.19778822362422943	0.06083188205957413	0.0359715037047863	-0.10865067690610886	-0.10807706415653229	-0.08697010576725006	-0.0809493139386177	0.09118366986513138	0.1643107682466507	0.1719302386045456	0.10919995605945587	0.1394517421722412	0.16765065491199493	0.10355911403894424	0.13886772096157074	0.03009987436234951	0.023256996646523476	-0.04120732098817825	0.02199503406882286	-0.022725284099578857	-0.10258100926876068	-0.14127281308174133	0.012678149156272411	-0.09263839572668076	0.00751025415956974	-0.07037825882434845	-0.06860340386629105	0.002032288582995534	-0.05094258487224579	-0.0717814564704895	
Oui/urne/plomb	0.26464512944221497	0.4057689905166626	0.4292979836463928	0.42081624269485474	0.33474424481391907	0.47282537817955017	0.4590801000595093	0.394551157951355	0.49724581837654114	0.4667273461818695	0.49606838822364807	0.41430187225341797	1.0	0.48364850878715515	0.37933674454689026	0.6032542586326599	0.4431201219558716	0.36883458495140076	0.42408958077430725	0.43538224697113037	0.4181630611419678	0.42531007528305054	-0.13720166683197021	-0.027433693408966064	-0.046254027634859085	0.029753049835562706	0.06626644730567932	0.15318763256072998	0.014864375814795494	0.16474546492099762	0.08390559256076813	-0.03632116690278053	0.10861901938915253	0.030414363369345665	0.01977068930864334	0.0722547397017479	0.05805713310837746	0.04100554436445236	-0.03855729475617409	0.04065932705998421	0.06578807532787323	0.04308050870895386	0.06316322833299637	-0.0030889606568962336	0.011165344156324863	0.051734622567892075	0.09774194657802582	0.026267532259225845	0.06103576719760895	0.04218731448054314	0.02145393379032612	0.012423921376466751	0.12414906919002533	0.1578880250453949	-0.08247852325439453	0.11119668930768967	0.07778903841972351	0.18397460877895355	-0.06764329969882965	0.031821563839912415	0.03554283455014229	-0.015721891075372696	0.019321314990520477	0.04835819825530052	-0.030867096036672592	-0.032769959419965744	-0.013294726610183716	0.06815411895513535	0.0259280763566494	0.03813278302550316	0.031373437494039536	-0.002243601717054844	0.052347276359796524	0.06639959663152695	0.04010847210884094	0.13837584853172302	0.07373537868261337	0.13572099804878235	0.09797128289937973	0.041510891169309616	0.09178075194358826	-0.017885766923427582	-0.05103535205125809	-0.04552307352423668	-0.09932316839694977	0.0022161018569022417	-0.13110017776489258	-0.13375142216682434	-0.01113086473196745	0.0576920248568058	-0.04556303471326828	-0.12276749312877655	0.05608725547790527	0.10170429199934006	0.1473207175731659	0.2194305658340454	0.19711442291736603	0.16643251478672028	0.1367049664258957	0.1271391361951828	0.15763194859027863	0.11196228861808777	0.1970636397600174	0.23460137844085693	0.14975981414318085	0.1773378849029541	0.02871125191450119	0.07202654331922531	0.11315051466226578	0.08572953939437866	0.2138373851776123	0.06132473051548004	0.14932239055633545	0.12627190351486206	0.12030572444200516	0.095380499958992	
Oui/tablette/plomb	0.6387904286384583	0.6068260073661804	0.7399939298629761	0.5846240520477295	0.6087517142295837	0.7709863185882568	0.6455188393592834	0.6714227199554443	0.6187938451766968	0.751488983631134	0.708382248878479	0.6943168640136719	0.48364850878715515	1.0	0.5622038245201111	0.7493377923965454	0.49107202887535095	0.5586571097373962	0.675870954990387	0.610921323299408	0.7640063166618347	0.7194902300834656	-0.2296581119298935	-0.16316142678260803	-0.07870271056890488	0.0713978111743927	0.02155272290110588	-0.10411373525857925	-0.022451698780059814	0.018783090636134148	0.031347524374723434	0.009316707029938698	0.06715681403875351	-0.030250433832406998	-0.03702041506767273	0.05360005423426628	-0.023619981482625008	-0.04455289989709854	-0.08274044841527939	-0.0740860104560852	0.03795192390680313	-0.014568782411515713	-0.02534458413720131	-0.11600329726934433	-0.13382749259471893	0.007801611442118883	-0.10570000112056732	0.01697395183146	0.03199044615030289	0.007570119109004736	-0.025134295225143433	-0.12328865379095078	-0.09889265894889832	0.00423124385997653	-0.00019587382848840207	-0.00431648176163435	-0.005678242072463036	0.013669980689883232	0.024164613336324692	-0.03931543976068497	-0.025945022702217102	-0.023999756202101707	-0.0034218579530715942	0.06334351748228073	-0.11533016711473465	-0.0012707258574664593	-0.01356123574078083	0.011216179467737675	-0.03436874970793724	-0.0005118725821375847	0.03067616932094097	0.009965125471353531	0.09423369914293289	0.005511790979653597	0.026202736422419548	0.051909152418375015	0.05754731222987175	0.055641043931245804	0.06976410746574402	-0.0019700932316482067	-0.09864532947540283	0.06098811700940132	0.037974655628204346	0.0170822162181139	0.026027638465166092	0.01274118386209011	-0.10179422795772552	-0.00875278189778328	0.019120732322335243	-0.14418061077594757	-0.031241964548826218	-0.11175215989351273	-0.0668087974190712	0.09287366271018982	0.26614487171173096	0.2573799192905426	0.276745080947876	0.1673693060874939	0.2178923338651657	0.16567325592041016	0.2310834676027298	0.11200828105211258	0.09897264838218689	0.06180846691131592	0.08724654465913773	0.1004825308918953	0.037393637001514435	-0.02916889823973179	0.09072863310575485	-0.029409829527139664	0.12427091598510742	0.04630852863192558	0.09143544733524323	0.11541246622800827	-3.02278931485489e-05	-0.0061800843104720116	
Oui/tuyau/plomb	0.434486448764801	0.46649640798568726	0.5672677159309387	0.4567946791648865	0.4836161136627197	0.5770888328552246	0.535580575466156	0.5519407987594604	0.5357545018196106	0.5614557862281799	0.5552153587341309	0.4968353807926178	0.37933674454689026	0.5622038245201111	1.0	0.594674289226532	0.42765137553215027	0.4859190583229065	0.4903600215911865	0.48882409930229187	0.656014621257782	0.5423175692558289	-0.13456013798713684	-0.025483625009655952	-0.09533220529556274	-0.016161995008587837	0.02434229478240013	0.14445093274116516	-0.1053660586476326	-0.006619175896048546	0.03224526345729828	-0.08727020025253296	-0.04662151634693146	-0.09977978467941284	0.041730597615242004	0.08335582166910172	0.004865407943725586	0.02704646810889244	-0.028675910085439682	0.0420660637319088	0.032213952392339706	-0.024448664858937263	-0.02432124689221382	-0.10707440227270126	-0.15494340658187866	0.051452405750751495	0.05135419964790344	-0.031348612159490585	0.14255593717098236	0.03554113209247589	0.09606512635946274	0.1135273203253746	0.055316679179668427	-0.0007463229121640325	-0.047237079590559006	0.012349320575594902	-0.050031084567308426	0.06716261059045792	-0.11084046959877014	0.09538046270608902	0.007922952994704247	-0.05106807127594948	0.0432678647339344	0.021132273599505424	0.11974041163921356	0.041356272995471954	0.0618177205324173	0.12671172618865967	0.1122441217303276	-0.11210647970438004	-0.1031675860285759	-0.01866491325199604	-0.015892917290329933	-0.04901454225182533	-0.009196056053042412	-0.06939753144979477	-0.021928155794739723	0.03933917358517647	0.08017504960298538	-0.10366953164339066	-0.042086292058229446	-0.06604056805372238	-0.07855170965194702	0.08926140516996384	0.08122493326663971	-0.03757209703326225	-0.0002798812638502568	-0.12921278178691864	0.04377606511116028	-0.16998538374900818	-0.06758397817611694	-0.08791205286979675	-0.05010801926255226	0.046704523265361786	0.21956640481948853	0.21966028213500977	0.2067500501871109	0.23131904006004333	0.202309712767601	0.14305594563484192	0.20838822424411774	0.1306743621826172	0.12637268006801605	0.2327619343996048	0.0490696094930172	0.03294501453638077	0.041804466396570206	0.1021759957075119	0.13407786190509796	0.03000478632748127	0.02640634775161743	0.09244681149721146	0.1253213733434677	-0.011069143190979958	0.07236421853303909	0.14191687107086182	
Oui/cercueil/plomb	0.6118470430374146	0.6123582720756531	0.6994783878326416	0.5303452014923096	0.5851881504058838	0.7266335487365723	0.6480605602264404	0.6472265720367432	0.5475833415985107	0.6993443965911865	0.7103161215782166	0.7451385855674744	0.6032542586326599	0.7493377923965454	0.594674289226532	1.0	0.5123343467712402	0.5962457060813904	0.6062890887260437	0.5999870896339417	0.7663401365280151	0.7160496711730957	-0.23482389748096466	-0.14121274650096893	-0.10715056210756302	-0.0025447849184274673	0.06045573949813843	-0.04861028864979744	-0.07958556711673737	0.0523311048746109	0.01967301219701767	-0.02247491106390953	0.007839558646082878	-0.07932358980178833	-0.0015037346165627241	0.04417770355939865	-0.007085310760885477	0.060296230018138885	-0.11112085729837418	-0.02635224163532257	0.06042268127202988	0.033348146826028824	0.004419393837451935	-0.07168880105018616	-0.09368927031755447	0.0773954764008522	-0.02447529137134552	0.06219840049743652	0.06976041197776794	-0.009604432620108128	0.008845274336636066	-0.059856247156858444	0.015374856069684029	0.03381313756108284	-0.09500376880168915	0.018398188054561615	-0.009380672127008438	0.012187100015580654	-0.043821725994348526	-0.012751605361700058	-0.013606146909296513	-0.04546262323856354	-0.029204078018665314	0.002054185839369893	-0.0941334143280983	-0.03910032659769058	-0.012179178185760975	0.05773531273007393	-0.06041610240936279	0.07316941022872925	0.04820358380675316	0.02074001356959343	0.04933274909853935	0.11682180315256119	0.03975353389978409	0.08389388769865036	0.09204161912202835	0.07204784452915192	0.09258870780467987	-0.0023391032591462135	0.012466639280319214	0.01398187130689621	0.02982526645064354	0.015482832677662373	0.027277272194623947	-0.06218543276190758	-0.15983062982559204	-0.02631206437945366	-0.03782736882567406	-0.020830634981393814	-0.05396505072712898	-0.12039223313331604	-0.04931148886680603	0.07828370481729507	0.18678267300128937	0.22680506110191345	0.19345520436763763	0.20527708530426025	0.17087645828723907	0.15288637578487396	0.2026766836643219	0.1070074662566185	0.17534273862838745	0.1382293552160263	0.10999423265457153	0.10584429651498795	-0.040748246014118195	-0.025495482608675957	0.1046697273850441	0.05190296843647957	0.0619344562292099	0.0519455224275589	0.08734334260225296	0.1341356337070465	0.05117182806134224	-0.015553883276879787	
Oui/cage/plomb	0.3059447109699249	0.4422948658466339	0.4394201636314392	0.5131003260612488	0.3529997169971466	0.41537681221961975	0.49778488278388977	0.42038649320602417	0.548608660697937	0.5091984868049622	0.5286149978637695	0.4439449608325958	0.4431201219558716	0.49107202887535095	0.42765137553215027	0.5123343467712402	1.0	0.4333382248878479	0.44562840461730957	0.3725847601890564	0.47770923376083374	0.4576236605644226	-0.14869800209999084	-0.07542764395475388	0.018908843398094177	0.020222429186105728	0.0808044895529747	0.10332009941339493	-0.023194709792733192	0.057895224541425705	0.08259812742471695	-0.07519866526126862	0.03794046863913536	0.01531438622623682	-0.01358974352478981	0.045313987880945206	-0.03757597133517265	-0.005327074322849512	-0.06512653827667236	0.15126165747642517	0.07647299021482468	0.01149512268602848	0.1294957548379898	-0.07496151328086853	-0.043529901653528214	0.022211626172065735	0.06828644126653671	0.03710044547915459	0.044424671679735184	0.0859021469950676	0.14837902784347534	0.08793918788433075	0.1966581642627716	0.24490876495838165	0.055965181440114975	0.2343825250864029	0.183231920003891	0.2733114957809448	0.023294571787118912	0.061399929225444794	0.060235608369112015	-0.029607560485601425	0.18719623982906342	0.11998797953128815	0.03549548611044884	0.0434420183300972	-0.00039444671710953116	0.2057289332151413	0.032929856330156326	-0.015786169096827507	-0.05121321231126785	-0.03548648580908775	-0.0421593077480793	-0.05913596600294113	0.021963387727737427	0.029543930664658546	0.002757887588813901	0.03749525174498558	0.11796803772449493	-0.025579603388905525	0.01909738779067993	-0.0902465209364891	-0.12839168310165405	0.05230104178190231	-0.024374794214963913	-0.045195482671260834	0.08303705602884293	-0.03797011822462082	-0.02878248132765293	-0.10822271555662155	0.0723046138882637	0.0005193122196942568	0.05704551562666893	0.042487017810344696	0.17243409156799316	0.22670091688632965	0.20151497423648834	0.19772008061408997	0.15437619388103485	0.15278878808021545	0.2093317210674286	0.12754608690738678	0.16269108653068542	0.2623012065887451	0.027857335284352303	0.02908242680132389	-0.03487308695912361	-0.012103765271604061	0.08063401281833649	0.05573390796780586	0.07173660397529602	0.02925391122698784	0.05386640504002571	0.060153283178806305	0.18718460202217102	0.2019461840391159	
Oui/gants/plomb	0.4858722984790802	0.575856626033783	0.6071696877479553	0.4944387674331665	0.5400629639625549	0.6034256815910339	0.5790249109268188	0.49930351972579956	0.4752056300640106	0.5734858512878418	0.5180114507675171	0.5112287998199463	0.36883458495140076	0.5586571097373962	0.4859190583229065	0.5962457060813904	0.4333382248878479	1.0	0.4255090355873108	0.39407259225845337	0.5576186776161194	0.5839657187461853	-0.09217121452093124	-0.09290258586406708	-0.026788432151079178	0.03963957726955414	0.018266532570123672	0.02585858479142189	-0.020144570618867874	0.048700716346502304	0.09305230528116226	0.004537433851510286	0.037029244005680084	-0.01725657284259796	0.035042524337768555	0.058535315096378326	0.01600072905421257	0.12462373822927475	-0.04432666674256325	-0.05848880857229233	0.09379234910011292	0.10894199460744858	-0.038868099451065063	0.016765039414167404	-0.12795592844486237	0.11222853511571884	0.17712536454200745	0.07672638446092606	0.03456416353583336	-0.038230132311582565	0.0832294300198555	-0.004227868746966124	0.010781590826809406	0.05011908337473869	-0.0039452374912798405	0.026095055043697357	0.053757838904857635	0.0190744511783123	-0.0025574692990630865	-0.04423573240637779	0.02324812300503254	-0.0490243025124073	0.04849640280008316	0.03076675347983837	0.029790610074996948	0.11527025699615479	-0.03807564079761505	0.03242350369691849	-0.01959705911576748	-0.10364188998937607	-0.037749893963336945	0.16530537605285645	0.09698791801929474	0.12162674218416214	0.010705608874559402	-0.045590609312057495	-0.09090152382850647	0.1297532469034195	0.12553519010543823	-0.0025715490337461233	-0.0912378802895546	0.013707537204027176	0.08259323239326477	-0.049289535731077194	-0.0543564073741436	0.027890902012586594	-0.02292403019964695	0.09001732617616653	-1.8089933291776106e-05	0.10810215771198273	0.1260024905204773	0.10436443984508514	0.03246345371007919	0.04212535172700882	0.23090745508670807	0.17229655385017395	0.20155827701091766	0.2413698434829712	0.15589803457260132	0.1793469786643982	0.12420596182346344	0.12628069519996643	0.13554500043392181	0.24674445390701294	0.06847453117370605	0.09003879874944687	-0.01525949314236641	0.10538242012262344	0.19069665670394897	0.18005622923374176	0.024928519502282143	0.061724089086055756	0.1088843122124672	0.10948581248521805	0.00899540726095438	0.0052131167612969875	
Oui/masse/plomb	0.5352215766906738	0.542228639125824	0.6379972100257874	0.5602089762687683	0.6218670606613159	0.6012681126594543	0.5362364053726196	0.5710884928703308	0.5643280148506165	0.653535008430481	0.6197283267974854	0.6093705296516418	0.42408958077430725	0.675870954990387	0.4903600215911865	0.6062890887260437	0.44562840461730957	0.4255090355873108	1.0	0.5429335832595825	0.623400866985321	0.6243411898612976	-0.17572477459907532	-0.1526029109954834	-0.10872212052345276	-0.04849189147353172	-0.05708245933055878	-0.1119072288274765	-0.12455012649297714	-0.12605822086334229	-0.04002969339489937	-0.16837762296199799	-0.06748328357934952	-0.11715158075094223	-0.10738316923379898	-0.06945960968732834	-0.0570269338786602	-0.10187853872776031	-0.0858883485198021	-0.05659313127398491	-0.12369734793901443	-0.08040359616279602	-0.023680776357650757	-0.1593656688928604	-0.18565192818641663	-0.03621912747621536	-0.10333356261253357	0.08137921988964081	0.08984114974737167	0.0026843787636607885	0.03022202104330063	-0.12530367076396942	-0.026385633274912834	-0.04882841557264328	-0.05329041928052902	-0.08070726692676544	0.003265650011599064	0.0822981595993042	-0.051433760672807693	-0.010101670399308205	-0.01447224523872137	-0.00011354711750755087	-0.042040735483169556	-0.00041042579687200487	-0.06288699805736542	0.022152582183480263	0.04045708477497101	0.01866309717297554	-0.0743429884314537	-0.11040779203176498	-0.11381446570158005	-0.14736078679561615	-0.061881277710199356	-0.14400193095207214	-0.08393417298793793	-0.016058919951319695	-0.043546661734580994	-0.06304102391004562	-0.026663776487112045	-0.1000111922621727	-0.12889261543750763	0.10899994522333145	0.05828845128417015	0.09086224436759949	0.05425979569554329	0.08220533281564713	-0.10552629828453064	0.05394487828016281	0.0802997350692749	-0.045563749969005585	0.06617064028978348	-0.07331208139657974	0.061782605946063995	0.0197878647595644	0.11419238150119781	0.12010340392589569	0.04198572784662247	0.06858173757791519	0.08581043779850006	0.06956472992897034	0.10434527695178986	-0.021821796894073486	0.060913849622011185	0.0056785414926707745	0.041043393313884735	0.053270842880010605	-0.06295445561408997	0.020487649366259575	0.0029047175776213408	0.009907370433211327	0.05661597102880478	0.05892927572131157	0.05856497213244438	0.052166733890771866	0.0006880551227368414	0.0799701064825058	
Oui/lingot/plomb	0.44458305835723877	0.4670233130455017	0.571110188961029	0.4268992841243744	0.5208110213279724	0.5523857474327087	0.5556614995002747	0.5892957448959351	0.5070156455039978	0.5452040433883667	0.4931635856628418	0.5100130438804626	0.43538224697113037	0.610921323299408	0.48882409930229187	0.5999870896339417	0.3725847601890564	0.39407259225845337	0.5429335832595825	1.0	0.6254902482032776	0.5301544666290283	-0.19985033571720123	-0.11448454111814499	-0.03590310364961624	0.00011512901255628094	-0.01485509518533945	-0.02747941203415394	-0.10832267254590988	0.03307123854756355	-0.036583393812179565	-0.014813285320997238	-0.01730301044881344	-0.06522279977798462	-0.024721907451748848	0.026528066024184227	-0.07679017633199692	-0.016590289771556854	-0.032797813415527344	-0.13709476590156555	0.013254608027637005	-0.019297290593385696	-0.009247559122741222	-0.06447994709014893	-0.08271284401416779	-0.03365258127450943	-0.014762838371098042	-0.013027354143559933	0.05297620967030525	-0.014087413437664509	0.059150394052267075	0.012896200641989708	0.04021845757961273	0.052518125623464584	0.03012104704976082	0.09628824144601822	-0.0005606057238765061	0.11597682535648346	-0.04136335104703903	0.07067915052175522	-0.05435638502240181	0.05617401748895645	0.10593180358409882	0.08249820023775101	-0.023893192410469055	0.004786817356944084	0.11677254736423492	0.056817490607500076	0.010016325861215591	-0.06459827721118927	-0.06220841407775879	-0.07291793078184128	-0.06439875811338425	0.0986834391951561	-0.08794066309928894	0.015340223908424377	-0.027747172862291336	0.06768986582756042	-0.0010824427008628845	-0.019702406600117683	-0.025511329993605614	-0.07510361075401306	-0.05764995515346527	0.0940810963511467	0.05180034786462784	-0.05464252084493637	-0.1181287169456482	-0.12319394946098328	-0.06701862066984177	-0.11082623898983002	-0.026445042341947556	-0.15261001884937286	-0.13960692286491394	0.017870508134365082	0.14937929809093475	0.21413572132587433	0.1380794495344162	0.14185450971126556	0.13391387462615967	0.09282434731721878	0.10771133750677109	0.07665630429983139	0.07999042421579361	0.12818267941474915	0.1329486072063446	0.12287140637636185	0.024235373362898827	0.01643969863653183	0.15266531705856323	-0.014178062789142132	0.09372162073850632	0.0979633629322052	0.08423516899347305	0.055320363491773605	-0.08332480490207672	0.08362498134374619	
Oui/morceau/plomb	0.6235170364379883	0.6008933782577515	0.7563421130180359	0.5751690864562988	0.6402028203010559	0.7144790291786194	0.6481311917304993	0.6934797763824463	0.5885384678840637	0.7135565280914307	0.6874653697013855	0.7344303727149963	0.4181630611419678	0.7640063166618347	0.656014621257782	0.7663401365280151	0.47770923376083374	0.5576186776161194	0.623400866985321	0.6254902482032776	1.0	0.7158270478248596	-0.20467473566532135	-0.1405455321073532	-0.09584417939186096	0.018843866884708405	0.005495717283338308	-0.07209277898073196	-0.012163146398961544	0.017536917701363564	0.014366282150149345	-0.009747495874762535	-0.035897787660360336	-0.09224772453308105	-0.0026940128300338984	0.021426880732178688	-0.021108228713274002	-0.005532836075872183	-0.05319191515445709	-0.031151503324508667	0.034102071076631546	-0.034938424825668335	-0.01773335039615631	-0.10887773334980011	-0.14354415237903595	0.04202452674508095	-0.08445655554533005	0.02666437067091465	0.032307084649801254	-0.04153240844607353	0.0053226640447974205	-0.09853198379278183	-0.0756521001458168	-0.03149183839559555	-0.03305670619010925	-0.024563537910580635	0.008628086186945438	-0.001961382571607828	-0.04214557260274887	0.005889611318707466	-0.0448918491601944	0.00480220653116703	0.020991362631320953	0.0076379673555493355	-0.030781153589487076	-0.025132378563284874	0.0749962255358696	0.02003260888159275	-0.13893720507621765	-0.07447376102209091	-0.08560303598642349	-0.05592624843120575	-0.037079233676195145	0.0002555953396949917	-0.07127859443426132	-0.020840885117650032	-0.01471247524023056	-0.01582498475909233	0.0501713864505291	-0.06621871888637543	-0.04017409682273865	-0.0205751433968544	-0.022721346467733383	0.09624260663986206	0.16880294680595398	-0.026584312319755554	-0.12066370993852615	-0.021469471976161003	-0.0212700292468071	-0.10221318900585175	-0.029271140694618225	-0.11105792969465256	-0.08926817774772644	0.05625292658805847	0.1694273203611374	0.20079419016838074	0.15742120146751404	0.14700847864151	0.20619167387485504	0.10231631994247437	0.1467551290988922	0.05669238045811653	0.09776198863983154	0.0989271029829979	0.0943685919046402	0.0931447297334671	0.01760176755487919	0.004633056931197643	0.1000552624464035	-0.04669273644685745	0.060194484889507294	0.06189776584506035	0.09309534728527069	0.02608390711247921	0.011223634704947472	0.042287301272153854	
Oui/armatures/plomb	0.5979258418083191	0.6272132396697998	0.7893226742744446	0.49626433849334717	0.6718786358833313	0.761089026927948	0.6857283115386963	0.6201698780059814	0.5648187398910522	0.6808708310127258	0.6890943050384521	0.6935123801231384	0.42531007528305054	0.7194902300834656	0.5423175692558289	0.7160496711730957	0.4576236605644226	0.5839657187461853	0.6243411898612976	0.5301544666290283	0.7158270478248596	1.0	-0.19611190259456635	-0.11082485318183899	-0.087885782122612	0.0894683375954628	-0.011288375593721867	-0.12280572205781937	-0.023555492982268333	-0.012002606876194477	0.09141496568918228	0.016017764806747437	-0.002214334672316909	-0.03889250010251999	-0.07217350602149963	0.021887565031647682	-0.052926041185855865	0.006890238728374243	-0.030224034562706947	-0.08447729051113129	0.004529294092208147	0.01860921084880829	-0.02526858262717724	-0.04659275338053703	-0.11733438074588776	0.04126386344432831	-0.07580029964447021	0.012472511269152164	0.038188789039850235	-0.015169922262430191	0.08215947449207306	-0.09038258343935013	-0.07031498104333878	-0.05810089036822319	0.01681450381875038	-0.05161616951227188	-0.06503300368785858	-0.016897547990083694	-0.04416479542851448	-0.07452481985092163	-0.02743610553443432	-0.01874847337603569	-0.05092976987361908	-0.009041125886142254	-0.11697040498256683	0.05534652993083	-0.02128930762410164	0.053134024143218994	-0.0517616905272007	0.013513445854187012	0.026527833193540573	-0.06645156443119049	0.10074347257614136	0.027368023991584778	0.07531104236841202	0.06853347271680832	0.040878407657146454	-0.024542488157749176	0.07519188523292542	0.01700523868203163	-0.07780315726995468	-0.026385823264718056	0.05787622928619385	-0.08656823635101318	-0.03369147703051567	-0.13763642311096191	-0.1213238462805748	0.11109412461519241	-0.02165084332227707	-0.09296679496765137	-0.057498008012771606	-0.04460381716489792	-0.12285514175891876	0.0822920948266983	0.28140950202941895	0.22366581857204437	0.19815188646316528	0.18716293573379517	0.25201693177223206	0.17887429893016815	0.20776407420635223	0.104666568338871	0.07766477018594742	0.02851814590394497	0.08435767143964767	0.061766527593135834	-0.01451077125966549	0.029336299747228622	0.11039147526025772	0.050556737929582596	0.053089987486600876	0.02057678997516632	0.06753755360841751	0.10339222103357315	-0.017329944297671318	-0.003400239162147045	
Non/vent/grand	0.05261143296957016	-0.16296523809432983	-0.15684281289577484	-0.12925057113170624	-0.13092923164367676	-0.25218984484672546	-0.17861829698085785	-0.13249190151691437	-0.1287979930639267	-0.21580485999584198	-0.19546911120414734	-0.17337551712989807	-0.13720166683197021	-0.2296581119298935	-0.13456013798713684	-0.23482389748096466	-0.14869800209999084	-0.09217121452093124	-0.17572477459907532	-0.19985033571720123	-0.20467473566532135	-0.19611190259456635	1.0	0.7098228931427002	0.3060261905193329	0.23605585098266602	0.09847898036241531	0.24101531505584717	0.25848862528800964	0.0679854303598404	0.22641512751579285	0.13713401556015015	0.2276645302772522	0.2649521231651306	0.00396129721775651	0.027888447046279907	0.02612840197980404	0.2447352111339569	0.19542823731899261	0.2261887937784195	0.12439197301864624	0.08741563558578491	0.1616521030664444	0.3081111013889313	0.287920206785202	0.12204327434301376	0.20789359509944916	-0.013959257863461971	0.004527380224317312	-0.08957062661647797	0.08103702962398529	0.06459730863571167	0.03144259378314018	0.04257633164525032	0.024249736219644547	0.04384808987379074	0.12913402915000916	0.03648907318711281	0.10550424456596375	0.05977754294872284	-3.35116965288762e-05	0.06792821735143661	0.10924533754587173	-0.007845892570912838	0.05958769842982292	0.15618354082107544	0.10722480714321136	0.06043520197272301	0.06234776973724365	0.10081596672534943	0.14786440134048462	0.03309221565723419	0.11290042847394943	-0.013314083218574524	0.16650959849357605	0.06357921659946442	0.11194078624248505	0.04745526611804962	0.08397585898637772	0.24520546197891235	0.09296673536300659	-0.03981500864028931	-0.07000970840454102	0.030545979738235474	-0.03284311294555664	0.017413727939128876	0.08521959185600281	0.01637892611324787	-0.01654025912284851	0.014953945763409138	0.07660854607820511	0.0977511927485466	0.132372185587883	-0.022491611540317535	-0.044413693249225616	-0.02572047710418701	0.006911857984960079	0.03190983459353447	-0.07001989334821701	0.029930075630545616	-0.02905159257352352	-0.01453979592770338	0.022021638229489326	0.07656864821910858	-0.04845431447029114	-0.02617345191538334	0.04799767956137657	0.15265466272830963	0.07191448658704758	0.09516538679599762	-0.021287186071276665	0.14001856744289398	0.0907817855477333	-0.003659549867734313	0.09405974298715591	0.12855492532253265	
Non/vents/grands	0.03707468509674072	-0.11898625642061234	-0.11791300028562546	-0.12221714109182358	-0.0902685821056366	-0.18666911125183105	-0.1284085512161255	-0.10591863095760345	-0.0731048732995987	-0.13979704678058624	-0.10724017024040222	-0.15911054611206055	-0.027433693408966064	-0.16316142678260803	-0.025483625009655952	-0.14121274650096893	-0.07542764395475388	-0.09290258586406708	-0.1526029109954834	-0.11448454111814499	-0.1405455321073532	-0.11082485318183899	0.7098228931427002	1.0	0.12338806688785553	0.1589842140674591	0.06469190120697021	0.1472405195236206	0.13383615016937256	0.008799792267382145	0.14101560413837433	0.09246495366096497	0.15731212496757507	0.15807218849658966	0.030511323362588882	0.05485669523477554	0.08228456228971481	0.3432933986186981	0.15924085676670074	0.14238013327121735	0.058345094323158264	0.052711326628923416	0.039012715220451355	0.19747917354106903	0.22150376439094543	0.07445012032985687	0.2261684685945511	-0.0865391343832016	-0.06076681986451149	-0.12463162839412689	0.04528532177209854	0.025340678170323372	0.1012355163693428	0.04287576302886009	0.04999193549156189	0.061737120151519775	0.06403791904449463	0.0782579705119133	-0.003460498061031103	0.022967472672462463	-0.08754280209541321	0.02428954280912876	0.12506872415542603	0.004677438642829657	0.03903675824403763	0.0881345123052597	0.0005877034272998571	0.048239823430776596	0.05370369553565979	0.1350378692150116	0.15858101844787598	0.01699909381568432	0.14144881069660187	0.021862147375941277	0.15403570234775543	0.09180266410112381	0.14541666209697723	0.052709419280290604	0.10391411930322647	0.19904033839702606	0.1434425264596939	-0.06643114984035492	-0.1022431030869484	-0.00349216116592288	-0.07675152271986008	-0.027341101318597794	0.037071529775857925	-0.0284500140696764	-0.005013555288314819	0.012141399085521698	0.030192848294973373	0.04171701893210411	0.02446199767291546	-0.0350101962685585	-0.00418749637901783	0.04531629756093025	0.012585668824613094	0.07416343688964844	-0.00386183918453753	0.06337548047304153	0.03856974467635155	0.014967229217290878	0.023872334510087967	0.06675051152706146	0.021197693422436714	0.005087478552013636	0.14333851635456085	0.09596606343984604	0.06150685250759125	0.08279199153184891	-0.00902644544839859	0.06134681776165962	0.0659707635641098	0.012687469832599163	0.07914450764656067	0.0993829071521759	
Oui/cheval/grand	-0.1413198858499527	-0.042270198464393616	-0.06505889445543289	-0.00032522130641154945	-0.06893611699342728	-0.12528175115585327	-0.1040504053235054	-0.024428460747003555	-0.013580298982560635	-0.05918294936418533	-0.09397788345813751	-0.21399518847465515	-0.046254027634859085	-0.07870271056890488	-0.09533220529556274	-0.10715056210756302	0.018908843398094177	-0.026788432151079178	-0.10872212052345276	-0.03590310364961624	-0.09584417939186096	-0.087885782122612	0.3060261905193329	0.12338806688785553	1.0	0.5588697791099548	0.1740831881761551	0.329671710729599	0.5136129260063171	0.22713182866573334	0.4423658847808838	0.15883442759513855	0.4793205261230469	0.427288293838501	0.18015070259571075	0.1364842802286148	0.13128609955310822	0.27263230085372925	0.2188059240579605	0.22830772399902344	0.2435656487941742	0.3005126416683197	0.3647913932800293	0.5439603924751282	0.39512869715690613	0.0938362181186676	0.18345509469509125	0.03804963827133179	0.1439785659313202	0.049232322722673416	0.13869807124137878	0.09498245269060135	0.0631144568324089	0.10994905978441238	-0.02474011853337288	0.07907215505838394	0.1867198497056961	0.044525329023599625	0.14592213928699493	0.09607209265232086	0.16824504733085632	0.13168711960315704	0.11933024972677231	0.09122312813997269	0.09450284391641617	0.06315836310386658	0.184457927942276	0.11243929713964462	0.12787538766860962	0.21737270057201385	0.2299637496471405	0.056560538709163666	0.2360655814409256	0.17364466190338135	0.3413706421852112	0.22335611283779144	0.2776312530040741	-0.023817772045731544	0.11533548682928085	0.2934526205062866	0.12828190624713898	-0.1873769462108612	-0.16144885122776031	0.030425023287534714	-0.15403258800506592	0.015094615519046783	0.1316780000925064	-0.07633613049983978	-0.2005479335784912	-0.05781130492687225	0.04132021963596344	0.025499247014522552	0.039870135486125946	0.06970904767513275	0.11757799237966537	0.1031389981508255	0.13894514739513397	0.13083600997924805	0.06867457926273346	0.15979495644569397	0.07964161783456802	0.1549016535282135	0.2008419930934906	0.10801628232002258	0.05672231316566467	0.03234522044658661	0.028293587267398834	0.13425512611865997	0.11253584921360016	0.16562043130397797	-0.0020479762461036444	0.08522529155015945	0.13038253784179688	0.1343603879213333	0.06165683642029762	0.2756618559360504	
Oui/appartement/grand	-0.07223419845104218	0.027037471532821655	0.10353801399469376	-0.010992034338414669	0.05646204575896263	0.07844886928796768	0.012161529622972012	-0.007565373554825783	0.02733599580824375	0.08673852682113647	0.059018734842538834	-0.05198667198419571	0.029753049835562706	0.0713978111743927	-0.016161995008587837	-0.0025447849184274673	0.020222429186105728	0.03963957726955414	-0.04849189147353172	0.00011512901255628094	0.018843866884708405	0.0894683375954628	0.23605585098266602	0.1589842140674591	0.5588697791099548	1.0	0.1720353215932846	0.2908100187778473	0.6466728448867798	0.1649901270866394	0.6895401477813721	0.32582390308380127	0.647872805595398	0.5803179740905762	0.17797434329986572	0.18273738026618958	0.16061025857925415	0.4005473852157593	0.3055731952190399	0.19738651812076569	0.43321117758750916	0.2565130293369293	0.37432774901390076	0.6790962815284729	0.38769474625587463	0.05600308999419212	0.18401437997817993	0.027276163920760155	0.018836846575140953	0.13937461376190186	0.09623504430055618	0.0704353004693985	0.013816685415804386	0.11529235541820526	-0.029669979587197304	0.10852878540754318	0.06016884744167328	0.08952458947896957	0.2020876556634903	-0.020865244790911674	0.13251981139183044	0.08482152223587036	0.1263103485107422	0.3058663606643677	0.06251537799835205	0.0505119152367115	0.11138256639242172	-0.004933551885187626	0.24287036061286926	0.2912062406539917	0.3631508946418762	0.101750448346138	0.405131995677948	0.2164178341627121	0.41537564992904663	0.3308902680873871	0.4305795133113861	0.027877135202288628	0.24704545736312866	0.4559088945388794	0.13144750893115997	-0.014271467924118042	0.02606102079153061	-0.08435868471860886	-0.09010720998048782	0.005030662752687931	0.04837750270962715	0.06879213452339172	-0.04840191453695297	0.0319935567677021	-0.043240923434495926	0.034438420087099075	-0.04866303130984306	0.13578727841377258	0.3309118151664734	0.19349929690361023	0.2697049081325531	0.2368444800376892	0.2416042685508728	0.24139806628227234	0.22553250193595886	0.29036498069763184	0.18805266916751862	0.024205751717090607	0.10679902881383896	0.10056325048208237	0.05039156228303909	0.12695571780204773	0.2196320742368698	0.09890759736299515	0.03685351461172104	0.12130069732666016	0.14620822668075562	0.21788981556892395	0.05769588053226471	0.07757265865802765	
Oui/lit/grand	-0.023808559402823448	-0.016081394627690315	-0.01143411174416542	0.03251532465219498	-0.03556603938341141	-0.0767497792840004	0.01051633246243	-0.012095588259398937	0.06102101877331734	0.03802887722849846	-0.03725574165582657	-0.020815741270780563	0.06626644730567932	0.02155272290110588	0.02434229478240013	0.06045573949813843	0.0808044895529747	0.018266532570123672	-0.05708245933055878	-0.01485509518533945	0.005495717283338308	-0.011288375593721867	0.09847898036241531	0.06469190120697021	0.1740831881761551	0.1720353215932846	1.0	0.23352369666099548	0.1553173065185547	0.2971276640892029	0.17492572963237762	0.0410301648080349	0.24317632615566254	0.2695506811141968	0.1074160560965538	0.11852281540632248	0.05000700801610947	0.21145303547382355	0.04692825675010681	0.3387194275856018	0.16725511848926544	0.14597345888614655	0.1842883825302124	0.16534696519374847	0.24138422310352325	0.15391503274440765	0.1833162158727646	-0.002970630768686533	0.07520747184753418	-0.009787156246602535	0.1192808523774147	0.06858720630407333	0.11487755924463272	0.09178072214126587	-0.010582126677036285	0.06888863444328308	0.12205527722835541	0.09210780262947083	0.18939878046512604	0.20057229697704315	0.11276080459356308	0.0008577248663641512	0.10515058785676956	0.06259287148714066	0.09175586700439453	0.05777762457728386	0.05093476176261902	0.11133598536252975	0.03767700865864754	0.08611629903316498	0.07588648796081543	0.09738845378160477	0.08225420117378235	-0.08477504551410675	0.08242743462324142	0.07217556238174438	0.056292396038770676	0.06656843423843384	0.11093450337648392	0.12507234513759613	0.07182178646326065	-0.008788209408521652	-0.03198355808854103	-0.01956222392618656	-0.043692804872989655	0.04074614495038986	0.1493823081254959	-0.06813262403011322	-0.006266843061894178	0.03575984016060829	0.10423898696899414	0.02813536860048771	0.20329202711582184	-0.025466738268733025	-0.016006894409656525	0.07143595814704895	0.07484541833400726	0.10861492156982422	0.005699244327843189	0.022112606093287468	0.006327638402581215	0.03137649595737457	0.1222931444644928	0.20011650025844574	0.12064499408006668	0.08240840584039688	-0.028563378378748894	0.11596965789794922	0.1279260218143463	0.1553952544927597	0.20674435794353485	0.05666099488735199	0.023256147280335426	0.09273966401815414	0.2547825574874878	0.1507466584444046	
Oui/seau/grand	-0.18260441720485687	-0.026063377037644386	-0.11235008388757706	0.016899505630135536	-0.05294390395283699	-0.13317041099071503	0.010448591783642769	-0.058275263756513596	0.08136414736509323	-0.0938330590724945	-0.10359852015972137	-0.20479412376880646	0.15318763256072998	-0.10411373525857925	0.14445093274116516	-0.04861028864979744	0.10332009941339493	0.02585858479142189	-0.1119072288274765	-0.02747941203415394	-0.07209277898073196	-0.12280572205781937	0.24101531505584717	0.1472405195236206	0.329671710729599	0.2908100187778473	0.23352369666099548	1.0	0.3269197940826416	0.2590828835964203	0.3203853964805603	0.08130013942718506	0.32267865538597107	0.42396408319473267	0.1045890673995018	0.07320822775363922	0.07090537995100021	0.23891443014144897	0.2020118534564972	0.3130939304828644	0.16386252641677856	0.09352943301200867	0.24450761079788208	0.380677193403244	0.2816322445869446	0.09793411940336227	0.4189099669456482	-0.03661688417196274	0.15860910713672638	0.08140358328819275	0.0354628823697567	0.2555857002735138	0.23280596733093262	0.09007828682661057	-0.038221269845962524	0.08417057245969772	0.03264354541897774	0.16462330520153046	-0.0011993509251624346	0.10215267539024353	0.15330059826374054	0.0032714148983359337	0.0959143415093422	0.04181373119354248	0.19303317368030548	0.04367220774292946	0.12304767221212387	0.13212664425373077	0.22230501472949982	0.08588507026433945	0.10243216902017593	0.013294663280248642	0.11351034045219421	0.006355408113449812	0.2252444624900818	0.09280519932508469	0.11244867742061615	0.0856839194893837	0.2745562791824341	0.21826022863388062	0.05767359212040901	-0.04740117862820625	-0.07511286437511444	0.08593779057264328	0.04474681243300438	0.15850280225276947	0.19840364158153534	-0.11275576800107956	-0.08057606965303421	0.09715597331523895	0.037242624908685684	0.047079846262931824	0.14323925971984863	0.005818793084472418	-0.01269851066172123	0.027108652517199516	0.11758363991975784	0.0897878110408783	-0.0683065801858902	-0.006755632348358631	0.009828849695622921	0.046459950506687164	0.13184060156345367	0.3759465515613556	0.07241006195545197	0.07721186429262161	0.14598025381565094	0.17167343199253082	0.17840690910816193	0.1824498176574707	0.14344923198223114	0.1387254148721695	0.1417260318994522	0.1469961553812027	0.2471379190683365	0.16787376999855042	
Oui/tableau/grand	-0.1428261548280716	-0.09352942556142807	-0.015354829840362072	-0.08648740500211716	-0.057146452367305756	-0.05605307221412659	-0.06839662045240402	-0.1342875063419342	-0.02450087107717991	0.039005763828754425	-0.01506703719496727	-0.12059953063726425	0.014864375814795494	-0.022451698780059814	-0.1053660586476326	-0.07958556711673737	-0.023194709792733192	-0.020144570618867874	-0.12455012649297714	-0.10832267254590988	-0.012163146398961544	-0.023555492982268333	0.25848862528800964	0.13383615016937256	0.5136129260063171	0.6466728448867798	0.1553173065185547	0.3269197940826416	1.0	0.3514370024204254	0.4984017312526703	0.25202083587646484	0.5768664479255676	0.6109814047813416	0.09454947710037231	0.052767377346754074	0.0497567392885685	0.31636902689933777	0.29994997382164	0.30617812275886536	0.257376492023468	0.19435931742191315	0.3422355055809021	0.5801448822021484	0.39421096444129944	0.09813100099563599	0.1550196260213852	0.08437696844339371	0.050100233405828476	0.14104436337947845	0.05602440610527992	0.10175465047359467	0.050408363342285156	0.1409936398267746	0.02043108455836773	0.12499961256980896	0.10082070529460907	0.15910333395004272	0.1423424780368805	-0.011743447743356228	0.11686792969703674	0.06091234087944031	0.10135553777217865	0.16808661818504333	0.13468913733959198	0.018738863989710808	0.097613126039505	-0.018732232972979546	0.16767224669456482	0.2382691353559494	0.2573280930519104	0.048372168093919754	0.36555784940719604	0.14048637449741364	0.3463054895401001	0.2908226549625397	0.34872710704803467	0.028700824826955795	0.1625731885433197	0.35864731669425964	0.12094340473413467	0.033114463090896606	0.040393032133579254	-0.020787276327610016	0.0043911500833928585	-0.010782305151224136	0.06656862050294876	0.0428333580493927	-0.011339586228132248	0.08900813013315201	-0.046996597200632095	0.03498723357915878	0.063507080078125	0.31521204113960266	0.2003427892923355	0.14525048434734344	0.22356902062892914	0.17901889979839325	0.1987307220697403	0.19701924920082092	0.21145279705524445	0.20340152084827423	0.19951704144477844	0.05652807652950287	0.18875397741794586	0.15911225974559784	0.05130595341324806	0.11016950011253357	0.12368101626634598	0.04966747760772705	0.18758529424667358	0.037217918783426285	0.1482688933610916	0.13518226146697998	0.14168599247932434	0.10475301742553711	
Oui/table/grande	0.010951405391097069	0.05533308908343315	0.01695891283452511	0.053443651646375656	-0.027249831706285477	-0.030967267230153084	0.10000091791152954	-0.027186214923858643	0.08928796648979187	0.059121303260326385	0.032735057175159454	-0.0008220779127441347	0.16474546492099762	0.018783090636134148	-0.006619175896048546	0.0523311048746109	0.057895224541425705	0.048700716346502304	-0.12605822086334229	0.03307123854756355	0.017536917701363564	-0.012002606876194477	0.0679854303598404	0.008799792267382145	0.22713182866573334	0.1649901270866394	0.2971276640892029	0.2590828835964203	0.3514370024204254	1.0	0.2350112348794937	0.35726892948150635	0.356701135635376	0.3105335235595703	0.10197540372610092	0.18394902348518372	0.0959986001253128	0.10173488408327103	0.3170229494571686	0.2714481055736542	0.41541793942451477	0.29872041940689087	0.12462242692708969	0.23314599692821503	0.3178728222846985	0.2138684093952179	0.16203837096691132	0.06796414405107498	0.03369780629873276	0.11554726958274841	0.06028059497475624	0.17307791113853455	0.15535223484039307	0.17281474173069	0.04264912009239197	0.19342754781246185	0.17173628509044647	0.22944292426109314	0.16273847222328186	0.0960616022348404	0.14122258126735687	0.042258717119693756	0.17143073678016663	0.16413435339927673	0.18047024309635162	0.04824789613485336	0.13331738114356995	0.11204598098993301	0.10602564364671707	0.025097258388996124	0.055679310113191605	0.16148163378238678	0.09994377940893173	0.21330489218235016	0.16611908376216888	0.12553037703037262	0.08709362894296646	0.17920204997062683	0.08702477067708969	0.15255069732666016	0.16844113171100616	-0.04518405348062515	-0.022209497168660164	-0.10816841572523117	0.005058102775365114	-0.022170856595039368	0.14610852301120758	-0.037115901708602905	-0.06302298605442047	0.08515691012144089	-0.04515121877193451	0.06364811211824417	0.10044252127408981	0.13193438947200775	0.09766942262649536	0.24456854164600372	0.15042613446712494	0.07019175589084625	0.09152553975582123	0.114474356174469	0.08970160782337189	0.13031812012195587	0.18328696489334106	0.17333351075649261	0.12871812283992767	0.09562753140926361	0.13760365545749664	0.10941305011510849	0.15662245452404022	0.1176055520772934	0.5599068403244019	0.013239286839962006	0.05306660383939743	0.09705641120672226	0.2108669877052307	0.15480251610279083	
Oui/parking/grand	-0.026379331946372986	0.07790570706129074	0.0871257334947586	0.052256129682064056	0.006346710957586765	0.07229343801736832	0.03850078582763672	0.01677289791405201	0.05695471167564392	0.12385719269514084	0.06260257214307785	-0.033716220408678055	0.08390559256076813	0.031347524374723434	0.03224526345729828	0.01967301219701767	0.08259812742471695	0.09305230528116226	-0.04002969339489937	-0.036583393812179565	0.014366282150149345	0.09141496568918228	0.22641512751579285	0.14101560413837433	0.4423658847808838	0.6895401477813721	0.17492572963237762	0.3203853964805603	0.4984017312526703	0.2350112348794937	1.0	0.2718025743961334	0.5388485193252563	0.4744991064071655	0.07230129837989807	0.08965563774108887	0.07567351311445236	0.30384138226509094	0.28509521484375	0.26856252551078796	0.30658429861068726	0.16811610758304596	0.502018392086029	0.5027516484260559	0.2772655189037323	0.14731864631175995	0.23545588552951813	0.03469999507069588	0.148675337433815	0.18113042414188385	0.1432144045829773	0.17593879997730255	0.16096262633800507	0.20165042579174042	0.06596455723047256	0.1507958620786667	0.14516666531562805	0.17176158726215363	0.138525128364563	0.0842319056391716	0.18934182822704315	0.10170581191778183	0.22874070703983307	0.3423265516757965	0.1085980162024498	0.1738361269235611	0.17588840425014496	0.09189450740814209	0.26362383365631104	0.17189976572990417	0.2598005533218384	0.04089256003499031	0.3066485524177551	0.13872073590755463	0.3774406611919403	0.19799037277698517	0.29662397503852844	0.09293408691883087	0.24104952812194824	0.31412845849990845	0.046840596944093704	0.029397107660770416	0.04904220625758171	-0.04923321306705475	-0.06534229964017868	0.03400396183133125	0.0427287295460701	0.1310662180185318	-0.015180181711912155	0.06068684533238411	0.0029346668161451817	0.07021072506904602	0.015158254653215408	0.11145821213722229	0.24007511138916016	0.18459877371788025	0.19459126889705658	0.1530609279870987	0.1290511190891266	0.20040671527385712	0.23848402500152588	0.2298690378665924	0.14865924417972565	0.11593176424503326	0.07101237028837204	0.10789621621370316	0.038992322981357574	0.15475592017173767	0.1700536459684372	0.09732826799154282	0.1390257030725479	0.1328200101852417	0.12151891738176346	0.1961601823568344	0.1408456712961197	0.09156801551580429	
Oui/librairie/grande	0.019798167049884796	-0.021812522783875465	-0.018011042848229408	-0.10006263107061386	-0.023570042103528976	-0.0059549156576395035	-0.07270650565624237	-0.013601422309875488	-0.08092080801725388	-0.054460689425468445	-0.04887623339891434	-0.02709622122347355	-0.03632116690278053	0.009316707029938698	-0.08727020025253296	-0.02247491106390953	-0.07519866526126862	0.004537433851510286	-0.16837762296199799	-0.014813285320997238	-0.009747495874762535	0.016017764806747437	0.13713401556015015	0.09246495366096497	0.15883442759513855	0.32582390308380127	0.0410301648080349	0.08130013942718506	0.25202083587646484	0.35726892948150635	0.2718025743961334	1.0	0.3337617516517639	0.2535668909549713	0.16275018453598022	0.3190361559391022	0.11555048078298569	0.15215523540973663	0.480731338262558	0.08913344144821167	0.578862726688385	0.39582547545433044	0.17025402188301086	0.24232977628707886	0.18683487176895142	0.210578054189682	0.040236443281173706	0.0817415863275528	0.02491135708987713	0.22681063413619995	0.03206976503133774	0.15309283137321472	0.011237723752856255	0.16477535665035248	0.0788053423166275	0.27336549758911133	0.12564027309417725	0.06671839207410812	0.17280012369155884	-0.004328188020735979	0.10808040201663971	0.09549980610609055	0.11798694729804993	0.2473991960287094	0.05226457118988037	0.05946682393550873	0.14672338962554932	-0.006012663710862398	0.18917742371559143	0.15324766933918	0.16159380972385406	0.285954087972641	0.17199066281318665	0.3954877555370331	0.12415439635515213	0.11084901541471481	0.18012715876102448	0.3577968180179596	0.17224639654159546	0.16408731043338776	0.17020763456821442	-0.07128255069255829	0.002107815584167838	-0.06939968466758728	0.007010241039097309	-0.057893455028533936	-0.0031053628772497177	-0.028620390221476555	-0.10273723304271698	-0.05477506294846535	-0.040691617876291275	-0.07307463139295578	-0.13423319160938263	0.125855952501297	0.16053219139575958	0.12189976871013641	0.22518877685070038	0.13453896343708038	0.24513450264930725	0.13716907799243927	0.18365277349948883	0.17127269506454468	0.10798454284667969	0.03433571010828018	0.18168696761131287	0.1946035474538803	0.1675272285938263	0.10620393604040146	0.2796362042427063	0.06713439524173737	0.12943600118160248	0.1385716050863266	0.18518783152103424	0.14694610238075256	0.07656180113554001	0.08389947563409805	
Oui/bureau/grand	-0.0830783024430275	-0.03647565469145775	0.022279009222984314	-0.04587000235915184	0.022082684561610222	-0.0015090897213667631	-0.03877958655357361	-0.05390302836894989	0.048947907984256744	0.03998264670372009	0.028771260753273964	-0.05371977388858795	0.10861901938915253	0.06715681403875351	-0.04662151634693146	0.007839558646082878	0.03794046863913536	0.037029244005680084	-0.06748328357934952	-0.01730301044881344	-0.035897787660360336	-0.002214334672316909	0.2276645302772522	0.15731212496757507	0.4793205261230469	0.647872805595398	0.24317632615566254	0.32267865538597107	0.5768664479255676	0.356701135635376	0.5388485193252563	0.3337617516517639	1.0	0.5303547382354736	0.23907598853111267	0.20236732065677643	0.2071932554244995	0.33538544178009033	0.3104230761528015	0.31848156452178955	0.378415048122406	0.25444674491882324	0.3987604081630707	0.5007686614990234	0.44080299139022827	0.09174889326095581	0.24244843423366547	0.10334069281816483	0.0018045222386717796	0.13993561267852783	0.03894907608628273	0.10663522779941559	0.03746059536933899	0.14439207315444946	0.004631618969142437	0.14287380874156952	0.11926890909671783	0.12289910018444061	0.22501683235168457	0.059381406754255295	0.1433737576007843	0.03681172430515289	0.11394473910331726	0.3596285283565521	0.044388365000486374	0.10391255468130112	0.1001264750957489	0.0003620900970418006	0.2110121250152588	0.22744736075401306	0.30108991265296936	0.1622951775789261	0.3391784727573395	0.16932013630867004	0.3535155653953552	0.30851098895072937	0.3456551134586334	0.096530482172966	0.20936761796474457	0.33141788840293884	0.13288427889347076	0.029816055670380592	0.030321897938847542	-0.035761650651693344	0.04959941282868385	0.0015622061910107732	0.09087415039539337	0.03076874651014805	-0.07141336798667908	0.04058186337351799	-0.006435833405703306	-0.02395409345626831	0.12323525547981262	0.13472343981266022	0.19366112351417542	0.18811409175395966	0.2335069626569748	0.14991703629493713	0.08845700323581696	0.12376643717288971	0.16948330402374268	0.1994275152683258	0.16618137061595917	0.1223207339644432	0.1583258956670761	0.13378474116325378	0.052161723375320435	0.07045035809278488	0.11278853565454483	0.16520904004573822	0.13928118348121643	0.0007672252831980586	0.07459764927625656	0.32943135499954224	0.18579444289207458	0.10032083094120026	
Oui/miroir/grand	-0.09662454575300217	-0.08483322709798813	-0.024937313050031662	-0.07207252830266953	-0.04575471952557564	-0.10338276624679565	-0.056123875081539154	-0.12765832245349884	0.010869394987821579	0.02223525568842888	-0.003529883688315749	-0.1172403022646904	0.030414363369345665	-0.030250433832406998	-0.09977978467941284	-0.07932358980178833	0.01531438622623682	-0.01725657284259796	-0.11715158075094223	-0.06522279977798462	-0.09224772453308105	-0.03889250010251999	0.2649521231651306	0.15807218849658966	0.427288293838501	0.5803179740905762	0.2695506811141968	0.42396408319473267	0.6109814047813416	0.3105335235595703	0.4744991064071655	0.2535668909549713	0.5303547382354736	1.0	0.11563566327095032	0.1333991438150406	0.05638381466269493	0.29153355956077576	0.32205694913864136	0.39527225494384766	0.23465420305728912	0.2440207153558731	0.305975079536438	0.5966604948043823	0.45006436109542847	0.05570511892437935	0.1546747088432312	0.037711575627326965	0.042129386216402054	0.06120927631855011	0.04029851406812668	0.1099483072757721	0.026787398383021355	0.14989259839057922	0.011014314368367195	0.17436400055885315	0.09020371735095978	0.1786220222711563	0.0837022140622139	0.06929755210876465	0.07517903298139572	0.08041444420814514	0.08399731665849686	0.07746327668428421	0.10566864907741547	0.08494976907968521	0.11347716301679611	0.03424381837248802	0.11816592514514923	0.25279438495635986	0.3270847201347351	0.23005133867263794	0.3339873254299164	0.21075734496116638	0.31912529468536377	0.3533562421798706	0.3510819673538208	0.12234873324632645	0.22385665774345398	0.38180696964263916	0.11726844310760498	0.021432219073176384	0.022939076647162437	-0.09885471314191818	-0.07204204052686691	-0.012906883843243122	0.12239492684602737	0.02785305120050907	-0.012705533765256405	0.1253248155117035	0.04144027456641197	0.08864826709032059	0.04266568273305893	0.13334870338439941	0.15624088048934937	0.16217568516731262	0.17933018505573273	0.173239067196846	0.10438385605812073	0.21923695504665375	0.16315937042236328	0.19201350212097168	0.2509174346923828	0.07149984687566757	0.09322838485240936	0.1443791538476944	0.07669803500175476	0.21481013298034668	0.1654275357723236	0.1573837399482727	0.16497863829135895	0.10798672586679459	0.19715283811092377	0.1710306853055954	0.25374191999435425	0.10023045539855957	
Non/ami/grand	-0.003304009325802326	-0.007115473505109549	-0.062330253422260284	0.028525831177830696	-0.048464346677064896	-0.08023208379745483	-0.0575580932199955	0.04162071645259857	0.016643740236759186	-0.017209196463227272	-0.0684056431055069	-0.07881978154182434	0.01977068930864334	-0.03702041506767273	0.041730597615242004	-0.0015037346165627241	-0.01358974352478981	0.035042524337768555	-0.10738316923379898	-0.024721907451748848	-0.0026940128300338984	-0.07217350602149963	0.00396129721775651	0.030511323362588882	0.18015070259571075	0.17797434329986572	0.1074160560965538	0.1045890673995018	0.09454947710037231	0.10197540372610092	0.07230129837989807	0.16275018453598022	0.23907598853111267	0.11563566327095032	1.0	0.6731706857681274	0.6125414371490479	0.012799588963389397	-0.016010986641049385	0.11357878148555756	0.1791793256998062	0.313510537147522	0.10365179926156998	0.18269167840480804	0.10258666425943375	0.05569601431488991	0.01156502217054367	0.08896438777446747	-0.001625912613235414	0.005157772451639175	-0.02440178580582142	-0.02168397791683674	-0.06477951258420944	0.03875761851668358	-0.018837543204426765	0.04876643419265747	0.035720158368349075	-0.11094189435243607	0.08052298426628113	0.08998215198516846	-0.05347421392798424	0.01794598437845707	0.06030033156275749	0.03554445505142212	0.0002890198375098407	-0.02769743651151657	0.04247865453362465	-0.026021065190434456	0.06061168760061264	0.1482449620962143	0.1397394835948944	0.18696552515029907	0.016583707183599472	0.1553783267736435	0.032344549894332886	0.08733393251895905	0.09202636778354645	0.04773004725575447	-0.04989422485232353	0.038945768028497696	0.07287853956222534	-0.06637879461050034	-0.12450215965509415	-0.031115073710680008	0.06130892410874367	-0.09866491705179214	0.02052375115454197	-0.17853978276252747	-0.0021568182855844498	-0.13910573720932007	-0.005187094211578369	-0.0729377269744873	-0.06129913404583931	0.05048862099647522	0.04456619545817375	-0.018977362662553787	0.0424046665430069	0.030206529423594475	0.07946790754795074	0.03791606053709984	0.033066555857658386	0.1154855340719223	0.05627834051847458	0.09204339981079102	0.09406627714633942	0.07040554285049438	0.09998426586389542	0.02176852524280548	-0.019485177472233772	0.1724560707807541	-0.06196926161646843	0.0010481368517503142	0.09983110427856445	0.11831039190292358	0.13065990805625916	-0.06019395589828491	
Non/amie/grande	0.0834365263581276	-0.008482581004500389	-0.011545879766345024	0.04396823048591614	-0.038500744849443436	-0.033937446773052216	-0.015129062347114086	0.06612753868103027	0.0526420921087265	0.03828614577651024	-0.011243924498558044	-0.01096043735742569	0.0722547397017479	0.05360005423426628	0.08335582166910172	0.04417770355939865	0.045313987880945206	0.058535315096378326	-0.06945960968732834	0.026528066024184227	0.021426880732178688	0.021887565031647682	0.027888447046279907	0.05485669523477554	0.1364842802286148	0.18273738026618958	0.11852281540632248	0.07320822775363922	0.052767377346754074	0.18394902348518372	0.08965563774108887	0.3190361559391022	0.20236732065677643	0.1333991438150406	0.6731706857681274	1.0	0.5086156725883484	0.08250446617603302	0.10693324357271194	0.07599752396345139	0.3496776223182678	0.5359042286872864	0.07907022535800934	0.1438683271408081	0.052636995911598206	0.13220074772834778	0.08045432716608047	0.07074998319149017	-0.01859256625175476	0.07375688850879669	0.04792388901114464	0.0012074873084202409	-0.03593941032886505	0.09687057137489319	-0.002095573814585805	0.1071791797876358	0.08607637137174606	-0.04610856622457504	0.11014018952846527	0.10425101220607758	9.928006329573691e-05	0.04978788644075394	0.12546434998512268	0.06151662394404411	-0.014035661704838276	-0.08121136575937271	0.05795122683048248	0.01764763332903385	0.12314587086439133	0.166182741522789	0.12335306406021118	0.2383141815662384	0.05214947089552879	0.2566360831260681	0.0518961176276207	0.08200999349355698	0.07945805788040161	0.1551540344953537	-0.000890868017449975	0.09498076140880585	0.15415439009666443	-0.05527742952108383	-0.11153747141361237	-0.03753772750496864	0.03687943518161774	-0.1254129707813263	0.007916878908872604	-0.1810937225818634	-0.0426853746175766	-0.16832107305526733	0.05699530616402626	-0.08153614401817322	-0.055187780410051346	0.11449994891881943	0.10691610723733902	0.08879952877759933	0.18096882104873657	0.1250167340040207	0.11565250903367996	0.08759724348783493	0.0765865296125412	0.17124345898628235	0.07878562808036804	0.1726590394973755	0.16865098476409912	0.1824830174446106	0.17768603563308716	0.12920625507831573	0.13426414132118225	0.1636391580104828	0.017313264310359955	0.10638285428285599	0.17252515256404877	0.0941368043422699	0.10936546325683594	0.014108868315815926	
Non/amis/grands	0.012854037806391716	0.014952221885323524	-0.010471443645656109	0.0021802366245537996	-0.012235121801495552	-0.023512650281190872	-0.010742675513029099	0.02506956271827221	0.007176586426794529	-0.038140248507261276	-0.05776751786470413	-0.01725960336625576	0.05805713310837746	-0.023619981482625008	0.004865407943725586	-0.007085310760885477	-0.03757597133517265	0.01600072905421257	-0.0570269338786602	-0.07679017633199692	-0.021108228713274002	-0.052926041185855865	0.02612840197980404	0.08228456228971481	0.13128609955310822	0.16061025857925415	0.05000700801610947	0.07090537995100021	0.0497567392885685	0.0959986001253128	0.07567351311445236	0.11555048078298569	0.2071932554244995	0.05638381466269493	0.6125414371490479	0.5086156725883484	1.0	0.19820193946361542	-0.021472027525305748	0.14919735491275787	0.18041564524173737	0.1914074867963791	0.07240273058414459	0.12440460920333862	0.05765152350068092	0.10489753633737564	0.099329873919487	0.13800479471683502	0.01718335598707199	0.03895086050033569	0.014856628142297268	-0.026721777394413948	-0.03866863623261452	0.08018525689840317	0.05721108615398407	0.0723724290728569	0.07555978000164032	-0.0440632700920105	0.09939339756965637	0.10506854951381683	-0.04198519513010979	0.06079508736729622	0.06423014402389526	0.07753510773181915	-0.011628980748355389	0.05271436646580696	-0.06148916482925415	0.030695125460624695	0.02101672627031803	0.20995429158210754	0.17282329499721527	0.1292843371629715	0.11391222476959229	0.14197693765163422	0.12259204685688019	0.09485307335853577	0.14416716992855072	0.07049104571342468	0.06646830588579178	0.1321263611316681	0.1009928360581398	0.04027143865823746	0.014228451997041702	0.012244416400790215	0.12103094905614853	-0.05207151919603348	0.09329283982515335	-0.04803932085633278	0.002979699056595564	0.013539757579565048	0.02043432742357254	0.05326180160045624	0.040419794619083405	0.04008658230304718	0.08455239981412888	0.06975109875202179	0.06109924241900444	0.07018715143203735	0.04210827499628067	0.07768282294273376	0.09270993620157242	0.1335674673318863	0.07562536746263504	0.05943750590085983	0.05276384949684143	0.10993926972150803	0.18783091008663177	-0.01150118000805378	0.008820840157568455	0.12945841252803802	-0.00970382522791624	-0.030474921688437462	0.05786849558353424	0.08463763445615768	0.17797088623046875	0.008631124161183834	
Oui/manteaux/grands	-0.02626112475991249	-0.002921823877841234	0.017937611788511276	-0.05667368695139885	-0.06040544807910919	-0.012723184190690517	-0.053404174745082855	-0.007886834442615509	-0.057899586856365204	0.015147348865866661	-0.025142112746834755	-0.027252517640590668	0.04100554436445236	-0.04455289989709854	0.02704646810889244	0.060296230018138885	-0.005327074322849512	0.12462373822927475	-0.10187853872776031	-0.016590289771556854	-0.005532836075872183	0.006890238728374243	0.2447352111339569	0.3432933986186981	0.27263230085372925	0.4005473852157593	0.21145303547382355	0.23891443014144897	0.31636902689933777	0.10173488408327103	0.30384138226509094	0.15215523540973663	0.33538544178009033	0.29153355956077576	0.012799588963389397	0.08250446617603302	0.19820193946361542	1.0	0.16304141283035278	0.21708686649799347	0.1888599842786789	0.21682953834533691	0.12427676469087601	0.4078420400619507	0.27553004026412964	0.2716834843158722	0.5133387446403503	0.05381368473172188	-0.0006272248574532568	0.039028629660606384	0.09852799773216248	0.0029030072037130594	0.059420861303806305	0.10672754049301147	0.07433664053678513	0.15608517825603485	0.021887456998229027	0.09364839643239975	0.08590410649776459	-0.04888962209224701	0.07234380394220352	0.08307123184204102	0.043351683765649796	0.10234633833169937	0.05088081955909729	-0.04312964528799057	-0.034574639052152634	0.10047926753759384	0.08022038638591766	0.3093200922012329	0.2135080099105835	0.244049534201622	0.34461820125579834	0.13174796104431152	0.2933461666107178	0.23511426150798798	0.33645957708358765	0.0884619727730751	0.20205086469650269	0.3535768389701843	0.17126895487308502	-0.036166951060295105	-0.05853605270385742	0.10072740912437439	-0.08832839876413345	0.06819900870323181	0.0878751128911972	-0.04365815594792366	-0.09825954586267471	0.03991685435175896	0.09175945818424225	-0.01754976250231266	0.0006698815268464386	0.04831767827272415	0.11419651657342911	0.09763815999031067	0.1617153137922287	0.36428138613700867	0.05021960660815239	0.14565201103687286	0.09895152598619461	0.12896975874900818	0.13120025396347046	0.23422099649906158	0.05813273787498474	0.05477027967572212	0.058284785598516464	0.05761377140879631	0.20303833484649658	0.03462368622422218	-0.02344963140785694	0.04964561387896538	0.10648774355649948	0.09357143938541412	0.1302141696214676	0.12836916744709015	
Oui/surface/grande	-0.04275689274072647	-0.06522072851657867	-0.0024211732670664787	-0.0685381293296814	-0.03399134427309036	-0.11149828881025314	-0.07008174806833267	-0.1280447095632553	-0.024985138326883316	-0.03923526778817177	-0.06861550360918045	-0.09625570476055145	-0.03855729475617409	-0.08274044841527939	-0.028675910085439682	-0.11112085729837418	-0.06512653827667236	-0.04432666674256325	-0.0858883485198021	-0.032797813415527344	-0.05319191515445709	-0.030224034562706947	0.19542823731899261	0.15924085676670074	0.2188059240579605	0.3055731952190399	0.04692825675010681	0.2020118534564972	0.29994997382164	0.3170229494571686	0.28509521484375	0.480731338262558	0.3104230761528015	0.32205694913864136	-0.016010986641049385	0.10693324357271194	-0.021472027525305748	0.16304141283035278	1.0	0.20823292434215546	0.44389083981513977	0.2593587338924408	0.16873125731945038	0.22408434748649597	0.18484246730804443	0.17504318058490753	0.07569702714681625	-0.06322357803583145	0.015974363312125206	0.04433880373835564	-0.006308866664767265	0.12944212555885315	0.09503308683633804	0.11924745887517929	0.07447107136249542	0.11672350019216537	0.060920581221580505	0.2511681020259857	0.03972802311182022	0.07586777955293655	0.03376416862010956	0.12383561581373215	0.06393733620643616	0.17810069024562836	0.1476706713438034	0.031488269567489624	0.17141714692115784	0.017567330971360207	0.14281347393989563	0.12776772677898407	0.1139974445104599	0.19322580099105835	0.16681049764156342	0.3054408133029938	0.17007605731487274	0.17546258866786957	0.2250843644142151	0.26497548818588257	0.18234537541866302	0.19546662271022797	0.13080236315727234	0.0026995947118848562	0.035007182508707047	-0.0014695007121190429	-0.03115640953183174	0.014200413599610329	0.09227415174245834	0.0778052806854248	-0.01851826347410679	0.04175521805882454	0.15524572134017944	0.07241856306791306	-0.04475473240017891	0.12929022312164307	0.13987436890602112	0.1653488129377365	0.08343803137540817	0.154104083776474	0.10843741148710251	0.16974900662899017	0.09890115261077881	0.09371566772460938	0.1882660835981369	0.013661529868841171	0.13600124418735504	0.062387701123952866	0.18328753113746643	0.18068471550941467	0.25192978978157043	0.031184962019324303	0.12596409022808075	0.1618763953447342	0.14324331283569336	0.03312154859304428	0.11195658892393112	0.1568143665790558	
Oui/mur/grand	-0.09483342617750168	-0.02972112037241459	-0.09562727063894272	0.036255449056625366	-0.06886257231235504	-0.16137386858463287	-0.07894165068864822	-0.04723861441016197	0.009098513051867485	0.06183336302638054	0.012921412475407124	-0.08965561538934708	0.04065932705998421	-0.0740860104560852	0.0420660637319088	-0.02635224163532257	0.15126165747642517	-0.05848880857229233	-0.05659313127398491	-0.13709476590156555	-0.031151503324508667	-0.08447729051113129	0.2261887937784195	0.14238013327121735	0.22830772399902344	0.19738651812076569	0.3387194275856018	0.3130939304828644	0.30617812275886536	0.2714481055736542	0.26856252551078796	0.08913344144821167	0.31848156452178955	0.39527225494384766	0.11357878148555756	0.07599752396345139	0.14919735491275787	0.21708686649799347	0.20823292434215546	1.0	0.23275147378444672	0.13445420563220978	0.27651506662368774	0.2614520192146301	0.3190431594848633	0.15775059163570404	0.1726226806640625	0.005284867249429226	0.34607046842575073	0.1525634378194809	0.14380720257759094	0.19488880038261414	0.23463082313537598	0.2185496985912323	0.09183676540851593	0.21122756600379944	0.16834023594856262	0.21998341381549835	-0.05482588708400726	0.12814967334270477	0.19059614837169647	0.06185935437679291	0.10193486511707306	0.12699709832668304	0.21707846224308014	-0.019599080085754395	0.15378980338573456	0.2823057174682617	0.1142711415886879	0.06836118549108505	0.013560881838202477	0.012535959482192993	0.06891046464443207	-0.0653347373008728	0.2119501531124115	0.07082820683717728	0.09212285280227661	0.06079522892832756	0.12078917771577835	0.053547199815511703	0.10459641367197037	-0.07960977405309677	-0.10281224548816681	-0.029880618676543236	0.007014821283519268	0.036251671612262726	0.160529226064682	0.020779425278306007	-0.015317937359213829	0.054745789617300034	0.058919355273246765	-0.02271566540002823	0.14485667645931244	-0.019534017890691757	-0.09962768852710724	0.027847152203321457	0.019915200769901276	0.06586361676454544	-0.04334470257163048	0.06474602967500687	0.09932068735361099	-0.010354448109865189	0.18507486581802368	0.14306171238422394	0.08877505362033844	0.12611453235149384	0.041271258145570755	0.13068744540214539	0.03884611278772354	0.06146734207868576	0.1350858211517334	0.0411706417798996	0.04880368337035179	0.006921730935573578	0.8407683968544006	0.1380983144044876	
Oui/maison/grande	0.06651051342487335	-0.01462074089795351	0.01941741444170475	-0.0016396607970818877	0.008335603401064873	0.016269074752926826	-0.005319009069353342	0.02816886454820633	-0.001483153086155653	0.008075523190200329	-0.0012655340833589435	0.011701034381985664	0.06578807532787323	0.03795192390680313	0.032213952392339706	0.06042268127202988	0.07647299021482468	0.09379234910011292	-0.12369734793901443	0.013254608027637005	0.034102071076631546	0.004529294092208147	0.12439197301864624	0.058345094323158264	0.2435656487941742	0.43321117758750916	0.16725511848926544	0.16386252641677856	0.257376492023468	0.41541793942451477	0.30658429861068726	0.578862726688385	0.378415048122406	0.23465420305728912	0.1791793256998062	0.3496776223182678	0.18041564524173737	0.1888599842786789	0.44389083981513977	0.23275147378444672	1.0	0.483693391084671	0.22606919705867767	0.19531691074371338	0.23324966430664062	0.20885325968265533	0.1384458839893341	0.030192792415618896	0.09781347960233688	0.16007842123508453	0.13218393921852112	0.23664894700050354	0.12985004484653473	0.28718096017837524	-0.007840382866561413	0.28687503933906555	0.251833975315094	0.13783054053783417	0.17565082013607025	0.14989237487316132	0.22065585851669312	0.10117005556821823	0.2629391849040985	0.2989262640476227	0.1711113601922989	0.03998096287250519	0.10734673589468002	0.10425246506929398	0.25156739354133606	0.08095532655715942	0.12884341180324554	0.2948246896266937	0.10444213449954987	0.34764721989631653	0.13511435687541962	0.09877055138349533	0.18277204036712646	0.22148820757865906	0.10617298632860184	0.15244898200035095	0.2975071370601654	-0.04522046819329262	0.010341641493141651	0.0806431844830513	0.06406790763139725	0.02091119810938835	0.09034180641174316	-0.00277124485000968	-0.069050133228302	0.03081745095551014	0.039354030042886734	-0.027802351862192154	0.00931261945515871	0.10279654711484909	0.21008947491645813	0.17958606779575348	0.25674566626548767	0.16567747294902802	0.18872851133346558	0.1480954885482788	0.18695521354675293	0.1724802553653717	0.17650245130062103	0.15215830504894257	0.17602384090423584	0.15100020170211792	0.1501188427209854	0.1191941425204277	0.30295929312705994	0.053451117128133774	0.13515308499336243	0.13637597858905792	0.15870089828968048	0.149201899766922	0.21233581006526947	0.0773605927824974	
