	Non/colère/saine	Non/colères/saines	Oui/vie/saine	Oui/personne/saine	Oui/peau/saine	Oui/nourriture/saine	Oui/chair/saine	Oui/écorces/saines	Oui/dents/saines	Oui/bouche/saine	Oui/jambe/saine	Oui/feuilles/saines	Non/observateur/fin	Oui/bretelles/fines	Oui/peau/fine	Oui/couche/fine	Oui/robe/fine	Oui/lames/fines	Oui/feuilles/fines	Oui/moustaches/fines	Oui/laine/fine	Oui/tissu/fin	Oui/matelas/fin	Non/couple/beau	Oui/marquise/belle	Oui/princesse/belle	Oui/chevaux/beaux	Oui/violon/beau	Oui/baron/beau	Oui/fleurs/belles	Oui/maison/belle	Oui/visage/beau	Oui/pantalon/beau	Oui/bateau/beau	Non/journalistes/grands	Non/journaliste/grand	Non/journaliste/grande	Oui/salle/grande	Oui/arbres/grands	Oui/escalier/grand	Oui/supermarché/grand	Oui/chapiteau/grand	Oui/écurie/grande	Oui/chapeau/grand	Oui/couteau/grand	Oui/îles/grandes	Oui/panneaux/grands	Non/idée/brillante	Oui/lèvres/brillantes	Oui/veine/brillante	Oui/épées/brillantes	Oui/boule/brillante	Oui/constellations/brillantes	Oui/tissu/brillant	Oui/cuirasse/brillante	Oui/sphère/brillante	Oui/halo/brillant	Oui/pièces/brillantes	Non/élève/brillant	Non/élève/brillante	Non/élèves/brillants	Oui/éclats/brillants	Oui/dents/brillantes	Oui/lunettes/brillantes	Oui/chaussures/brillantes	Oui/cristaux/brillants	Oui/lame/brillante	Oui/lune/brillante	Oui/métal/brillant	Oui/anneau/brillant	Oui/aiguilles/brillantes	Non/ouïe/fine	Oui/moustache/fine	Oui/membrane/fine	Oui/sandales/fines	Oui/pattes/fines	Oui/lunettes/fines	Oui/bandes/fines	Oui/mouchoir/fin	Oui/collier/fin	Oui/cigarettes/fines	Oui/stylet/fin	Non/chanteur/grand	Oui/cadres/grands	Oui/lévrier/grand	Oui/nef/grande	Oui/portefeuille/grand	Oui/figurines/grandes	Oui/salon/grand	Oui/fenêtres/grandes	Oui/carnets/grands	Oui/mains/grandes	Oui/arc/grand	Non/temps/beau	Oui/salon/beau	Oui/garçon/beau	Oui/robe/belle	Oui/bracelet/beau	Oui/sièges/beaux	Oui/feuillages/beaux	Oui/cathédrale/belle	Oui/seins/beaux	Oui/table/belle	Oui/chapeau/beau	Non/douche/bonne	Oui/père/bon	Oui/élèves/bons	Oui/mère/bonne	Oui/nageur/bon	Oui/tireur/bon	Oui/étudiants/bons	Oui/professeure/bonne	Oui/commandant/bon	Oui/jardinier/bon	Oui/comédienne/bonne
Non/colère/saine	1.0	0.7438657879829407	0.26005324721336365	0.7208479642868042	0.4072902500629425	0.7133946418762207	0.5298768281936646	0.4329390227794647	0.3701927065849304	0.6624707579612732	0.5595530271530151	0.5002192854881287	0.03862718492746353	0.0954262986779213	0.08244844526052475	0.22093136608600616	0.19804947078227997	0.11284281313419342	0.07302581518888474	0.11006832122802734	0.22708666324615479	-0.0029680177103728056	-0.015403383411467075	0.10613637417554855	0.2030843198299408	0.26885145902633667	0.14302638173103333	0.1555113047361374	0.10024815052747726	0.2014167159795761	0.15857577323913574	0.14626067876815796	0.15292730927467346	0.1146138459444046	0.16235612332820892	0.06351342052221298	0.13946323096752167	-0.030327750369906425	0.050722360610961914	0.04416960850358009	0.00022172970056999475	0.05216987431049347	0.009513718076050282	0.07166273891925812	0.05055753514170647	0.03305188938975334	0.08506397157907486	-0.037198957055807114	0.11724547296762466	0.04736329987645149	0.21859696507453918	0.17462563514709473	0.15347260236740112	-0.018474191427230835	0.16074629127979279	0.0610085092484951	0.08994590491056442	0.12763452529907227	0.08914731442928314	0.18919512629508972	0.09317322820425034	0.14737635850906372	0.0004764098848681897	0.08054246008396149	0.11768609285354614	0.07860612124204636	0.07581029832363129	0.12325906753540039	0.09031624346971512	0.05520254001021385	0.14530952274799347	0.14318470656871796	0.27906835079193115	0.21761047840118408	0.1120545044541359	0.057305991649627686	0.06935153901576996	0.10746757686138153	0.054792895913124084	0.07130087167024612	0.07660464197397232	0.08320953696966171	0.1200101375579834	0.09538941830396652	0.013582928106188774	-0.047446899116039276	-0.01980648562312126	0.09986655414104462	-0.06502514332532883	0.044821951538324356	0.07532909512519836	0.0779942125082016	0.04249783605337143	0.15657882392406464	0.03838520869612694	0.16304942965507507	0.14253710210323334	0.1688096672296524	0.07742001861333847	0.1521463692188263	0.2656994163990021	0.08782172203063965	0.13717664778232574	0.16406506299972534	0.1638256311416626	0.28728175163269043	0.20266704261302948	0.20541596412658691	0.21079540252685547	0.2519063651561737	0.22108188271522522	0.30581337213516235	0.28113579750061035	0.2689281702041626	0.3068057894706726	
Non/colères/saines	0.7438657879829407	1.0	0.21210578083992004	0.49615323543548584	0.29136210680007935	0.48167040944099426	0.3370712697505951	0.5290210247039795	0.46050941944122314	0.45538848638534546	0.36392709612846375	0.5873836278915405	0.007566730957478285	0.17879056930541992	0.03735077381134033	0.1374584585428238	0.13925376534461975	0.14807520806789398	0.1104542538523674	0.21019336581230164	0.08146000653505325	-0.06773602217435837	-0.03594653680920601	0.06517014652490616	0.09723452478647232	0.1532178670167923	0.10583972185850143	0.14851661026477814	0.05410223826766014	0.14620210230350494	0.0808883011341095	0.08722532540559769	0.09178575128316879	0.0775664672255516	0.018353763967752457	0.050179850310087204	0.028339101001620293	-0.03991595283150673	-0.06167379766702652	0.037494152784347534	-0.016642538830637932	-0.0005825871485285461	0.010677550919353962	0.10189791023731232	0.051587577909231186	0.02813101001083851	0.010099058039486408	-0.04381167143583298	0.06204788386821747	0.011191104538738728	0.2068297564983368	0.11991012841463089	0.18219032883644104	-0.09440957009792328	0.1616050750017166	0.036915309727191925	0.06420014053583145	0.10570435225963593	0.0759010910987854	0.11436185240745544	0.02497493103146553	0.22711358964443207	-0.009989164769649506	0.1261386275291443	0.14116816222667694	0.026149917393922806	0.06887563318014145	0.12272889912128448	0.051376551389694214	0.01966526173055172	0.09201757609844208	0.04485148563981056	0.1810590922832489	0.12614649534225464	0.18326392769813538	0.13395506143569946	0.16311554610729218	0.14480607211589813	0.02714049629867077	0.04255325347185135	0.13352413475513458	0.05276868864893913	0.09749647974967957	-0.04198015481233597	0.06008756905794144	-0.05895458906888962	-0.007991593331098557	0.05978579819202423	-0.03899851441383362	0.02008691057562828	0.059052061289548874	-0.0008459486998617649	0.055200736969709396	0.0974874347448349	0.01244383119046688	0.11930367350578308	0.10249063372612	0.12516888976097107	0.034299395978450775	0.07323209196329117	0.12320894747972488	0.04835062474012375	0.03548232465982437	0.13396058976650238	0.15260419249534607	0.24709919095039368	0.10069184005260468	0.2125333994626999	0.2128741294145584	0.1802109181880951	0.10470813512802124	0.20266303420066833	0.21014177799224854	0.20524908602237701	0.2409633994102478	
Oui/vie/saine	0.26005324721336365	0.21210578083992004	1.0	0.30297353863716125	0.3609413802623749	0.28486761450767517	0.3018985986709595	0.09140095859766006	0.1606077253818512	0.27082163095474243	0.26945430040359497	0.14668340981006622	-0.26842090487480164	0.02390759065747261	0.23301002383232117	0.1457316130399704	0.1855785995721817	0.10897322744131088	0.026205826550722122	0.02442820370197296	0.12689150869846344	-0.1712879091501236	-0.23626893758773804	0.05020343139767647	-0.013607727363705635	-0.005287235137075186	-0.029469745233654976	0.008041376248002052	-0.07060214877128601	0.07686609029769897	0.04810602590441704	-0.01220596581697464	-0.08915144205093384	-0.011066262610256672	0.00377873657271266	-0.04167863726615906	-0.07343172281980515	0.04980570077896118	0.060878124088048935	-0.01821882836520672	-0.12645965814590454	-0.06545526534318924	-0.10008733719587326	-0.041610509157180786	0.008105822838842869	0.029600324109196663	0.006832963787019253	0.06944595277309418	0.01612401194870472	0.09067736566066742	0.14606179296970367	0.1252930909395218	0.04805021360516548	0.10779548436403275	0.0882825180888176	0.2634907364845276	0.09655874967575073	0.14585763216018677	0.05527200549840927	0.07936075329780579	0.12293792515993118	0.1560991257429123	0.053375013172626495	0.0823768824338913	0.07071533799171448	0.1355382353067398	0.1656191051006317	0.17458398640155792	0.14106574654579163	0.06711620837450027	-0.004941093269735575	0.12598538398742676	0.08664713054895401	0.09016542136669159	0.04734217748045921	0.04911670833826065	0.06710615009069443	0.0557047501206398	-0.218924418091774	-0.23078975081443787	0.06358411908149719	-0.19695830345153809	0.022092636674642563	0.07547007501125336	-0.0013260883279144764	0.14577966928482056	-0.052511826157569885	-0.0006821838323958218	0.087302565574646	0.007819299586117268	0.05253295600414276	0.04569343104958534	0.027108171954751015	0.10868839919567108	0.016934571787714958	0.010795227251946926	0.10214579850435257	-0.03808436915278435	-0.011731886304914951	-0.03561565279960632	-0.012675614096224308	-0.0246272049844265	0.0351528599858284	-0.09741789847612381	0.08130494505167007	0.12148116528987885	0.06579922884702682	0.18855737149715424	0.05250735208392143	0.056458041071891785	0.05552196875214577	0.015279448591172695	0.02087615430355072	0.054555803537368774	0.023531952872872353	
Oui/personne/saine	0.7208479642868042	0.49615323543548584	0.30297353863716125	1.0	0.4390107989311218	0.8497276902198792	0.5772584676742554	0.4492146670818329	0.32540929317474365	0.7033050656318665	0.655977725982666	0.5434415936470032	0.143457293510437	0.1395472288131714	0.05627846717834473	0.2868409752845764	0.17107228934764862	0.13024182617664337	0.1141849160194397	0.13860921561717987	0.20105695724487305	0.04975026100873947	0.10136416554450989	0.17680825293064117	0.3001013994216919	0.34465745091438293	0.16766196489334106	0.19508439302444458	0.1692999303340912	0.12047550827264786	0.21696384251117706	0.16170108318328857	0.1822744756937027	0.1780221313238144	0.1782863438129425	0.13929592072963715	0.2658372223377228	0.04155081510543823	0.03802139312028885	0.09197420626878738	0.031533192843198776	0.11463703215122223	0.05537538230419159	0.11125858873128891	0.06482039391994476	0.025203146040439606	0.09120000898838043	-0.07073525339365005	0.01791871339082718	-0.0009550043614581227	0.19403696060180664	0.06432817876338959	0.21687549352645874	-0.026135781779885292	0.14495360851287842	0.09429264813661575	0.01577092707157135	0.1648169457912445	0.13439978659152985	0.23687714338302612	0.1398780196905136	0.05428427830338478	-0.07766779512166977	0.1440337598323822	0.14546658098697662	0.0885559618473053	0.011456086300313473	0.015646954998373985	0.06155315786600113	0.05960335582494736	0.11912673711776733	0.17220503091812134	0.32726994156837463	0.2787936329841614	0.1432764232158661	0.08322778344154358	0.13965654373168945	0.10012799501419067	0.11955972015857697	0.11861145496368408	0.13085907697677612	0.14701038599014282	0.18432198464870453	0.10196705162525177	0.08504346013069153	-0.0007488549454137683	0.0591815821826458	0.11077865958213806	0.003192332573235035	0.06142706051468849	0.06476735323667526	0.029095657169818878	0.008585654199123383	0.18722626566886902	0.10694707185029984	0.2215072065591812	0.10085450857877731	0.21623803675174713	0.14512377977371216	0.19118113815784454	0.32615044713020325	0.07575111836194992	0.1881943792104721	0.20988290011882782	0.1761782467365265	0.26482081413269043	0.27556344866752625	0.14762356877326965	0.25591251254081726	0.3260898292064667	0.2805746793746948	0.3511403203010559	0.31796514987945557	0.29868248105049133	0.34095582365989685	
Oui/peau/saine	0.4072902500629425	0.29136210680007935	0.3609413802623749	0.4390107989311218	1.0	0.41621774435043335	0.5451685786247253	0.3622930645942688	0.3963008224964142	0.4930049479007721	0.5152544379234314	0.354561984539032	-0.0598100982606411	-0.004564435221254826	0.5967566967010498	0.14219506084918976	0.2122182995080948	0.12270639836788177	-0.03899841010570526	-0.0028469208627939224	0.1984003186225891	0.11130012571811676	0.023509735241532326	0.01272871159017086	0.1315578669309616	0.14882022142410278	0.09012311697006226	0.13380324840545654	0.03492080792784691	0.22257502377033234	0.09144915640354156	0.26753705739974976	0.13720735907554626	0.07286601513624191	0.09029439091682434	0.04727645590901375	0.0990956649184227	0.06470312923192978	0.10197417438030243	0.024033429101109505	0.009199826046824455	0.045047562569379807	0.08973177522420883	0.150019109249115	0.1732858568429947	0.111374132335186	0.09397366642951965	-0.023814521729946136	0.29475435614585876	0.09910404682159424	0.21691139042377472	0.181379035115242	0.08091013133525848	0.23943081498146057	0.24284808337688446	0.07879558205604553	0.1368754357099533	0.12741917371749878	-0.021879088133573532	0.05150807276368141	-0.02940339781343937	0.11183275282382965	0.20104776322841644	0.2582515478134155	0.16083970665931702	0.13093942403793335	0.21145015954971313	0.14565105736255646	0.13176830112934113	0.06543827056884766	0.12893489003181458	0.11227782815694809	0.09897606074810028	0.1143447756767273	0.009342177771031857	0.04686553776264191	0.045943956822156906	0.033702120184898376	0.061169154942035675	0.02466231770813465	-0.062399495393037796	0.07192526012659073	0.11934191733598709	0.08250067383050919	0.09892413020133972	0.11815007776021957	0.07352862507104874	0.12189850956201553	0.05969162657856941	0.0939927026629448	0.10359888523817062	0.2291872501373291	0.06860128790140152	0.032171208411455154	0.041210923343896866	0.09882351011037827	0.30249565839767456	0.13162806630134583	0.08392637968063354	0.09144136309623718	0.10277484357357025	0.23065727949142456	0.040912140160799026	0.11194726824760437	0.2125549018383026	0.13334140181541443	0.09220350533723831	0.13971103727817535	0.1866750717163086	0.17456035315990448	0.10354679822921753	0.13008920848369598	0.13842254877090454	0.1360180824995041	0.16142185032367706	
Oui/nourriture/saine	0.7133946418762207	0.48167040944099426	0.28486761450767517	0.8497276902198792	0.41621774435043335	1.0	0.6384188532829285	0.5000470280647278	0.3490361273288727	0.7290639281272888	0.6345726847648621	0.5657297372817993	0.14539027214050293	0.12548846006393433	0.041847895830869675	0.2747231423854828	0.2036353051662445	0.15122677385807037	0.1257997453212738	0.14796049892902374	0.27566948533058167	0.10452136397361755	0.13418497145175934	0.1304609775543213	0.289065957069397	0.35294097661972046	0.18117019534111023	0.2105080783367157	0.1628066748380661	0.19926422834396362	0.27614039182662964	0.13366587460041046	0.24280229210853577	0.21272194385528564	0.16901721060276031	0.13534294068813324	0.22659413516521454	0.05990886688232422	0.08936548233032227	0.13263247907161713	0.1320899873971939	0.16797856986522675	0.06477494537830353	0.14904974400997162	0.14295516908168793	0.051072269678115845	0.15753507614135742	-0.10143651068210602	0.035376813262701035	-0.007738790009170771	0.24537163972854614	0.10213743895292282	0.19014586508274078	0.0516473725438118	0.20075006783008575	0.05959411710500717	0.034775275737047195	0.20469722151756287	0.01522145327180624	0.1272117644548416	0.0659249871969223	0.08532985299825668	-0.042599231004714966	0.1431422233581543	0.18646889925003052	0.17660754919052124	0.028003912419080734	0.05169420689344406	0.14631396532058716	0.10212796926498413	0.13024462759494781	0.16756027936935425	0.3295234441757202	0.3012883961200714	0.17370730638504028	0.10248848795890808	0.12034128606319427	0.12747089564800262	0.16410844027996063	0.17334333062171936	0.1527576446533203	0.16115067899227142	0.19337564706802368	0.09998494386672974	0.1404617726802826	-0.020298276096582413	0.11430978775024414	0.1670491248369217	0.044252946972846985	0.0973345935344696	0.12847481667995453	-0.006912943907082081	0.020799992606043816	0.19104725122451782	0.12126946449279785	0.1902088224887848	0.1673123687505722	0.24157996475696564	0.1671493947505951	0.22243501245975494	0.374502032995224	0.08970440924167633	0.2367473542690277	0.2178172916173935	0.23654744029045105	0.26442041993141174	0.1994321048259735	0.12144360691308975	0.26361972093582153	0.29926466941833496	0.22988751530647278	0.3527827560901642	0.34801411628723145	0.3262433409690857	0.3344619572162628	
Oui/chair/saine	0.5298768281936646	0.3370712697505951	0.3018985986709595	0.5772584676742554	0.5451685786247253	0.6384188532829285	1.0	0.4217192530632019	0.3451216518878937	0.5918347835540771	0.5618330240249634	0.399329274892807	0.00010615539940772578	-0.06093071028590202	0.11184169352054596	0.07109476625919342	0.12489736080169678	0.07047927379608154	-0.046915821731090546	-0.03569086641073227	0.13580405712127686	0.08151069283485413	0.021995974704623222	0.0330955795943737	0.1493190973997116	0.16347214579582214	0.0704929307103157	0.13154380023479462	0.07783346623182297	0.1265448033809662	0.09429662674665451	0.10785070061683655	0.13209062814712524	0.0650104284286499	0.08196745812892914	0.05440974608063698	0.08662543445825577	0.058522071689367294	0.09689289331436157	0.09396209567785263	0.032230280339717865	0.1346326768398285	-0.018915705382823944	0.12377601861953735	0.21308593451976776	0.039226822555065155	0.08981211483478546	-0.05744156986474991	0.11328821629285812	0.09171097725629807	0.2466655820608139	0.19603362679481506	0.0818411111831665	0.1516345739364624	0.24202574789524078	0.07209628075361252	0.14079122245311737	0.1719316840171814	-0.03962939232587814	0.038008492439985275	-0.042834047228097916	0.16623258590698242	0.08948955684900284	0.049721166491508484	0.09540697187185287	0.06919776648283005	0.17093540728092194	0.09971479326486588	0.19830413162708282	0.061826273798942566	0.08005676418542862	0.08688389509916306	0.06423552334308624	0.09609697759151459	0.006257226224988699	0.026296036317944527	-0.0849761888384819	-0.022275200113654137	0.03998147323727608	0.024042822420597076	-0.055057428777217865	0.06703609228134155	0.12285654246807098	0.10684581100940704	0.09740317612886429	0.10408106446266174	0.051773056387901306	0.15451061725616455	0.015569755807518959	0.045614227652549744	0.09676963835954666	0.10507801175117493	0.07873596996068954	0.05590200051665306	0.011294219642877579	0.0840468630194664	0.20995067059993744	0.1017494797706604	0.0850236788392067	0.12958769500255585	0.1981218308210373	0.15163332223892212	0.19076062738895416	0.09837082028388977	0.12303297221660614	0.1987026184797287	0.09109938889741898	0.14353710412979126	0.19584611058235168	0.21403442323207855	0.12541712820529938	0.19264476001262665	0.21513541042804718	0.1924121081829071	0.20404833555221558	
Oui/écorces/saines	0.4329390227794647	0.5290210247039795	0.09140095859766006	0.4492146670818329	0.3622930645942688	0.5000470280647278	0.4217192530632019	1.0	0.4675770103931427	0.43929100036621094	0.4242507517337799	0.764531672000885	0.0411415658891201	0.1059294268488884	0.08430999517440796	0.1462211161851883	0.17416976392269135	0.20733098685741425	0.1860063225030899	0.09933726489543915	0.17414340376853943	0.0558348149061203	0.06323114037513733	0.05505003780126572	0.14964109659194946	0.159474179148674	0.11154382675886154	0.20701639354228973	0.14714792370796204	0.2925293743610382	0.14815936982631683	0.09676021337509155	0.15399587154388428	0.13072313368320465	0.10204146057367325	0.16571234166622162	0.11729304492473602	0.033979129046201706	0.314706951379776	0.19901438057422638	0.10645382851362228	0.17154085636138916	0.09563347697257996	0.2476312518119812	0.24971266090869904	0.17254440486431122	0.1760062575340271	0.018467530608177185	0.09138131886720657	0.06853468716144562	0.2999381124973297	0.18083465099334717	0.22535374760627747	0.1037852019071579	0.15597134828567505	0.04052406921982765	0.09374944120645523	0.20291391015052795	0.018079832196235657	0.053466349840164185	-0.01688038371503353	0.2140968143939972	0.034381624311208725	0.16858042776584625	0.23019929230213165	0.17316488921642303	0.19289755821228027	0.06301810592412949	0.16195806860923767	0.12069002538919449	0.2774483263492584	0.0711374282836914	0.12698043882846832	0.16833852231502533	0.15202215313911438	0.07805212587118149	0.06518899649381638	0.10470764338970184	0.07504657655954361	0.0773020014166832	0.06781395524740219	0.0707729160785675	0.2035072296857834	0.10158317536115646	0.1255521923303604	0.015953343361616135	0.12151005119085312	0.20015619695186615	0.061237361282110214	0.15312716364860535	0.18694201111793518	0.06911551207304001	0.15601114928722382	0.07484165579080582	0.05484408512711525	0.09842272847890854	0.20577678084373474	0.16705632209777832	0.061478808522224426	0.22225500643253326	0.17859531939029694	0.10212820768356323	0.0837981104850769	0.20517754554748535	0.1955779641866684	0.2611440122127533	0.1591860055923462	0.13953152298927307	0.2583088278770447	0.26129454374313354	0.20799800753593445	0.23405511677265167	0.25293058156967163	0.2757556140422821	0.24328169226646423	
Oui/dents/saines	0.3701927065849304	0.46050941944122314	0.1606077253818512	0.32540929317474365	0.3963008224964142	0.3490361273288727	0.3451216518878937	0.4675770103931427	1.0	0.48078978061676025	0.4383507966995239	0.5201677680015564	-0.08726198226213455	0.04705866426229477	0.10032070428133011	0.0420236773788929	0.06424281746149063	0.3096195459365845	0.04709092900156975	0.1524474024772644	0.06767687946557999	-0.07530627399682999	-0.06344639509916306	0.07534916698932648	0.039142265915870667	0.110427625477314	0.12572145462036133	0.16520696878433228	0.11450061947107315	0.17663218080997467	0.0034404397010803223	0.16600149869918823	0.1135457307100296	0.09162990003824234	0.030422935262322426	0.08098983764648438	0.009932272136211395	0.009022212587296963	0.11393292993307114	0.14736920595169067	0.049871236085891724	0.09389537572860718	0.021626662462949753	0.21764186024665833	0.302587628364563	0.08367752283811569	0.07843489944934845	-0.032001957297325134	0.29878416657447815	0.04278125613927841	0.36207854747772217	0.23760148882865906	0.1077866405248642	-0.013566390611231327	0.1715715080499649	0.010982857085764408	0.03875068575143814	0.17763526737689972	-0.030166614800691605	0.0007405210053548217	-0.03301601856946945	0.174101322889328	0.7270547747612	0.26441484689712524	0.1496868133544922	0.12225314229726791	0.35019451379776	0.21039864420890808	0.17626142501831055	0.17582161724567413	0.26190146803855896	0.05134004354476929	0.12243534624576569	0.0162232406437397	0.04177401214838028	0.20950275659561157	0.10795139521360397	0.06707489490509033	-6.934444058970257e-07	0.011461769230663776	0.03612537682056427	0.020983295515179634	0.14812235534191132	0.01093488372862339	0.15714730322360992	0.0521831214427948	0.061653293669223785	0.11038380861282349	0.005855219438672066	0.07601749151945114	0.03927561640739441	0.20604096353054047	0.14436592161655426	0.0698590874671936	0.01846056617796421	0.136347234249115	0.12658868730068207	0.15953519940376282	0.11049956828355789	0.09643981605768204	0.06837727129459381	0.19635269045829773	0.06837991625070572	0.1918676644563675	0.15431007742881775	0.1945265233516693	0.09977836906909943	0.12022458016872406	0.17658731341362	0.18483296036720276	0.11175043880939484	0.09978188574314117	0.1618841290473938	0.19046375155448914	0.12568676471710205	
Oui/bouche/saine	0.6624707579612732	0.45538848638534546	0.27082163095474243	0.7033050656318665	0.4930049479007721	0.7290639281272888	0.5918347835540771	0.43929100036621094	0.48078978061676025	1.0	0.6496137380599976	0.5196580290794373	0.01124642789363861	0.03851638361811638	0.009453948587179184	0.09220778197050095	0.11908019334077835	0.07487168163061142	-0.0012428854824975133	0.05910959094762802	0.05658659338951111	0.007077408488839865	-0.006734716705977917	0.04623951390385628	0.21887852251529694	0.22326049208641052	0.10864786058664322	0.1693885177373886	0.10294941067695618	0.1814512014389038	0.15993474423885345	0.18446090817451477	0.1785489320755005	0.14150236546993256	0.10380499064922333	0.06735611706972122	0.15369737148284912	0.11703754961490631	0.02568560652434826	0.07879249006509781	0.03316874802112579	0.0838402658700943	0.03437967970967293	0.13732613623142242	0.15543042123317719	0.012907166965305805	0.08027460426092148	-0.08236949890851974	0.31618189811706543	0.14973711967468262	0.23136121034622192	0.1941847801208496	0.1168009489774704	0.027975523844361305	0.15917640924453735	0.11029452085494995	0.10898319631814957	0.16944390535354614	0.00563237676396966	0.11135629564523697	0.02153301052749157	0.10336828976869583	0.1341675966978073	0.1742512732744217	0.12233234196901321	0.08928307145833969	0.1477714478969574	0.054964955896139145	0.10152144730091095	0.16496917605400085	0.16010794043540955	0.13754349946975708	0.13455133140087128	0.09841421246528625	0.03929548338055611	0.048265546560287476	0.03336666524410248	-0.006111386232078075	0.0955549031496048	0.04884706810116768	0.01871674880385399	0.095145083963871	0.12583889067173004	0.03501841798424721	0.0989619642496109	0.051970530301332474	0.03559313341975212	0.07817729562520981	0.050365105271339417	0.12881027162075043	0.0871308222413063	0.17951513826847076	0.08966385573148727	0.116775743663311	0.10760029405355453	0.14231213927268982	0.19000299274921417	0.16080045700073242	0.1227496936917305	0.1617707461118698	0.2548891007900238	0.18305885791778564	0.20369577407836914	0.1868017166852951	0.2141358107328415	0.19682227075099945	0.1704273372888565	0.1024002656340599	0.20274192094802856	0.23736464977264404	0.18469515442848206	0.24360661208629608	0.2359602451324463	0.2303268164396286	0.25046244263648987	
Oui/jambe/saine	0.5595530271530151	0.36392709612846375	0.26945430040359497	0.655977725982666	0.5152544379234314	0.6345726847648621	0.5618330240249634	0.4242507517337799	0.4383507966995239	0.6496137380599976	1.0	0.4663917124271393	-0.014635469764471054	0.12635929882526398	0.14103882014751434	0.20978876948356628	0.24822364747524261	0.1774493157863617	0.02861671708524227	0.06502185016870499	0.21876253187656403	0.07092199474573135	0.03303234651684761	0.05584710091352463	0.15694043040275574	0.18595558404922485	0.1904519647359848	0.19703316688537598	0.15202009677886963	0.15114843845367432	0.09771402180194855	0.19062866270542145	0.2732171416282654	0.20368637144565582	0.14060503244400024	0.09779062867164612	0.11237818747758865	0.08670122176408768	0.15276338160037994	0.18561826646327972	0.024659309536218643	0.1490202099084854	0.06654724478721619	0.2137157917022705	0.21644927561283112	0.07316983491182327	0.175832137465477	-0.015906892716884613	0.14910408854484558	0.18501515686511993	0.32385891675949097	0.2636478841304779	0.14817963540554047	0.1921825110912323	0.2730318009853363	0.11962185055017471	0.08114033192396164	0.22209304571151733	0.03454431891441345	0.10902351886034012	0.01199493370950222	0.1281251311302185	0.1539885401725769	0.22238419950008392	0.2296721339225769	0.10718949139118195	0.26312026381492615	0.12518860399723053	0.2082516998052597	0.1939476579427719	0.21168646216392517	0.1617063283920288	0.23278649151325226	0.20960816740989685	0.11709954589605331	0.19197288155555725	0.07512503117322922	0.09659101068973541	0.06450295448303223	0.060243844985961914	0.019634496420621872	0.06947174668312073	0.15994670987129211	0.15618906915187836	0.15179599821567535	0.15213003754615784	0.09677907824516296	0.16108599305152893	0.05497513338923454	0.12869666516780853	0.1183982640504837	0.2276793122291565	0.18648461997509003	0.11748351901769638	0.07521170377731323	0.18529446423053741	0.2471051961183548	0.2007513791322708	0.1949317455291748	0.2036321461200714	0.17148134112358093	0.26616010069847107	0.17213182151317596	0.2070711851119995	0.18584519624710083	0.1968502551317215	0.147453173995018	0.07728070765733719	0.2383565902709961	0.26453542709350586	0.1638621687889099	0.16052889823913574	0.22561053931713104	0.1992487609386444	0.17231428623199463	
Oui/feuilles/saines	0.5002192854881287	0.5873836278915405	0.14668340981006622	0.5434415936470032	0.354561984539032	0.5657297372817993	0.399329274892807	0.764531672000885	0.5201677680015564	0.5196580290794373	0.4663917124271393	1.0	-0.06305523216724396	0.16279061138629913	-0.012366353534162045	0.139063760638237	0.14655062556266785	0.23025473952293396	0.3709452152252197	0.18954089283943176	0.09325534850358963	-0.0558907575905323	-0.06618902087211609	0.034089136868715286	0.11618436127901077	0.1206057071685791	0.1399986892938614	0.15237845480442047	0.10076675564050674	0.3330974578857422	0.08121256530284882	0.0761822983622551	0.14799481630325317	0.0958707258105278	0.09757213294506073	0.10856356471776962	0.06981536746025085	0.033848874270915985	0.18439218401908875	0.11420194804668427	0.046338412910699844	0.13638204336166382	0.022201422601938248	0.23416726291179657	0.16760364174842834	0.015604854561388493	0.19214746356010437	-0.005110654979944229	0.06332723051309586	0.004752684384584427	0.2601531147956848	0.18662254512310028	0.20448893308639526	0.033877015113830566	0.13338467478752136	0.027063697576522827	0.07408002018928528	0.20769654214382172	0.05010083317756653	0.07851023972034454	0.0042021432891488075	0.11025016009807587	-0.01056068018078804	0.18620945513248444	0.18441392481327057	0.13719592988491058	0.20400679111480713	0.037661511451005936	0.14139753580093384	0.09813427925109863	0.2376018613576889	-0.02607242576777935	0.13446369767189026	0.12162407487630844	0.15373028814792633	0.1465761810541153	0.13527502119541168	0.1806698590517044	0.0076525453478097916	-0.01300069224089384	0.147789865732193	0.032031476497650146	0.13694429397583008	0.07988332957029343	0.1410229653120041	0.01693696528673172	0.08579067140817642	0.17066776752471924	0.04498698189854622	0.16907039284706116	0.22203287482261658	0.062141675502061844	0.0787193700671196	0.08355849981307983	0.06952643394470215	0.0929514691233635	0.18018463253974915	0.17305223643779755	0.08565887808799744	0.2468530237674713	0.11791973561048508	0.06202643737196922	0.12076719105243683	0.22661858797073364	0.12895885109901428	0.19222979247570038	0.1705271303653717	0.06409430503845215	0.23032252490520477	0.24394823610782623	0.1915256530046463	0.1562889963388443	0.24067702889442444	0.25839799642562866	0.15040361881256104	
Non/observateur/fin	0.03862718492746353	0.007566730957478285	-0.26842090487480164	0.143457293510437	-0.0598100982606411	0.14539027214050293	0.00010615539940772578	0.0411415658891201	-0.08726198226213455	0.01124642789363861	-0.014635469764471054	-0.06305523216724396	1.0	0.05420345440506935	-0.015347505919635296	0.04179305210709572	-0.050633110105991364	-0.00669499346986413	0.019759710878133774	0.10699161887168884	0.03653280436992645	0.8101420998573303	0.8671229481697083	0.12082891166210175	0.2340230792760849	0.30678436160087585	0.058107081800699234	0.11204765737056732	0.10244044661521912	-0.0006664827233180404	0.2028476893901825	0.1276395320892334	0.17008167505264282	0.12680232524871826	0.11520923674106598	0.1472647786140442	0.2890686094760895	-0.07430949062108994	0.01598982885479927	0.07056917995214462	0.11760541051626205	0.03896597772836685	0.10869497060775757	-0.00264077284373343	0.051971230655908585	-0.05155034735798836	0.0003821741556748748	-0.18637855350971222	-0.03496769070625305	-0.09872815757989883	-0.1155405268073082	-0.12349360436201096	0.10553646832704544	0.031127510592341423	0.1505769044160843	0.0030938521958887577	-0.028945213183760643	-0.032021746039390564	0.04465477913618088	0.1146489754319191	0.007936718873679638	-0.0991729199886322	-0.10030694305896759	0.05346523970365524	0.054870836436748505	-0.017604924738407135	-0.13281315565109253	-0.12892763316631317	-0.0998113676905632	-0.004258902743458748	-0.0009781303815543652	0.12414592504501343	0.1526780128479004	0.15576258301734924	0.09551703184843063	0.03186170011758804	0.11562999337911606	-0.01223166473209858	0.8983681201934814	0.8771750330924988	0.11166219413280487	0.8284168839454651	0.0925297737121582	0.007943419739603996	0.033237580209970474	-0.07419387251138687	0.10046768933534622	0.09209553897380829	0.0011671966640278697	0.09192366898059845	0.013130264356732368	-0.07421337813138962	-0.11513347178697586	-0.05176423117518425	0.09922342002391815	0.16829131543636322	-0.03363945335149765	0.13435254991054535	0.09311015903949738	0.07866103202104568	0.269421249628067	0.06521313637495041	0.02036559209227562	0.11070718616247177	0.18676400184631348	0.14271125197410583	0.10949963331222534	0.11952348053455353	0.17877718806266785	0.21889914572238922	0.12538978457450867	0.36252129077911377	0.23328904807567596	0.23649844527244568	0.37140679359436035	
Oui/bretelles/fines	0.0954262986779213	0.17879056930541992	0.02390759065747261	0.1395472288131714	-0.004564435221254826	0.12548846006393433	-0.06093071028590202	0.1059294268488884	0.04705866426229477	0.03851638361811638	0.12635929882526398	0.16279061138629913	0.05420345440506935	1.0	0.26368284225463867	0.37898796796798706	0.37923887372016907	0.4460606575012207	0.7072257995605469	0.7882038354873657	0.2879318296909332	0.033987294882535934	0.0644441619515419	0.1321668028831482	0.09691394865512848	0.16622617840766907	0.10109371691942215	0.08462134003639221	0.13398680090904236	0.09265343099832535	0.13624067604541779	0.07270006835460663	0.21592316031455994	0.15378768742084503	0.10603048652410507	0.1230781078338623	0.1596928983926773	0.14952553808689117	0.004469787236303091	0.17966289818286896	0.12730614840984344	0.15607845783233643	0.12949571013450623	0.14291703701019287	0.0280600693076849	-0.013787683099508286	0.10393668711185455	0.06023607403039932	0.02927015908062458	-0.0208207368850708	-0.03873371705412865	0.03207097575068474	0.3006577491760254	0.06801540404558182	0.09001421183347702	0.027031464502215385	-0.09191228449344635	0.057184867560863495	0.18333661556243896	0.15773749351501465	0.18718641996383667	-0.0703740119934082	-0.06903040409088135	0.19106045365333557	0.31649115681648254	-0.0479249581694603	-0.09130486845970154	-0.0765938013792038	-0.04073305055499077	0.1363842934370041	0.1511913686990738	0.24650317430496216	0.4355105459690094	0.4153158664703369	0.7757782936096191	0.6677852272987366	0.7437987923622131	0.6412131190299988	0.06066632643342018	0.08007057011127472	0.7487087249755859	0.024314481765031815	0.17204837501049042	-0.0153426518663764	0.11156394332647324	-0.024398479610681534	0.18775959312915802	0.2194281816482544	0.05791515111923218	0.20190715789794922	0.088022381067276	0.04364774748682976	-0.030331583693623543	0.07123971730470657	0.07848759740591049	0.17080937325954437	0.13857507705688477	0.15485742688179016	0.1623363345861435	0.09457852691411972	0.1397639513015747	0.10273630917072296	0.05382788926362991	0.15070058405399323	0.07985451817512512	0.16658714413642883	0.19080425798892975	0.08790329098701477	0.14994685351848602	0.13364706933498383	0.16021868586540222	0.13933400809764862	0.1459810882806778	0.13461877405643463	0.11440885066986084	
Oui/peau/fine	0.08244844526052475	0.03735077381134033	0.23301002383232117	0.05627846717834473	0.5967566967010498	0.041847895830869675	0.11184169352054596	0.08430999517440796	0.10032070428133011	0.009453948587179184	0.14103882014751434	-0.012366353534162045	-0.015347505919635296	0.26368284225463867	1.0	0.6151254177093506	0.5480579137802124	0.24970315396785736	0.2571660280227661	0.263519823551178	0.5760072469711304	0.09497316926717758	0.06476357579231262	0.07605127990245819	0.09435123205184937	0.1157115176320076	0.12836945056915283	0.07587846368551254	0.058448512107133865	0.07942280173301697	0.1675758808851242	0.25737231969833374	0.09336525201797485	0.09654711931943893	0.07853595167398453	0.012173174880445004	0.1310815066099167	0.10888639092445374	0.1474478542804718	-0.010153562761843204	0.0027812691405415535	-0.0009421627037227154	0.14216738939285278	0.006087309680879116	-0.007995648309588432	0.13732436299324036	0.08096910268068314	0.0478411503136158	0.2108701914548874	0.03209415450692177	0.04128838703036308	0.018498770892620087	0.04519873484969139	0.15950055420398712	0.1618259698152542	0.03747265413403511	0.031146353110671043	0.04689422622323036	0.05205472186207771	0.1262279599905014	0.04092858359217644	-0.015008036978542805	0.1621807962656021	0.17357410490512848	0.15924948453903198	0.015698764473199844	0.00021699487115256488	0.08190780133008957	0.0011579019483178854	9.923796824296005e-06	0.0768522098660469	0.43805697560310364	0.6216875314712524	0.620089054107666	0.28164541721343994	0.30799442529678345	0.308001846075058	0.2611843943595886	0.040673624724149704	0.02572217769920826	0.2649761438369751	-0.007647782564163208	0.09986776113510132	0.04394000023603439	0.015193426981568336	0.0981609970331192	0.029177971184253693	0.13254280388355255	0.09767957776784897	0.10334616899490356	0.06807082146406174	0.20953775942325592	-0.07426681369543076	0.06357870995998383	0.11305747181177139	0.1175093725323677	0.17598077654838562	0.07168316841125488	0.08032169938087463	0.05650920048356056	0.12439163029193878	0.1922895759344101	0.007029393687844276	0.04171793907880783	0.11878614127635956	0.1319814920425415	0.0679781511425972	0.15330688655376434	0.13725946843624115	0.06052364036440849	0.06522347778081894	0.072786845266819	0.05296224355697632	0.072078175842762	0.07301729172468185	
Oui/couche/fine	0.22093136608600616	0.1374584585428238	0.1457316130399704	0.2868409752845764	0.14219506084918976	0.2747231423854828	0.07109476625919342	0.1462211161851883	0.0420236773788929	0.09220778197050095	0.20978876948356628	0.139063760638237	0.04179305210709572	0.37898796796798706	0.6151254177093506	1.0	0.5474621653556824	0.27425703406333923	0.3910171389579773	0.32702764868736267	0.6255543231964111	0.0355241522192955	0.1091504842042923	0.1550833135843277	0.1997440904378891	0.21342450380325317	0.17322160303592682	0.08760281652212143	0.13556960225105286	0.021749673411250114	0.24168995022773743	0.13270962238311768	0.12644578516483307	0.16017316281795502	0.11472401022911072	0.029644498601555824	0.18525010347366333	0.13963311910629272	0.12853485345840454	0.062076956033706665	-0.0030501028522849083	0.05385769531130791	0.10764390230178833	-0.0068803271278738976	-0.08033239096403122	0.06606873869895935	0.18001310527324677	0.03431450203061104	-0.0010311678051948547	-0.027169402688741684	0.03679118677973747	-0.031175857409834862	0.10298037528991699	0.03195793181657791	0.14453700184822083	0.06168634817004204	0.0039005568251013756	0.055416740477085114	0.09618663787841797	0.1845313012599945	0.0934988334774971	-0.004553200211375952	-0.021899284794926643	0.06325016915798187	0.15043458342552185	0.015413179993629456	-0.0957305058836937	0.06659936904907227	-0.014698334969580173	0.048298098146915436	0.08133287727832794	0.38935914635658264	0.7679997086524963	0.78437340259552	0.36516281962394714	0.3400929868221283	0.34013548493385315	0.39232137799263	0.039997611194849014	0.035144902765750885	0.3802206516265869	-0.010124529711902142	0.09646844863891602	0.08236891031265259	-0.03503500670194626	0.06296103447675705	0.03588493540883064	0.17406857013702393	0.11804482340812683	0.18392644822597504	0.09396683424711227	0.06483019143342972	-0.10873772203922272	0.13988354802131653	0.18802392482757568	0.1656952053308487	0.053308382630348206	0.08694005012512207	0.15807291865348816	0.16299645602703094	0.23881196975708008	0.12043951451778412	0.17198225855827332	0.09791390597820282	0.10114413499832153	0.22090306878089905	0.1861138492822647	0.14697739481925964	0.173785001039505	0.11078420281410217	0.17635183036327362	0.13613753020763397	0.17246633768081665	0.16566456854343414	0.10534213483333588	
Oui/robe/fine	0.19804947078227997	0.13925376534461975	0.1855785995721817	0.17107228934764862	0.2122182995080948	0.2036353051662445	0.12489736080169678	0.17416976392269135	0.06424281746149063	0.11908019334077835	0.24822364747524261	0.14655062556266785	-0.050633110105991364	0.37923887372016907	0.5480579137802124	0.5474621653556824	1.0	0.1895299106836319	0.2647855877876282	0.2581765353679657	0.5877596139907837	0.06850039213895798	0.01620495319366455	0.0298633836209774	0.04813425987958908	0.12149994820356369	0.1132759377360344	0.03178398311138153	0.06358397752046585	0.10012468695640564	0.1222456768155098	0.03643422573804855	0.16720342636108398	0.08952315896749496	0.04657183960080147	-0.001803076476790011	0.027390995994210243	0.17501600086688995	0.11537935584783554	0.09799019992351532	0.01222376711666584	0.0432908833026886	0.14555929601192474	0.16005277633666992	-0.060674749314785004	0.07768046110868454	0.06780647486448288	0.1054452508687973	0.08960001915693283	0.0034419239964336157	0.1595296412706375	0.07198502868413925	0.02045309543609619	0.18712525069713593	0.12926316261291504	0.02486267127096653	0.08016497641801834	0.1725485473871231	0.07925721257925034	0.11043878644704819	0.034532397985458374	-0.041510675102472305	-0.016817545518279076	0.1775902658700943	0.27932634949684143	0.011768516153097153	-0.02294577844440937	0.0827542394399643	0.017182432115077972	0.060387369245290756	0.06279458105564117	0.28073960542678833	0.5984225869178772	0.5590823888778687	0.4131937623023987	0.2866671681404114	0.3136933147907257	0.24337947368621826	0.009704953990876675	0.08413912355899811	0.240983247756958	-0.05825454741716385	0.09996750205755234	0.023672446608543396	0.0517091229557991	0.1183503270149231	0.042628854513168335	0.11668379604816437	0.15468132495880127	0.10725171118974686	0.07700066268444061	0.0581212192773819	-0.02278706431388855	-0.03583068400621414	0.10147825628519058	0.08353465050458908	0.6979124546051025	0.07245831191539764	0.030735168606042862	0.03467473015189171	0.07830066978931427	0.13971661031246185	0.05740511044859886	0.09879429638385773	0.06852679699659348	0.194884791970253	0.10194436460733414	0.18866650760173798	0.13149431347846985	0.06884043663740158	0.09981225430965424	0.09564264863729477	0.08955322206020355	0.10138947516679764	0.08621830493211746	
Oui/lames/fines	0.11284281313419342	0.14807520806789398	0.10897322744131088	0.13024182617664337	0.12270639836788177	0.15122677385807037	0.07047927379608154	0.20733098685741425	0.3096195459365845	0.07487168163061142	0.1774493157863617	0.23025473952293396	-0.00669499346986413	0.4460606575012207	0.24970315396785736	0.27425703406333923	0.1895299106836319	1.0	0.5413156151771545	0.5225811004638672	0.24442780017852783	-0.008169634267687798	0.04327443987131119	0.12201886624097824	0.09083013981580734	0.1252175122499466	0.145578071475029	0.15097324550151825	0.11345530301332474	0.1554585099220276	0.17100317776203156	0.1565839946269989	0.12528526782989502	0.18074263632297516	0.035491809248924255	0.019457152113318443	0.009298902004957199	0.15972281992435455	0.1600313037633896	0.17846904695034027	0.07763387262821198	0.11640781909227371	0.08729048818349838	0.1220519095659256	0.2527296245098114	0.0991339385509491	0.1648717224597931	0.07454019039869308	0.047235436737537384	-0.010946321301162243	0.3618091940879822	0.12876087427139282	0.21967977285385132	0.05388692393898964	0.18908868730068207	0.06404869258403778	0.056741904467344284	0.2254098802804947	0.06481768935918808	0.04848240315914154	0.06802479922771454	0.14993342757225037	0.2525818645954132	0.2015300989151001	0.19576919078826904	0.10457418859004974	0.5542376637458801	0.17941632866859436	0.17014119029045105	0.19994276762008667	0.2348034828901291	0.2627774775028229	0.3059193789958954	0.32316315174102783	0.4721086919307709	0.48221877217292786	0.5031945705413818	0.5069794058799744	0.011677106842398643	-0.002075641183182597	0.487924188375473	0.03331246227025986	0.08289837837219238	0.08143097907304764	0.032391902059316635	0.09504251927137375	0.06695935130119324	0.23718206584453583	0.11625796556472778	0.18553417921066284	0.11221214383840561	0.1088675707578659	0.10737697780132294	0.12335899472236633	0.1524810492992401	0.14149287343025208	0.04144473373889923	0.11762753874063492	0.1531253308057785	0.1541309505701065	0.15528905391693115	0.020455941557884216	0.22302177548408508	0.16320328414440155	0.14643408358097076	0.09857873618602753	0.06957656890153885	0.06488694250583649	0.05418102815747261	0.16132113337516785	0.06680375337600708	0.07859700918197632	0.08989692479372025	0.1253998875617981	0.06783673912286758	
Oui/feuilles/fines	0.07302581518888474	0.1104542538523674	0.026205826550722122	0.1141849160194397	-0.03899841010570526	0.1257997453212738	-0.046915821731090546	0.1860063225030899	0.04709092900156975	-0.0012428854824975133	0.02861671708524227	0.3709452152252197	0.019759710878133774	0.7072257995605469	0.2571660280227661	0.3910171389579773	0.2647855877876282	0.5413156151771545	1.0	0.7920023798942566	0.2769235074520111	-0.026621120050549507	0.007504586596041918	0.07278557121753693	0.07648289203643799	0.11593599617481232	0.12472280859947205	0.03988594189286232	0.07846091687679291	0.23226119577884674	0.16110600531101227	0.0883176177740097	0.09367717057466507	0.09806599467992783	0.06986287981271744	0.08261817693710327	0.11141746491193771	0.16568030416965485	0.16526176035404205	0.10153420269489288	0.09873359650373459	0.16154415905475616	0.1049327626824379	0.08733528852462769	0.007893001660704613	0.05180218815803528	0.07530511170625687	0.08914224058389664	-0.007203781045973301	-0.0538642480969429	-0.04567687585949898	0.052425630390644073	0.30241313576698303	0.0074962833896279335	0.021404488012194633	0.04631083831191063	-0.10078497976064682	0.061976779252290726	0.20192381739616394	0.1853332370519638	0.15814025700092316	-0.042825791984796524	-0.007985448464751244	0.11099612712860107	0.2021598368883133	0.016324898228049278	-0.020435063168406487	0.005234826821833849	-0.026651952415704727	0.06440042704343796	0.1756894737482071	0.23321141302585602	0.41822442412376404	0.3985387682914734	0.7162262201309204	0.6549456119537354	0.7099446058273315	0.6611552834510803	0.01824752613902092	-0.010976485908031464	0.7832279801368713	-0.007356508169323206	0.09795723855495453	0.031009765341877937	0.0893682986497879	-0.039301663637161255	0.125038281083107	0.2277911752462387	0.08159201592206955	0.19907647371292114	0.1617087870836258	0.06495092064142227	-0.07296367734670639	0.09388095140457153	0.10831891745328903	0.11692006140947342	-0.007222991902381182	0.09031540155410767	0.11132550984621048	0.18953624367713928	0.12250301241874695	-0.026517609134316444	0.15397079288959503	0.11739573627710342	0.028434984385967255	0.09401402622461319	0.13432857394218445	0.0270866546779871	0.05305614322423935	0.0886661633849144	0.10775110125541687	0.05055904760956764	0.10959027707576752	0.15617944300174713	0.020515447482466698	
Oui/moustaches/fines	0.11006832122802734	0.21019336581230164	0.02442820370197296	0.13860921561717987	-0.0028469208627939224	0.14796049892902374	-0.03569086641073227	0.09933726489543915	0.1524474024772644	0.05910959094762802	0.06502185016870499	0.18954089283943176	0.10699161887168884	0.7882038354873657	0.263519823551178	0.32702764868736267	0.2581765353679657	0.5225811004638672	0.7920023798942566	1.0	0.247942715883255	-0.00415651872754097	0.0653408095240593	0.08537133038043976	0.08374637365341187	0.14056269824504852	0.1659441590309143	0.02958066388964653	0.13355380296707153	0.11881519109010696	0.12878075242042542	0.12842655181884766	0.1057971864938736	0.10953021794557571	0.09173326194286346	0.11634010821580887	0.14054620265960693	0.1266942322254181	0.02564583718776703	0.10925036668777466	0.1193825826048851	0.16222195327281952	0.18497531116008759	0.1682729870080948	0.02824058011174202	0.017155835404992104	0.04365500807762146	0.08343277126550674	0.054059166461229324	-0.08070816844701767	-0.05079687759280205	0.031396929174661636	0.3029240071773529	-0.06975651532411575	0.043155133724212646	0.008032900281250477	-0.06886892020702362	-0.039794519543647766	0.15473555028438568	0.12974433600902557	0.07865582406520844	-0.08856956660747528	0.03607408329844475	0.22552810609340668	0.24081072211265564	-0.1001637876033783	-0.09814514964818954	0.0020073617342859507	-0.08327315747737885	0.05596942827105522	0.11520987004041672	0.29488906264305115	0.5254296660423279	0.3569166660308838	0.7656908631324768	0.750349223613739	0.8291279077529907	0.6678467392921448	0.09244751185178757	0.07163210958242416	0.8187258839607239	0.04187353327870369	0.16979263722896576	-0.008559038862586021	0.18447601795196533	-0.03625527024269104	0.14976663887500763	0.2604762017726898	0.06881461292505264	0.17803972959518433	0.10462508350610733	0.04840577021241188	-0.06579896062612534	0.04550178349018097	0.06787565350532532	0.1537070870399475	-0.014414421282708645	0.08862975984811783	0.1305040866136551	0.10288526117801666	0.13760843873023987	0.021954692900180817	0.0559377558529377	0.14866209030151367	0.06380150467157364	0.1558438390493393	0.12802113592624664	0.0536888986825943	0.09521225839853287	0.11777663230895996	0.1213814988732338	0.0861656442284584	0.1518823653459549	0.16910098493099213	0.07666745781898499	
Oui/laine/fine	0.22708666324615479	0.08146000653505325	0.12689150869846344	0.20105695724487305	0.1984003186225891	0.27566948533058167	0.13580405712127686	0.17414340376853943	0.06767687946557999	0.05658659338951111	0.21876253187656403	0.09325534850358963	0.03653280436992645	0.2879318296909332	0.5760072469711304	0.6255543231964111	0.5877596139907837	0.24442780017852783	0.2769235074520111	0.247942715883255	1.0	0.19001325964927673	0.13578902184963226	0.08605485409498215	0.15640456974506378	0.16355940699577332	0.1792181134223938	0.13208377361297607	0.16934415698051453	0.10122055560350418	0.26225242018699646	0.08106476068496704	0.16194725036621094	0.1491071879863739	0.12681028246879578	0.08110907673835754	0.1529882848262787	0.13555578887462616	0.20300665497779846	0.12142190337181091	0.07225362956523895	0.16017821431159973	0.14514441788196564	0.13556911051273346	-0.03790231794118881	0.10885699838399887	0.23964354395866394	0.04312665015459061	0.006077815778553486	0.08045709133148193	0.11753492802381516	0.11181565374135971	0.07881753146648407	0.32283931970596313	0.20256832242012024	0.030833600088953972	0.05118387192487717	0.16224133968353271	0.0923674926161766	0.16051608324050903	0.09811406582593918	-0.054038308560848236	0.06592942774295807	0.10934606194496155	0.22952891886234283	0.12434998154640198	-0.03876522183418274	0.05303685739636421	0.148869127035141	0.05856132134795189	0.26504093408584595	0.36624372005462646	0.6654762029647827	0.6673483848571777	0.32930248975753784	0.30314770340919495	0.24875043332576752	0.2686620354652405	0.06735891848802567	0.11247605830430984	0.295698344707489	-0.019992487505078316	0.14808274805545807	0.11583539098501205	0.08443727344274521	0.11429110914468765	0.05246357247233391	0.14475388824939728	0.1300077736377716	0.11223768442869186	0.12158288806676865	0.07506102323532104	-0.024890121072530746	0.11791369318962097	0.143411785364151	0.13302229344844818	0.20510651171207428	0.1179816871881485	0.12338308990001678	0.12443127483129501	0.24202798306941986	0.07422901690006256	0.08789192140102386	0.1506342589855194	0.12988637387752533	0.19759328663349152	0.1108248382806778	0.1685636192560196	0.14551080763339996	0.07967893779277802	0.10766500979661942	0.17047034204006195	0.12372535467147827	0.14882345497608185	0.14142946898937225	
Oui/tissu/fin	-0.0029680177103728056	-0.06773602217435837	-0.1712879091501236	0.04975026100873947	0.11130012571811676	0.10452136397361755	0.08151069283485413	0.0558348149061203	-0.07530627399682999	0.007077408488839865	0.07092199474573135	-0.0558907575905323	0.8101420998573303	0.033987294882535934	0.09497316926717758	0.0355241522192955	0.06850039213895798	-0.008169634267687798	-0.026621120050549507	-0.00415651872754097	0.19001325964927673	1.0	0.8566710948944092	0.022844351828098297	0.1970077008008957	0.2524024248123169	0.040845707058906555	0.09329012036323547	0.04039837792515755	0.07583948969841003	0.19203133881092072	0.1009569987654686	0.18873193860054016	0.09483639895915985	0.08227760344743729	0.042097050696611404	0.1735011637210846	-0.041323158890008926	0.10700656473636627	0.05231821537017822	0.08632581681013107	0.049317412078380585	0.06576234102249146	0.05361458659172058	0.08812878280878067	-0.04277246445417404	0.08976851403713226	-0.15065324306488037	0.035886961966753006	-0.02144511416554451	-0.03849024325609207	0.0015697882045060396	0.07720702886581421	0.5336840748786926	0.2461037039756775	0.048681218177080154	0.060251232236623764	0.08488127589225769	-0.029091620817780495	0.06839565932750702	-0.020352553576231003	-0.05334201827645302	-0.030848149210214615	0.06326596438884735	0.13497118651866913	0.04880818352103233	-0.02292506769299507	-0.1038866639137268	0.09501667320728302	0.05864209309220314	0.06556849181652069	0.05162516608834267	0.06949807703495026	0.1406889706850052	0.051481083035469055	-0.016489699482917786	0.017664534971117973	0.010269109159708023	0.8640798330307007	0.828040599822998	0.014491582289338112	0.7562227845191956	0.024507738649845123	0.10221236944198608	-0.00486222468316555	-0.016420019790530205	0.10115382820367813	0.08034542948007584	0.06242517754435539	0.0693461149930954	0.06582745164632797	-0.023800283670425415	-0.055903058499097824	-0.10637069493532181	0.08645958453416824	0.10139628499746323	0.15910778939723969	0.13030748069286346	0.14497274160385132	0.07106149941682816	0.21833747625350952	0.13597655296325684	0.03658594936132431	0.08324363827705383	0.2019251585006714	0.08547989279031754	0.05692943185567856	0.11717431992292404	0.12048635631799698	0.1264680176973343	0.06659869849681854	0.2774527966976166	0.13227492570877075	0.13684436678886414	0.26499927043914795	
Oui/matelas/fin	-0.015403383411467075	-0.03594653680920601	-0.23626893758773804	0.10136416554450989	0.023509735241532326	0.13418497145175934	0.021995974704623222	0.06323114037513733	-0.06344639509916306	-0.006734716705977917	0.03303234651684761	-0.06618902087211609	0.8671229481697083	0.0644441619515419	0.06476357579231262	0.1091504842042923	0.01620495319366455	0.04327443987131119	0.007504586596041918	0.0653408095240593	0.13578902184963226	0.8566710948944092	1.0	0.11559836566448212	0.24672923982143402	0.2906411290168762	0.07316212356090546	0.14308470487594604	0.10821934044361115	0.02921074628829956	0.2443540245294571	0.13952228426933289	0.205769345164299	0.15386153757572174	0.06443741917610168	0.04777052253484726	0.1897251009941101	-0.037204641848802567	0.09192477911710739	0.07834059000015259	0.09749362617731094	0.03866560757160187	0.09978295862674713	0.012295749969780445	0.07095552235841751	-0.04514374956488609	0.05973416194319725	-0.1698329895734787	0.02727176435291767	-0.03962535783648491	-0.01544644869863987	-0.021014513447880745	0.11775534600019455	0.22844338417053223	0.23173509538173676	0.010559922084212303	-0.016434190794825554	0.09566929936408997	0.008370976895093918	0.08452822268009186	-0.005728152580559254	-0.07324586808681488	-0.014000876806676388	0.12373246997594833	0.18470674753189087	0.032874979078769684	-0.048103999346494675	-0.08961205929517746	0.004352032206952572	0.016761891543865204	0.0588081069290638	0.09463400393724442	0.13425423204898834	0.1724146008491516	0.10111632943153381	0.053436607122421265	0.09431634843349457	0.017787326127290726	0.874810516834259	0.849124014377594	0.09842556715011597	0.8078965544700623	0.0393710657954216	0.027789510786533356	-0.0005872271140106022	-0.06319291144609451	0.10156341642141342	0.1127537190914154	0.0569441094994545	0.10145805031061172	0.06145671010017395	-0.055286578834056854	-0.1301988661289215	-0.05801922827959061	0.14574134349822998	0.1726588010787964	0.050887271761894226	0.14890103042125702	0.15930740535259247	0.06250769644975662	0.22900015115737915	0.1344350278377533	0.08106487989425659	0.12309060990810394	0.23760229349136353	0.10457804799079895	0.03633061796426773	0.11404387652873993	0.12011265009641647	0.1346065253019333	0.04854763299226761	0.2626408040523529	0.15632407367229462	0.16021911799907684	0.2757553458213806	
Non/couple/beau	0.10613637417554855	0.06517014652490616	0.05020343139767647	0.17680825293064117	0.01272871159017086	0.1304609775543213	0.0330955795943737	0.05505003780126572	0.07534916698932648	0.04623951390385628	0.05584710091352463	0.034089136868715286	0.12082891166210175	0.1321668028831482	0.07605127990245819	0.1550833135843277	0.0298633836209774	0.12201886624097824	0.07278557121753693	0.08537133038043976	0.08605485409498215	0.022844351828098297	0.11559836566448212	1.0	0.370157927274704	0.4101814031600952	0.3888658583164215	0.627496600151062	0.5833519697189331	0.15129287540912628	0.38263675570487976	0.6321538686752319	0.683219850063324	0.6737490892410278	0.17151586711406708	0.39620110392570496	0.18473759293556213	0.06539557129144669	0.0062324656173586845	0.3265390396118164	0.3577430248260498	0.2645628750324249	0.17453105747699738	0.1731550395488739	0.24426671862602234	0.03393781557679176	0.08016107231378555	-0.11608423292636871	0.05352449789643288	-0.027625594288110733	0.024965299293398857	0.05549638345837593	0.2599579691886902	0.02527425065636635	0.151866614818573	0.17689615488052368	-0.031201135367155075	0.10540179163217545	0.2197599858045578	0.1664571464061737	0.1820019781589508	0.041151486337184906	0.10318394750356674	0.04956687614321709	0.1454252451658249	0.13019731640815735	0.07644841074943542	-0.037824273109436035	0.0911450982093811	0.21071626245975494	0.15278929471969604	0.08566250652074814	0.14579378068447113	0.1784844547510147	0.08370691537857056	0.1222199946641922	0.04755405709147453	0.13912856578826904	0.0434931181371212	0.07582072168588638	0.15887370705604553	0.07245877385139465	0.3807295858860016	0.09310562908649445	0.253605455160141	-0.01048735249787569	0.34552666544914246	0.08036398142576218	0.15645726025104523	-0.030142594128847122	0.030190052464604378	0.03399862349033356	0.04117165133357048	0.6397391557693481	0.5709745287895203	0.7539533376693726	0.11338173598051071	0.6921147108078003	0.3158683776855469	0.3446703255176544	0.35776692628860474	0.2855229377746582	0.26901501417160034	0.6469265818595886	0.16337800025939941	0.42938855290412903	0.20952121913433075	0.25127434730529785	0.4262520968914032	0.42432981729507446	0.2472289353609085	0.2611546814441681	0.4573030471801758	0.4386630058288574	0.2699967324733734	
Oui/marquise/belle	0.2030843198299408	0.09723452478647232	-0.013607727363705635	0.3001013994216919	0.1315578669309616	0.289065957069397	0.1493190973997116	0.14964109659194946	0.039142265915870667	0.21887852251529694	0.15694043040275574	0.11618436127901077	0.2340230792760849	0.09691394865512848	0.09435123205184937	0.1997440904378891	0.04813425987958908	0.09083013981580734	0.07648289203643799	0.08374637365341187	0.15640456974506378	0.1970077008008957	0.24672923982143402	0.370157927274704	1.0	0.7417054772377014	0.2531319856643677	0.4143504202365875	0.5808280110359192	0.3642241954803467	0.5953181982040405	0.35351797938346863	0.3757319450378418	0.3761184513568878	0.11436138302087784	0.22574788331985474	0.42615389823913574	0.22015762329101562	0.06522808969020844	0.24597963690757751	0.2110099196434021	0.2362186759710312	0.26247990131378174	0.1643434464931488	0.15824884176254272	0.10745462775230408	0.12433145195245743	-0.25288820266723633	0.08416318893432617	-0.03525630012154579	0.08840665966272354	0.041278719902038574	0.17163892090320587	0.06383146345615387	0.2028151899576187	0.11966022849082947	-0.023035626858472824	0.05396663770079613	0.0810714066028595	0.15797406435012817	0.05333620682358742	0.02609565295279026	0.005861999001353979	0.12099330872297287	0.09981098771095276	0.17293792963027954	0.03666413202881813	-0.011097576469182968	0.11367738991975784	0.12760548293590546	0.14315851032733917	0.09803737699985504	0.20932640135288239	0.20783959329128265	0.055656034499406815	0.03480765223503113	0.08245542645454407	0.043715059757232666	0.2584644556045532	0.236832857131958	0.10904476046562195	0.2622271180152893	0.19008629024028778	0.05895902216434479	0.22879824042320251	0.14499470591545105	0.23112116754055023	0.13688424229621887	0.14784550666809082	0.16554602980613708	0.06257008761167526	0.08688897639513016	0.07680986821651459	0.3988400101661682	0.34448716044425964	0.39330771565437317	0.25314849615097046	0.38411274552345276	0.24775971472263336	0.3084389269351959	0.6716136336326599	0.1944936215877533	0.48551109433174133	0.3878757655620575	0.34526336193084717	0.39131829142570496	0.22935529053211212	0.3600742220878601	0.2902471125125885	0.34245970845222473	0.23277442157268524	0.5435556173324585	0.41329407691955566	0.4140072464942932	0.5186598896980286	
Oui/princesse/belle	0.26885145902633667	0.1532178670167923	-0.005287235137075186	0.34465745091438293	0.14882022142410278	0.35294097661972046	0.16347214579582214	0.159474179148674	0.110427625477314	0.22326049208641052	0.18595558404922485	0.1206057071685791	0.30678436160087585	0.16622617840766907	0.1157115176320076	0.21342450380325317	0.12149994820356369	0.1252175122499466	0.11593599617481232	0.14056269824504852	0.16355940699577332	0.2524024248123169	0.2906411290168762	0.4101814031600952	0.7417054772377014	1.0	0.3131328225135803	0.44488152861595154	0.4875309467315674	0.37044548988342285	0.6240675449371338	0.39537274837493896	0.4266241788864136	0.42365458607673645	0.14616572856903076	0.27720269560813904	0.4966127872467041	0.17806535959243774	0.023236656561493874	0.20530962944030762	0.2257886379957199	0.20139019191265106	0.2790530323982239	0.14508667588233948	0.15561994910240173	0.10210132598876953	0.01897233910858631	-0.2149391919374466	0.11372121423482895	-0.03592498227953911	0.11297543346881866	0.03728201240301132	0.23181168735027313	0.0925266370177269	0.23583343625068665	0.12718410789966583	-0.046972449868917465	-9.07756038941443e-05	0.13509133458137512	0.22037196159362793	0.0956825390458107	-0.03725692257285118	0.05916421860456467	0.08748702704906464	0.12984684109687805	0.16483594477176666	0.026360606774687767	-0.002202508505433798	0.08003263175487518	0.13224223256111145	0.11111532151699066	0.08336073905229568	0.2635503113269806	0.2519106864929199	0.15195806324481964	0.10916364192962646	0.11585841327905655	0.0914463922381401	0.29600533843040466	0.29277506470680237	0.13071110844612122	0.3257075548171997	0.25289735198020935	0.023288503289222717	0.2405213564634323	0.05969630926847458	0.23138131201267242	0.19455765187740326	0.07549360394477844	0.10847209393978119	0.041733551770448685	0.10779305547475815	0.048696309328079224	0.40751808881759644	0.30360257625579834	0.5069953799247742	0.3472774922847748	0.4113430380821228	0.2885001003742218	0.3497724235057831	0.6988524198532104	0.275980681180954	0.44258925318717957	0.39425429701805115	0.39911124110221863	0.4433993995189667	0.35400646924972534	0.4321298599243164	0.3757169544696808	0.3816879987716675	0.3690051734447479	0.6034675240516663	0.4445781409740448	0.4413933753967285	0.578027606010437	
Oui/chevaux/beaux	0.14302638173103333	0.10583972185850143	-0.029469745233654976	0.16766196489334106	0.09012311697006226	0.18117019534111023	0.0704929307103157	0.11154382675886154	0.12572145462036133	0.10864786058664322	0.1904519647359848	0.1399986892938614	0.058107081800699234	0.10109371691942215	0.12836945056915283	0.17322160303592682	0.1132759377360344	0.145578071475029	0.12472280859947205	0.1659441590309143	0.1792181134223938	0.040845707058906555	0.07316212356090546	0.3888658583164215	0.2531319856643677	0.3131328225135803	1.0	0.38427621126174927	0.40048524737358093	0.19326336681842804	0.28177380561828613	0.341286838054657	0.36612775921821594	0.39155954122543335	0.432199627161026	0.22968429327011108	0.17975667119026184	0.0656019002199173	0.263892263174057	0.1910012811422348	0.2169770747423172	0.2250426858663559	0.33075788617134094	0.1637023538351059	0.12193275988101959	-0.05382090061903	0.2981739342212677	-0.044076357036828995	0.006201720330864191	0.00018895967514254153	0.08997616171836853	0.1096319779753685	0.19579221308231354	0.06383835524320602	0.223788782954216	0.12622089684009552	0.017259294167160988	0.08755043894052505	0.16728948056697845	0.17476487159729004	0.13189704716205597	0.004431818146258593	0.07055028527975082	0.024799039587378502	0.13300897181034088	0.11931414902210236	0.10158897191286087	0.014554708264768124	0.17487658560276031	0.10359318554401398	0.1130964607000351	0.1309259533882141	0.18140798807144165	0.19096505641937256	0.11776085197925568	0.1743784248828888	0.06984055787324905	0.09485938400030136	0.03273329883813858	0.05953718349337578	0.16858656704425812	0.08597760647535324	0.22205069661140442	0.25885501503944397	0.30536261200904846	0.05051909387111664	0.1966337114572525	0.21703724563121796	0.10943134129047394	0.06796545535326004	0.2645503282546997	0.08073460310697556	0.08288931846618652	0.29051023721694946	0.29988473653793335	0.40259650349617004	0.16251859068870544	0.3607155680656433	0.6063153147697449	0.7154425978660583	0.24652940034866333	0.4784504175186157	0.20363932847976685	0.3727273941040039	0.08890509605407715	0.24874190986156464	0.3959706723690033	0.09855154156684875	0.2315259873867035	0.27976253628730774	0.4288022816181183	0.14561526477336884	0.24380353093147278	0.23801234364509583	0.1346254199743271	
Oui/violon/beau	0.1555113047361374	0.14851661026477814	0.008041376248002052	0.19508439302444458	0.13380324840545654	0.2105080783367157	0.13154380023479462	0.20701639354228973	0.16520696878433228	0.1693885177373886	0.19703316688537598	0.15237845480442047	0.11204765737056732	0.08462134003639221	0.07587846368551254	0.08760281652212143	0.03178398311138153	0.15097324550151825	0.03988594189286232	0.02958066388964653	0.13208377361297607	0.09329012036323547	0.14308470487594604	0.627496600151062	0.4143504202365875	0.44488152861595154	0.38427621126174927	1.0	0.5698795318603516	0.25474533438682556	0.3902103006839752	0.6404469609260559	0.7117658853530884	0.6416876912117004	0.1582850068807602	0.404582142829895	0.18906714022159576	0.12726889550685883	0.08486361801624298	0.3654611110687256	0.3606680929660797	0.30240216851234436	0.1283242255449295	0.25933390855789185	0.36555275321006775	0.022219417616724968	0.1369750201702118	-0.20369437336921692	0.08790718764066696	0.0042797415517270565	0.15434987843036652	0.1196751594543457	0.15480434894561768	0.08438178896903992	0.13786980509757996	0.06433571130037308	-0.02456313744187355	0.10093598067760468	0.2062627226114273	0.16308118402957916	0.16689370572566986	0.09924307465553284	0.09906963258981705	0.03598260134458542	0.10522712022066116	0.15718165040016174	0.12356863170862198	0.013773697428405285	0.1586734503507614	0.10763907432556152	0.10944238305091858	0.12444380670785904	0.12487395852804184	0.16674672067165375	0.037071630358695984	0.06621623039245605	0.003231392940506339	0.07164215296506882	0.1340360939502716	0.09852949529886246	0.11069072037935257	0.17139190435409546	0.429590106010437	0.11486776173114777	0.2613646388053894	0.0682847797870636	0.40202829241752625	0.09024570137262344	0.19572065770626068	0.042330313473939896	0.17277073860168457	0.1139361709356308	0.15160904824733734	0.5800521373748779	0.5579786896705627	0.7038087248802185	0.19735148549079895	0.6785966753959656	0.3846184015274048	0.4099183678627014	0.44354569911956787	0.32550400495529175	0.3360075056552887	0.6643822193145752	0.23719686269760132	0.4428870677947998	0.276050329208374	0.22757133841514587	0.40931811928749084	0.46885064244270325	0.28239715099334717	0.388855904340744	0.5083416700363159	0.478117972612381	0.34241238236427307	
Oui/baron/beau	0.10024815052747726	0.05410223826766014	-0.07060214877128601	0.1692999303340912	0.03492080792784691	0.1628066748380661	0.07783346623182297	0.14714792370796204	0.11450061947107315	0.10294941067695618	0.15202009677886963	0.10076675564050674	0.10244044661521912	0.13398680090904236	0.058448512107133865	0.13556960225105286	0.06358397752046585	0.11345530301332474	0.07846091687679291	0.13355380296707153	0.16934415698051453	0.04039837792515755	0.10821934044361115	0.5833519697189331	0.5808280110359192	0.4875309467315674	0.40048524737358093	0.5698795318603516	1.0	0.22741471230983734	0.3610166013240814	0.5075201988220215	0.5908908247947693	0.5697193145751953	0.18626058101654053	0.346527636051178	0.1987755447626114	0.10642179846763611	0.0969463661313057	0.3034864366054535	0.2855603098869324	0.23998458683490753	0.229292631149292	0.24629434943199158	0.22296960651874542	0.10161411762237549	0.16263286769390106	-0.16516059637069702	0.024334799498319626	-0.03460349887609482	0.12975214421749115	0.04386831820011139	0.16168412566184998	0.031225573271512985	0.15755358338356018	0.10257510095834732	0.0015282828826457262	0.05781417712569237	0.14548932015895844	0.11429031193256378	0.07836174219846725	-0.018542826175689697	0.0836961641907692	0.0945201963186264	0.12204515188932419	0.14290682971477509	0.07195252180099487	-0.00892345979809761	0.10603988915681839	0.18405209481716156	0.1579274982213974	0.07659395784139633	0.1969933956861496	0.1604388952255249	0.0814695730805397	0.07930080592632294	0.08432327955961227	0.12590187788009644	0.07478523254394531	0.06540259718894958	0.14257074892520905	0.07519493997097015	0.3347820043563843	0.08193490654230118	0.28554481267929077	0.05844048410654068	0.30795228481292725	0.12427406758069992	0.1335354745388031	0.021787909790873528	0.1385485976934433	0.05885150656104088	0.035177942365407944	0.4845874607563019	0.4728642404079437	0.6277798414230347	0.15598264336585999	0.5648653507232666	0.3534786105155945	0.40133363008499146	0.4025978446006775	0.25568312406539917	0.27674469351768494	0.6153119802474976	0.15476000308990479	0.46397027373313904	0.18957363069057465	0.20173124969005585	0.38544654846191406	0.4514942169189453	0.20225369930267334	0.28814616799354553	0.49311399459838867	0.4622468650341034	0.24575065076351166	
Oui/fleurs/belles	0.2014167159795761	0.14620210230350494	0.07686609029769897	0.12047550827264786	0.22257502377033234	0.19926422834396362	0.1265448033809662	0.2925293743610382	0.17663218080997467	0.1814512014389038	0.15114843845367432	0.3330974578857422	-0.0006664827233180404	0.09265343099832535	0.07942280173301697	0.021749673411250114	0.10012468695640564	0.1554585099220276	0.23226119577884674	0.11881519109010696	0.10122055560350418	0.07583948969841003	0.02921074628829956	0.15129287540912628	0.3642241954803467	0.37044548988342285	0.19326336681842804	0.25474533438682556	0.22741471230983734	1.0	0.3645169138908386	0.247853085398674	0.19479025900363922	0.1766730099916458	0.08738197386264801	0.12586063146591187	0.17064307630062103	0.09976106137037277	0.2911973297595978	0.14221370220184326	0.15842792391777039	0.2230197936296463	0.13548079133033752	0.19310279190540314	0.1845693588256836	0.1660141497850418	0.13610543310642242	-0.003392381127923727	0.21654000878334045	-0.003998349420726299	0.1673969179391861	0.2585070729255676	0.26323023438453674	0.18298505246639252	0.11644801497459412	0.11718140542507172	0.10133446753025055	0.0876355841755867	0.14293590188026428	0.15230342745780945	0.00021781449322588742	0.05392249673604965	0.1385621428489685	0.18855378031730652	0.2162337303161621	0.18715088069438934	0.1727163940668106	0.19061753153800964	0.19662906229496002	0.18611782789230347	0.23140454292297363	0.03868982195854187	0.0368320494890213	0.03920752927660942	0.12510491907596588	0.11946079134941101	0.09132006019353867	0.07947886735200882	0.07543151080608368	0.08309561014175415	0.13527947664260864	0.050001274794340134	0.15419164299964905	0.10433828830718994	0.19342966377735138	0.07490745931863785	0.1142365038394928	0.23813101649284363	0.1165909469127655	0.30469998717308044	0.04907466471195221	0.1931091696023941	0.0708431825041771	0.11500683426856995	0.17244553565979004	0.2097398340702057	0.32447534799575806	0.23150628805160522	0.12485689669847488	0.3728880286216736	0.3131534457206726	0.2181376814842224	0.3079405128955841	0.24335138499736786	0.26925352215766907	0.22170746326446533	0.1660040318965912	0.28277868032455444	0.19235466420650482	0.1743619441986084	0.1878221482038498	0.2801697850227356	0.2272454798221588	0.303274542093277	0.2468227744102478	
Oui/maison/belle	0.15857577323913574	0.0808883011341095	0.04810602590441704	0.21696384251117706	0.09144915640354156	0.27614039182662964	0.09429662674665451	0.14815936982631683	0.0034404397010803223	0.15993474423885345	0.09771402180194855	0.08121256530284882	0.2028476893901825	0.13624067604541779	0.1675758808851242	0.24168995022773743	0.1222456768155098	0.17100317776203156	0.16110600531101227	0.12878075242042542	0.26225242018699646	0.19203133881092072	0.2443540245294571	0.38263675570487976	0.5953181982040405	0.6240675449371338	0.28177380561828613	0.3902103006839752	0.3610166013240814	0.3645169138908386	1.0	0.3237432837486267	0.39318040013313293	0.4082944691181183	0.10581102967262268	0.18097403645515442	0.3307342529296875	0.31338801980018616	0.09644220769405365	0.21792365610599518	0.2626332938671112	0.16857142746448517	0.34042155742645264	0.10666480660438538	0.16819670796394348	0.10676632076501846	0.0992211252450943	-0.10184154659509659	0.06741362810134888	0.0410013273358345	0.09664638340473175	0.13828110694885254	0.25635629892349243	0.16464589536190033	0.2144683450460434	0.24485565721988678	0.022307801991701126	0.244165301322937	0.19185200333595276	0.2532295286655426	0.1799241155385971	-0.005793982185423374	0.03946670889854431	0.20117829740047455	0.2758576273918152	0.22558380663394928	0.06924167275428772	0.04178221896290779	0.17177262902259827	0.20429624617099762	0.2120620459318161	0.13230159878730774	0.2506349980831146	0.3072362542152405	0.17166368663311005	0.14609907567501068	0.17261482775211334	0.18947291374206543	0.2073473036289215	0.20460698008537292	0.21398353576660156	0.20891650021076202	0.15351909399032593	0.08434799313545227	0.10877920687198639	0.1299421787261963	0.2030176818370819	0.1473502516746521	0.16339923441410065	0.183296799659729	0.05260252580046654	0.11008649319410324	0.004789312835782766	0.40470972657203674	0.3764239251613617	0.3870753347873688	0.27677473425865173	0.37807488441467285	0.24671155214309692	0.28922903537750244	0.6709299087524414	0.22634004056453705	0.5146740078926086	0.3630298376083374	0.3710585832595825	0.3279322385787964	0.24490177631378174	0.38371148705482483	0.2431226372718811	0.2597620487213135	0.26316893100738525	0.48762136697769165	0.31526118516921997	0.3242412507534027	0.4269659221172333	
Oui/visage/beau	0.14626067876815796	0.08722532540559769	-0.01220596581697464	0.16170108318328857	0.26753705739974976	0.13366587460041046	0.10785070061683655	0.09676021337509155	0.16600149869918823	0.18446090817451477	0.19062866270542145	0.0761822983622551	0.1276395320892334	0.07270006835460663	0.25737231969833374	0.13270962238311768	0.03643422573804855	0.1565839946269989	0.0883176177740097	0.12842655181884766	0.08106476068496704	0.1009569987654686	0.13952228426933289	0.6321538686752319	0.35351797938346863	0.39537274837493896	0.341286838054657	0.6404469609260559	0.5075201988220215	0.247853085398674	0.3237432837486267	1.0	0.7063143849372864	0.6146199703216553	0.1736152619123459	0.34834399819374084	0.16202256083488464	0.06191876158118248	0.055991776287555695	0.2939164340496063	0.33141735196113586	0.2897328734397888	0.10440602153539658	0.24907198548316956	0.29819655418395996	0.04960116371512413	0.1260291486978531	-0.15414975583553314	0.31760942935943604	0.003894808003678918	0.09900432080030441	0.12499652802944183	0.22164809703826904	0.09925588220357895	0.1860925704240799	0.16727781295776367	0.08115402609109879	0.04224568232893944	0.1035187765955925	0.08840704709291458	0.059806354343891144	0.07560969889163971	0.18484830856323242	0.19776028394699097	0.1593690812587738	0.144394189119339	0.15934954583644867	0.011130327358841896	0.07750523090362549	0.1580066829919815	0.15981577336788177	0.1416197568178177	0.1885378509759903	0.16506536304950714	0.074969582259655	0.11290879547595978	0.13936464488506317	0.105185866355896	0.1259576380252838	0.08159785717725754	0.14276517927646637	0.13905371725559235	0.31429654359817505	0.133510023355484	0.22114291787147522	0.06640388071537018	0.36132293939590454	0.08269941061735153	0.15385781228542328	0.01619527116417885	0.08506086468696594	0.1851828545331955	0.05069982260465622	0.5912051796913147	0.5627778768539429	0.6774672865867615	0.16584034264087677	0.6901531219482422	0.3876895308494568	0.42235884070396423	0.4090864658355713	0.4323551058769226	0.3053842782974243	0.701465904712677	0.2672957479953766	0.41484665870666504	0.2245549112558365	0.17416596412658691	0.44404080510139465	0.4627701938152313	0.26261791586875916	0.2957893908023834	0.5269572138786316	0.4794852137565613	0.27776628732681274	
Oui/pantalon/beau	0.15292730927467346	0.09178575128316879	-0.08915144205093384	0.1822744756937027	0.13720735907554626	0.24280229210853577	0.13209062814712524	0.15399587154388428	0.1135457307100296	0.1785489320755005	0.2732171416282654	0.14799481630325317	0.17008167505264282	0.21592316031455994	0.09336525201797485	0.12644578516483307	0.16720342636108398	0.12528526782989502	0.09367717057466507	0.1057971864938736	0.16194725036621094	0.18873193860054016	0.205769345164299	0.683219850063324	0.3757319450378418	0.4266241788864136	0.36612775921821594	0.7117658853530884	0.5908908247947693	0.19479025900363922	0.39318040013313293	0.7063143849372864	1.0	0.7328391671180725	0.22895589470863342	0.4506787657737732	0.1954488903284073	0.13603575527668	0.004115555435419083	0.4067717492580414	0.4353058636188507	0.31274643540382385	0.17472003400325775	0.37046918272972107	0.3787389099597931	-0.008097434416413307	0.16660387814044952	-0.16637922823429108	0.14146198332309723	-0.004170560743659735	0.13357867300510406	0.11111072450876236	0.17979860305786133	0.21163839101791382	0.25438961386680603	0.13559255003929138	-0.015960894525051117	0.13982939720153809	0.11827610433101654	0.06971895694732666	0.09075939655303955	0.021362580358982086	0.08473441004753113	0.1797724962234497	0.31015363335609436	0.1367698609828949	0.13807480037212372	-0.07817837595939636	0.10504303127527237	0.20820006728172302	0.20411473512649536	0.05471546947956085	0.17550617456436157	0.21067874133586884	0.19409668445587158	0.13743655383586884	0.11066985875368118	0.1590234637260437	0.19243478775024414	0.17121072113513947	0.16117402911186218	0.18343907594680786	0.3664463758468628	0.14415320754051208	0.2750631868839264	-0.021836625412106514	0.48572680354118347	0.09352870285511017	0.1900964081287384	0.026727164164185524	0.1707794964313507	0.058595702052116394	0.05815460905432701	0.6215105652809143	0.6038652658462524	0.7437148094177246	0.3543744385242462	0.8003332018852234	0.41499248147010803	0.4269239902496338	0.4049800932407379	0.37237459421157837	0.2884988486766815	0.8124369978904724	0.280166894197464	0.38963887095451355	0.23743923008441925	0.11483181267976761	0.4699000120162964	0.4631395637989044	0.29134610295295715	0.30438363552093506	0.5567465424537659	0.49661630392074585	0.26556912064552307	
Oui/bateau/beau	0.1146138459444046	0.0775664672255516	-0.011066262610256672	0.1780221313238144	0.07286601513624191	0.21272194385528564	0.0650104284286499	0.13072313368320465	0.09162990003824234	0.14150236546993256	0.20368637144565582	0.0958707258105278	0.12680232524871826	0.15378768742084503	0.09654711931943893	0.16017316281795502	0.08952315896749496	0.18074263632297516	0.09806599467992783	0.10953021794557571	0.1491071879863739	0.09483639895915985	0.15386153757572174	0.6737490892410278	0.3761184513568878	0.42365458607673645	0.39155954122543335	0.6416876912117004	0.5697193145751953	0.1766730099916458	0.4082944691181183	0.6146199703216553	0.7328391671180725	1.0	0.1905125230550766	0.36966627836227417	0.15426088869571686	0.11627237498760223	0.06410208344459534	0.3944234848022461	0.3629300892353058	0.31386175751686096	0.18431693315505981	0.29937997460365295	0.2917200028896332	0.22432012856006622	0.18940411508083344	-0.12116873264312744	0.125245600938797	0.004980196710675955	0.14667895436286926	0.10893218964338303	0.246470108628273	0.13850213587284088	0.2198096513748169	0.14936088025569916	-0.029059618711471558	0.15347841382026672	0.16074660420417786	0.11542632430791855	0.1388467401266098	0.04591449722647667	0.1062355786561966	0.1655445396900177	0.2433006763458252	0.18580064177513123	0.17813818156719208	0.03723641857504845	0.1550869196653366	0.24606694281101227	0.20163123309612274	0.11867716908454895	0.17718447744846344	0.22846364974975586	0.15437912940979004	0.11985890567302704	0.10703238099813461	0.14105555415153503	0.10635114461183548	0.0943470373749733	0.17374327778816223	0.12125944346189499	0.3134256601333618	0.11064743995666504	0.25649571418762207	0.13774548470973969	0.3678185045719147	0.09714245796203613	0.16285106539726257	0.050459906458854675	0.12418458610773087	0.03340810909867287	0.09679588675498962	0.6049220561981201	0.5545436143875122	0.6807156205177307	0.19272266328334808	0.6987872123718262	0.3981294333934784	0.3661248981952667	0.40644919872283936	0.23499120771884918	0.2959984242916107	0.7241800427436829	0.24367572367191315	0.37534576654434204	0.23221080005168915	0.1394462138414383	0.46470531821250916	0.41663864254951477	0.26654356718063354	0.2670303285121918	0.5072246789932251	0.4323156476020813	0.24231547117233276	
Non/journalistes/grands	0.16235612332820892	0.018353763967752457	0.00377873657271266	0.1782863438129425	0.09029439091682434	0.16901721060276031	0.08196745812892914	0.10204146057367325	0.030422935262322426	0.10380499064922333	0.14060503244400024	0.09757213294506073	0.11520923674106598	0.10603048652410507	0.07853595167398453	0.11472401022911072	0.04657183960080147	0.035491809248924255	0.06986287981271744	0.09173326194286346	0.12681028246879578	0.08227760344743729	0.06443741917610168	0.17151586711406708	0.11436138302087784	0.14616572856903076	0.432199627161026	0.1582850068807602	0.18626058101654053	0.08738197386264801	0.10581102967262268	0.1736152619123459	0.22895589470863342	0.1905125230550766	1.0	0.5438516139984131	0.4426981806755066	0.08154971152544022	0.4802926778793335	0.2847103774547577	0.39281168580055237	0.3534773290157318	0.140113964676857	0.357643723487854	0.3279326856136322	-0.010539544746279716	0.6506616473197937	-0.07372480630874634	0.048186950385570526	-0.06935426592826843	-0.03737147897481918	-0.004495445638895035	0.04182823374867439	0.05291241034865379	0.04952555149793625	-0.018612153828144073	0.004467687103897333	-0.03306122124195099	0.0402049720287323	0.04649411141872406	0.10786496102809906	-0.04543905705213547	-0.04430588707327843	0.04889911785721779	0.09069859236478806	0.0831681415438652	0.048686061054468155	-0.05150536820292473	0.01646309718489647	0.0037757945246994495	0.04120653495192528	0.0850156918168068	0.13227351009845734	0.13065123558044434	0.09385085105895996	0.0017935073701664805	0.08530646562576294	0.003706933232024312	0.06842261552810669	0.08863787353038788	0.14592063426971436	0.10389772057533264	0.40235069394111633	0.6359035968780518	0.2619740068912506	0.02283547632396221	0.3602577745914459	0.3306862413883209	0.19530877470970154	0.289705753326416	0.6032472252845764	0.1616048961877823	0.08414679020643234	0.14213599264621735	0.10154368728399277	0.1802423596382141	0.03289974108338356	0.22142384946346283	0.3554942011833191	0.5100252032279968	0.14957427978515625	0.3194282352924347	0.012455354444682598	0.22017145156860352	0.029810160398483276	0.11143027991056442	0.3972250819206238	-0.065919890999794	0.1868123710155487	0.25399965047836304	0.46031054854393005	0.12785832583904266	0.2356182187795639	0.21212853491306305	0.12105575948953629	
Non/journaliste/grand	0.06351342052221298	0.050179850310087204	-0.04167863726615906	0.13929592072963715	0.04727645590901375	0.13534294068813324	0.05440974608063698	0.16571234166622162	0.08098983764648438	0.06735611706972122	0.09779062867164612	0.10856356471776962	0.1472647786140442	0.1230781078338623	0.012173174880445004	0.029644498601555824	-0.001803076476790011	0.019457152113318443	0.08261817693710327	0.11634010821580887	0.08110907673835754	0.042097050696611404	0.04777052253484726	0.39620110392570496	0.22574788331985474	0.27720269560813904	0.22968429327011108	0.404582142829895	0.346527636051178	0.12586063146591187	0.18097403645515442	0.34834399819374084	0.4506787657737732	0.36966627836227417	0.5438516139984131	1.0	0.5533956289291382	0.10238455981016159	0.22563450038433075	0.6114993095397949	0.7853476405143738	0.6597515344619751	0.23768280446529388	0.6370660066604614	0.6094263195991516	0.013566465117037296	0.3189511001110077	-0.11579228192567825	0.06915297359228134	-0.04210153594613075	-0.0006248560384847224	-0.07566292583942413	0.11416775733232498	-0.004160618409514427	0.05236802622675896	-0.046454787254333496	-0.12127550691366196	-0.11014730483293533	0.07521265000104904	-0.00833077821880579	0.016157058998942375	-0.04589371010661125	0.020894508808851242	0.05605921894311905	0.11615332216024399	0.061317991465330124	-0.03244447335600853	-0.09941146522760391	0.04074431583285332	-0.0450824499130249	0.07558978348970413	-0.03061135858297348	0.09699052572250366	0.06635280698537827	0.13776034116744995	0.05347694456577301	0.08163116872310638	0.049512140452861786	0.05773497000336647	0.07910797744989395	0.1276843398809433	0.07752469927072525	0.7932149171829224	0.3156459331512451	0.5675563812255859	0.013316396623849869	0.7731019258499146	0.19608892500400543	0.3828001022338867	0.18729446828365326	0.33537399768829346	0.14313265681266785	0.14222292602062225	0.328303724527359	0.22047345340251923	0.41301965713500977	0.08173459023237228	0.4422672390937805	0.16470235586166382	0.30459603667259216	0.2269630879163742	0.1925709843635559	0.09880496561527252	0.4044153094291687	0.13916480541229248	0.33769139647483826	0.1826213002204895	0.11177977174520493	0.37489044666290283	0.4381074905395508	0.22264045476913452	0.3110336363315582	0.47799214720726013	0.4442526698112488	0.30298706889152527	
Non/journaliste/grande	0.13946323096752167	0.028339101001620293	-0.07343172281980515	0.2658372223377228	0.0990956649184227	0.22659413516521454	0.08662543445825577	0.11729304492473602	0.009932272136211395	0.15369737148284912	0.11237818747758865	0.06981536746025085	0.2890686094760895	0.1596928983926773	0.1310815066099167	0.18525010347366333	0.027390995994210243	0.009298902004957199	0.11141746491193771	0.14054620265960693	0.1529882848262787	0.1735011637210846	0.1897251009941101	0.18473759293556213	0.42615389823913574	0.4966127872467041	0.17975667119026184	0.18906714022159576	0.1987755447626114	0.17064307630062103	0.3307342529296875	0.16202256083488464	0.1954488903284073	0.15426088869571686	0.4426981806755066	0.5533956289291382	1.0	0.27857330441474915	0.13391460478305817	0.2121448665857315	0.3188498318195343	0.27027827501296997	0.45188507437705994	0.294249951839447	0.2671009600162506	0.04107587784528732	0.19194228947162628	-0.2381751984357834	0.08302455395460129	-0.08846832066774368	-0.05696999281644821	-0.09098684787750244	0.09459548443555832	-0.0547909177839756	0.08297521620988846	-0.09120728820562363	-0.1278950273990631	-0.12293785810470581	0.02508711814880371	0.14686165750026703	0.0610586479306221	-0.04978374019265175	-0.03156895563006401	0.08239582180976868	0.10555317997932434	0.03565168380737305	-0.1299898773431778	-0.12401887029409409	-0.03770376741886139	-0.10358735918998718	0.026325156912207603	0.0782366618514061	0.2767397463321686	0.2197144329547882	0.15673787891864777	0.07305899262428284	0.13568446040153503	0.055537667125463486	0.2211287021636963	0.2173982411623001	0.16155336797237396	0.23805347084999084	0.4387829005718231	0.20683997869491577	0.26981040835380554	0.028562335297465324	0.30008664727211	0.3069736063480377	0.15592338144779205	0.2714864909648895	0.2269469052553177	0.22714881598949432	0.012542862445116043	0.12384605407714844	0.08159782737493515	0.231736958026886	0.07474323362112045	0.1748349964618683	0.10295908898115158	0.22386489808559418	0.4272565543651581	0.20305484533309937	0.1790282279253006	0.1834499090909958	0.26639798283576965	0.1994474083185196	0.20281606912612915	0.18366612493991852	0.22460229694843292	0.25694623589515686	0.23015393316745758	0.5056134462356567	0.2245599627494812	0.24796229600906372	0.5175915360450745	
Oui/salle/grande	-0.030327750369906425	-0.03991595283150673	0.04980570077896118	0.04155081510543823	0.06470312923192978	0.05990886688232422	0.058522071689367294	0.033979129046201706	0.009022212587296963	0.11703754961490631	0.08670122176408768	0.033848874270915985	-0.07430949062108994	0.14952553808689117	0.10888639092445374	0.13963311910629272	0.17501600086688995	0.15972281992435455	0.16568030416965485	0.1266942322254181	0.13555578887462616	-0.041323158890008926	-0.037204641848802567	0.06539557129144669	0.22015762329101562	0.17806535959243774	0.0656019002199173	0.12726889550685883	0.10642179846763611	0.09976106137037277	0.31338801980018616	0.06191876158118248	0.13603575527668	0.11627237498760223	0.08154971152544022	0.10238455981016159	0.27857330441474915	1.0	0.04892690107226372	0.2628960609436035	0.14579297602176666	0.264527827501297	0.3484076261520386	0.12763571739196777	0.1215004101395607	0.07164356112480164	0.1758612096309662	-0.05458468571305275	0.0711306557059288	0.07599353790283203	0.11906322836875916	0.16120722889900208	0.09209474921226501	0.07605401426553726	0.05559768155217171	0.13011839985847473	0.031192883849143982	0.15543372929096222	0.08528224378824234	0.08617843687534332	0.17309080064296722	0.07208794355392456	0.03958074003458023	0.13688398897647858	0.1683850735425949	0.14926141500473022	0.035417795181274414	0.05295481160283089	0.1031755730509758	0.11260279268026352	0.08861760795116425	0.05941924452781677	0.08600182831287384	0.10724619030952454	0.17568710446357727	0.16688881814479828	0.18219684064388275	0.19175465404987335	-0.023676006123423576	-0.08034621924161911	0.10798075795173645	-0.05562995374202728	0.11085563898086548	0.09013587236404419	0.12418214231729507	0.2817387580871582	0.09033913165330887	0.16001476347446442	0.435805082321167	0.2632790505886078	0.113093800842762	0.1713247448205948	0.10072718560695648	0.07135528326034546	0.3397863805294037	0.08983217179775238	0.22943738102912903	0.0688266009092331	0.21596789360046387	0.07373395562171936	0.261165589094162	0.12126901745796204	0.39919984340667725	0.07841800898313522	0.4032890200614929	0.03538133576512337	0.1133621335029602	0.08438900858163834	0.09787149727344513	0.07662738114595413	0.06377656757831573	0.21488361060619354	0.08506736904382706	0.07208690792322159	0.18106648325920105	
Oui/arbres/grands	0.050722360610961914	-0.06167379766702652	0.060878124088048935	0.03802139312028885	0.10197417438030243	0.08936548233032227	0.09689289331436157	0.314706951379776	0.11393292993307114	0.02568560652434826	0.15276338160037994	0.18439218401908875	0.01598982885479927	0.004469787236303091	0.1474478542804718	0.12853485345840454	0.11537935584783554	0.1600313037633896	0.16526176035404205	0.02564583718776703	0.20300665497779846	0.10700656473636627	0.09192477911710739	0.0062324656173586845	0.06522808969020844	0.023236656561493874	0.263892263174057	0.08486361801624298	0.0969463661313057	0.2911973297595978	0.09644220769405365	0.055991776287555695	0.004115555435419083	0.06410208344459534	0.4802926778793335	0.22563450038433075	0.13391460478305817	0.04892690107226372	1.0	0.32707783579826355	0.2460642158985138	0.33473092317581177	0.08448411524295807	0.3069182336330414	0.2950955629348755	0.18692177534103394	0.5477616190910339	0.06767774373292923	0.11079777777194977	0.003927981946617365	0.16446135938167572	0.15351198613643646	0.11696530133485794	0.21559232473373413	0.11569327861070633	0.04741526022553444	0.15006086230278015	0.08650616556406021	0.1388777494430542	0.16434316337108612	0.10671760886907578	0.1556980460882187	0.17152836918830872	0.10527944564819336	0.11916211992502213	0.20094141364097595	0.21431724727153778	0.18685057759284973	0.16462048888206482	0.17753565311431885	0.20995861291885376	0.1547265201807022	0.137272447347641	0.1164870336651802	0.034430794417858124	0.0029017759952694178	0.008037843741476536	-0.05319499969482422	0.02915547601878643	0.0685691237449646	0.021524306386709213	0.015788573771715164	0.25091278553009033	0.4760046601295471	0.2014695703983307	0.10136393457651138	0.21898292005062103	0.2566366195678711	0.14102134108543396	0.30942028760910034	0.4505305886268616	0.1357189416885376	0.24592606723308563	0.024225909262895584	-0.04238354042172432	0.029665637761354446	0.06684009730815887	0.05215165391564369	0.20206913352012634	0.43456676602363586	0.08300437778234482	0.22963987290859222	0.0918324887752533	0.06551337242126465	0.03248264640569687	0.08709683269262314	0.23843975365161896	-0.008486350998282433	0.08216909319162369	0.14414890110492706	0.23934565484523773	0.06228959560394287	0.10477687418460846	0.1752227246761322	0.03393186628818512	
Oui/escalier/grand	0.04416960850358009	0.037494152784347534	-0.01821882836520672	0.09197420626878738	0.024033429101109505	0.13263247907161713	0.09396209567785263	0.19901438057422638	0.14736920595169067	0.07879249006509781	0.18561826646327972	0.11420194804668427	0.07056917995214462	0.17966289818286896	-0.010153562761843204	0.062076956033706665	0.09799019992351532	0.17846904695034027	0.10153420269489288	0.10925036668777466	0.12142190337181091	0.05231821537017822	0.07834059000015259	0.3265390396118164	0.24597963690757751	0.20530962944030762	0.1910012811422348	0.3654611110687256	0.3034864366054535	0.14221370220184326	0.21792365610599518	0.2939164340496063	0.4067717492580414	0.3944234848022461	0.2847103774547577	0.6114993095397949	0.2121448665857315	0.2628960609436035	0.32707783579826355	1.0	0.6461590528488159	0.6180345416069031	0.23856061697006226	0.6002748608589172	0.5438278317451477	0.052356842905282974	0.38278278708457947	-0.013936779461801052	0.11168952286243439	0.03589679300785065	0.1323983520269394	0.0659765973687172	0.12490160018205643	0.09267652034759521	0.13457974791526794	0.05077463388442993	0.04785079136490822	0.0978778749704361	0.11723379045724869	0.03997095674276352	0.04423193633556366	0.1383228749036789	0.13456784188747406	0.08428230881690979	0.21107491850852966	0.20648179948329926	0.12081078439950943	-0.014571643434464931	0.20701566338539124	0.1787421703338623	0.2403266280889511	0.0123108746483922	0.073420949280262	0.08934325724840164	0.17231768369674683	0.1385122537612915	0.07141347974538803	0.04931921139359474	0.047043364495038986	0.10763205587863922	0.11116106808185577	0.07094229012727737	0.523091197013855	0.2868359684944153	0.498268723487854	0.19368165731430054	0.6301156878471375	0.17811188101768494	0.43032824993133545	0.28863000869750977	0.26459136605262756	0.08577711880207062	0.29370394349098206	0.2616412937641144	0.27807164192199707	0.32512712478637695	0.18117882311344147	0.3984680473804474	0.187321737408638	0.2948000431060791	0.25322386622428894	0.1694057285785675	0.19972001016139984	0.3954945504665375	0.2798866331577301	0.2627646327018738	0.15543344616889954	0.046777427196502686	0.288257896900177	0.33196336030960083	0.19372762739658356	0.24091540277004242	0.4011117219924927	0.3850363492965698	0.2187863439321518	
Oui/supermarché/grand	0.00022172970056999475	-0.016642538830637932	-0.12645965814590454	0.031533192843198776	0.009199826046824455	0.1320899873971939	0.032230280339717865	0.10645382851362228	0.049871236085891724	0.03316874802112579	0.024659309536218643	0.046338412910699844	0.11760541051626205	0.12730614840984344	0.0027812691405415535	-0.0030501028522849083	0.01222376711666584	0.07763387262821198	0.09873359650373459	0.1193825826048851	0.07225362956523895	0.08632581681013107	0.09749362617731094	0.3577430248260498	0.2110099196434021	0.2257886379957199	0.2169770747423172	0.3606680929660797	0.2855603098869324	0.15842792391777039	0.2626332938671112	0.33141735196113586	0.4353058636188507	0.3629300892353058	0.39281168580055237	0.7853476405143738	0.3188498318195343	0.14579297602176666	0.2460642158985138	0.6461590528488159	1.0	0.6622844338417053	0.2449933886528015	0.5934056639671326	0.6323086023330688	0.032647505402565	0.3433517515659332	-0.09337402135133743	0.10989666730165482	-0.02376476675271988	0.016658945009112358	-0.00022484669170808047	0.1317160427570343	0.09742915630340576	0.06803020089864731	-0.007890317589044571	-0.06508512794971466	-0.009783574379980564	0.040097352117300034	-0.04102626070380211	0.014120666310191154	0.05195597931742668	0.07367287576198578	0.10099168866872787	0.18024714291095734	0.12710386514663696	-0.014811713248491287	-0.0409928634762764	0.09512747079133987	0.04743703827261925	0.1299753189086914	-0.06416220963001251	0.06178975850343704	0.034047357738018036	0.15481586754322052	0.07494290173053741	0.0963195413351059	0.06891434639692307	0.09579942375421524	0.09810398519039154	0.1748759001493454	0.07283975183963776	0.6786547303199768	0.25892430543899536	0.549256443977356	-0.0075856586918234825	0.786307692527771	0.17933101952075958	0.4190337657928467	0.16704604029655457	0.3059678375720978	0.07415316253900528	0.16630819439888	0.2939414978027344	0.23990923166275024	0.3609970510005951	0.12461576610803604	0.42895370721817017	0.1580570489168167	0.27397334575653076	0.26364147663116455	0.17473532259464264	0.15571913123130798	0.3568626046180725	0.17389008402824402	0.2700079679489136	0.0915653184056282	0.09197379648685455	0.2881925106048584	0.3458300828933716	0.12681075930595398	0.26652273535728455	0.424774169921875	0.39237409830093384	0.21328015625476837	
Oui/chapiteau/grand	0.05216987431049347	-0.0005825871485285461	-0.06545526534318924	0.11463703215122223	0.045047562569379807	0.16797856986522675	0.1346326768398285	0.17154085636138916	0.09389537572860718	0.0838402658700943	0.1490202099084854	0.13638204336166382	0.03896597772836685	0.15607845783233643	-0.0009421627037227154	0.05385769531130791	0.0432908833026886	0.11640781909227371	0.16154415905475616	0.16222195327281952	0.16017821431159973	0.049317412078380585	0.03866560757160187	0.2645628750324249	0.2362186759710312	0.20139019191265106	0.2250426858663559	0.30240216851234436	0.23998458683490753	0.2230197936296463	0.16857142746448517	0.2897328734397888	0.31274643540382385	0.31386175751686096	0.3534773290157318	0.6597515344619751	0.27027827501296997	0.264527827501297	0.33473092317581177	0.6180345416069031	0.6622844338417053	1.0	0.24501089751720428	0.629436731338501	0.5316111445426941	0.05756346508860588	0.4089237451553345	-0.04583851620554924	0.09754382818937302	0.04873502254486084	0.0880226120352745	0.07779241353273392	0.19523067772388458	0.14120367169380188	0.13048915565013885	0.049655936658382416	0.03434167802333832	0.025015821680426598	0.08094585686922073	0.008593745529651642	0.023581234738230705	0.053524427115917206	0.07243624329566956	0.08351721614599228	0.13295918703079224	0.1486590951681137	0.04977910593152046	0.03843791410326958	0.2000029981136322	0.12514398992061615	0.14807535707950592	-0.012475716881453991	0.09117948263883591	0.10347062349319458	0.16640427708625793	0.18012697994709015	0.1096779927611351	0.12084893882274628	0.02082686312496662	0.06280168145895004	0.13500219583511353	0.00990938302129507	0.6306320428848267	0.31559422612190247	0.5237475633621216	0.2891598343849182	0.6247848272323608	0.21632669866085052	0.4432882070541382	0.24795790016651154	0.25580543279647827	0.11746396869421005	0.28691595792770386	0.23640568554401398	0.22760123014450073	0.24044686555862427	0.1247132197022438	0.3476540446281433	0.2284139096736908	0.36142498254776	0.28613153100013733	0.15311135351657867	0.22336868941783905	0.34879758954048157	0.17831628024578094	0.24871455132961273	0.15520790219306946	0.011679302901029587	0.2655046880245209	0.3474583923816681	0.17766344547271729	0.1992526799440384	0.41284915804862976	0.3867362439632416	0.22241193056106567	
